{"learner":{"attributes":{"best_iteration":"198","best_score":"0.14184327225792423","scikit_learn":"{\"_estimator_type\": \"regressor\"}"},"feature_names":[],"feature_types":[],"gradient_booster":{"model":{"gbtree_model_param":{"num_parallel_tree":"1","num_trees":"219"},"iteration_indptr":[0,1,2,3,4,5,6,7,8,9,10,11,12,13,14,15,16,17,18,19,20,21,22,23,24,25,26,27,28,29,30,31,32,33,34,35,36,37,38,39,40,41,42,43,44,45,46,47,48,49,50,51,52,53,54,55,56,57,58,59,60,61,62,63,64,65,66,67,68,69,70,71,72,73,74,75,76,77,78,79,80,81,82,83,84,85,86,87,88,89,90,91,92,93,94,95,96,97,98,99,100,101,102,103,104,105,106,107,108,109,110,111,112,113,114,115,116,117,118,119,120,121,122,123,124,125,126,127,128,129,130,131,132,133,134,135,136,137,138,139,140,141,142,143,144,145,146,147,148,149,150,151,152,153,154,155,156,157,158,159,160,161,162,163,164,165,166,167,168,169,170,171,172,173,174,175,176,177,178,179,180,181,182,183,184,185,186,187,188,189,190,191,192,193,194,195,196,197,198,199,200,201,202,203,204,205,206,207,208,209,210,211,212,213,214,215,216,217,218,219],"tree_info":[0,0,0,0,0,0,0,0,0,0,0,0,0,0,0,0,0,0,0,0,0,0,0,0,0,0,0,0,0,0,0,0,0,0,0,0,0,0,0,0,0,0,0,0,0,0,0,0,0,0,0,0,0,0,0,0,0,0,0,0,0,0,0,0,0,0,0,0,0,0,0,0,0,0,0,0,0,0,0,0,0,0,0,0,0,0,0,0,0,0,0,0,0,0,0,0,0,0,0,0,0,0,0,0,0,0,0,0,0,0,0,0,0,0,0,0,0,0,0,0,0,0,0,0,0,0,0,0,0,0,0,0,0,0,0,0,0,0,0,0,0,0,0,0,0,0,0,0,0,0,0,0,0,0,0,0,0,0,0,0,0,0,0,0,0,0,0,0,0,0,0,0,0,0,0,0,0,0,0,0,0,0,0,0,0,0,0,0,0,0,0,0,0,0,0,0,0,0,0,0,0,0,0,0,0,0,0,0,0,0,0,0,0,0,0,0,0,0,0],"trees":[{"base_weights":[3.983241E-5,-2.6719388E-1,3.0759686E-1,-3.216499E-1,-1.3454533E-1,1.06696576E-1,4.174288E-1,-3.9942402E-1,-2.9709378E-1,-1.7967042E-1,-1.0412072E-1,8.129505E-2,1.4697878E-1,3.6068112E-1,4.6448168E-1,-2.239451E-2,-3.7896952E-1,-3.1810114E-1,-2.6704395E-1,-2.0164822E-1,-1.5805987E-1,-1.1819362E-1,-5.1601786E-2,5.1790524E-2,9.31621E-2,1.3700849E-1,1.7305326E-1,3.3419898E-1,3.7572128E-1,4.43662E-1,4.7932243E-1,-1.9727329E-2,-1.8173901E-2,-3.300524E-1,-3.048592E-1,-2.777456E-1,-2.4467626E-1,-1.0743011E-2,-1.8902393E-1,-8.429241E-3,-7.3917466E-3,-1.2559533E-1,-1.0193093E-1,-5.699663E-2,1.1197778E-2,3.4904756E-2,6.306879E-2,8.2626924E-2,1.011123E-1,1.2521163E-1,7.283417E-3,8.381235E-3,2.3762622E-1,1.6131505E-2,1.7102385E-2,1.8362544E-2,1.9444378E-2,2.1738602E-2,2.2739096E-2,2.3521E-2,2.4387818E-2,-1.6950773E-2,-1.6216863E-2,-1.552665E-2,-1.4971104E-2,-1.4248933E-2,-1.3496229E-2,-1.2538344E-2,-1.1756301E-2,-5.6280056E-3,-9.499072E-3,-6.5680533E-3,-5.942733E-3,-5.3770426E-3,-4.657574E-3,-3.2273417E-3,-2.14994E-3,6.8961584E-4,4.6316237E-4,1.1073304E-3,2.051479E-3,2.7508184E-3,3.4043428E-3,3.979385E-3,4.3270164E-3,4.811356E-3,5.322275E-3,5.8847694E-3,6.5172142E-3,1.0108567E-2,1.4566821E-2],"categories":[],"categories_nodes":[],"categories_segments":[],"categories_sizes":[],"default_left":[0,0,0,0,0,0,0,0,0,0,0,0,0,0,0,0,0,0,0,0,0,0,0,0,0,0,0,0,0,0,0,0,0,0,0,0,0,0,0,0,0,0,0,0,0,0,0,0,0,0,0,0,0,0,0,0,0,0,0,0,0,0,0,0,0,0,0,0,0,0,0,0,0,0,0,0,0,0,0,0,0,0,0,0,0,0,0,0,0,0,0],"id":0,"left_children":[1,3,5,7,9,11,13,15,17,19,21,23,25,27,29,-1,31,33,35,37,39,41,43,45,47,49,51,53,55,57,59,-1,-1,61,63,65,67,-1,69,-1,-1,71,73,75,77,79,81,83,85,87,-1,-1,89,-1,-1,-1,-1,-1,-1,-1,-1,-1,-1,-1,-1,-1,-1,-1,-1,-1,-1,-1,-1,-1,-1,-1,-1,-1,-1,-1,-1,-1,-1,-1,-1,-1,-1,-1,-1,-1,-1],"loss_changes":[3.5393313E3,1.66401E2,4.4172424E2,3.1078247E1,9.190796E0,7.2304688E0,3.4394775E1,3.713379E0,7.7547607E0,1.2505035E0,2.9569283E0,1.5157948E0,6.8756485E-1,2.2131958E0,1.9727783E0,0E0,5.2285767E-1,1.0553589E0,1.1566467E0,1.8205261E-1,1.2208176E-1,3.6769485E-1,2.8827405E-1,2.354703E-1,2.509575E-1,1.8444443E-1,2.24123E-1,8.3602905E-2,2.7398682E-1,9.460449E-2,7.9711914E-2,0E0,0E0,8.609009E-2,1.4312744E-2,1.184082E-1,3.7826538E-2,0E0,2.9211044E-2,0E0,0E0,6.864548E-2,3.8939476E-2,7.9871655E-2,2.1354482E-4,3.8318217E-2,2.6438475E-2,9.01413E-3,3.56102E-2,1.7334938E-2,0E0,0E0,4.774022E-2,0E0,0E0,0E0,0E0,0E0,0E0,0E0,0E0,0E0,0E0,0E0,0E0,0E0,0E0,0E0,0E0,0E0,0E0,0E0,0E0,0E0,0E0,0E0,0E0,0E0,0E0,0E0,0E0,0E0,0E0,0E0,0E0,0E0,0E0,0E0,0E0,0E0,0E0],"parents":[2147483647,0,0,1,1,2,2,3,3,4,4,5,5,6,6,7,7,8,8,9,9,10,10,11,11,12,12,13,13,14,14,16,16,17,17,18,18,19,19,20,20,21,21,22,22,23,23,24,24,25,25,26,26,27,27,28,28,29,29,30,30,33,33,34,34,35,35,36,36,38,38,41,41,42,42,43,43,44,44,45,45,46,46,47,47,48,48,49,49,52,52],"right_children":[2,4,6,8,10,12,14,16,18,20,22,24,26,28,30,-1,32,34,36,38,40,42,44,46,48,50,52,54,56,58,60,-1,-1,62,64,66,68,-1,70,-1,-1,72,74,76,78,80,82,84,86,88,-1,-1,90,-1,-1,-1,-1,-1,-1,-1,-1,-1,-1,-1,-1,-1,-1,-1,-1,-1,-1,-1,-1,-1,-1,-1,-1,-1,-1,-1,-1,-1,-1,-1,-1,-1,-1,-1,-1,-1,-1],"split_conditions":[5.0912714E-1,2.6315182E-1,7.97312E-1,1.4238301E-1,3.4910956E-1,6.050448E-1,9.040823E-1,7.809728E-2,1.9880518E-1,3.1164953E-1,4.1320944E-1,5.655493E-1,6.5018255E-1,8.476601E-1,9.5486224E-1,-2.239451E-2,1.1417192E-1,1.7217392E-1,2.2773962E-1,2.8908065E-1,3.3421838E-1,3.7512445E-1,5.045405E-1,5.4028195E-1,5.8247596E-1,6.2761366E-1,6.783936E-1,8.2509124E-1,8.70229E-1,9.34683E-1,9.7178894E-1,-1.9727329E-2,-1.8173901E-2,1.5930966E-1,1.8436775E-1,2.121047E-1,2.4649101E-1,-1.0743011E-2,1.1299435E-2,-8.429241E-3,-7.3917466E-3,3.6807168E-1,3.9064056E-1,4.3642312E-1,2.5753295E-1,5.2041155E-1,5.5426484E-1,5.716617E-1,5.937604E-1,6.1632925E-1,7.283417E-3,8.381235E-3,1.2734082E-1,1.6131505E-2,1.7102385E-2,1.8362544E-2,1.9444378E-2,2.1738602E-2,2.2739096E-2,2.3521E-2,2.4387818E-2,-1.6950773E-2,-1.6216863E-2,-1.552665E-2,-1.4971104E-2,-1.4248933E-2,-1.3496229E-2,-1.2538344E-2,-1.1756301E-2,-5.6280056E-3,-9.499072E-3,-6.5680533E-3,-5.942733E-3,-5.3770426E-3,-4.657574E-3,-3.2273417E-3,-2.14994E-3,6.8961584E-4,4.6316237E-4,1.1073304E-3,2.051479E-3,2.7508184E-3,3.4043428E-3,3.979385E-3,4.3270164E-3,4.811356E-3,5.322275E-3,5.8847694E-3,6.5172142E-3,1.0108567E-2,1.4566821E-2],"split_indices":[475,475,465,475,475,475,475,475,475,475,475,475,475,475,475,0,475,475,475,475,475,475,1,475,475,475,475,475,475,475,475,0,0,475,475,475,475,0,384,0,0,475,475,475,184,475,475,475,475,475,0,0,418,0,0,0,0,0,0,0,0,0,0,0,0,0,0,0,0,0,0,0,0,0,0,0,0,0,0,0,0,0,0,0,0,0,0,0,0,0,0],"split_type":[0,0,0,0,0,0,0,0,0,0,0,0,0,0,0,0,0,0,0,0,0,0,0,0,0,0,0,0,0,0,0,0,0,0,0,0,0,0,0,0,0,0,0,0,0,0,0,0,0,0,0,0,0,0,0,0,0,0,0,0,0,0,0,0,0,0,0,0,0,0,0,0,0,0,0,0,0,0,0,0,0,0,0,0,0,0,0,0,0,0,0],"sum_hessian":[4.3061E4,2.3041E4,2.002E4,1.6334E4,6.707E3,7.077E3,1.2943E4,3.916E3,1.2418E4,2.699E3,4.008E3,4.342E3,2.735E3,5.871E3,7.072E3,1.156E3,2.76E3,7.303E3,5.115E3,1.334E3,1.365E3,3.16E3,8.48E2,1.247E3,3.095E3,1.983E3,7.52E2,2.135E3,3.736E3,2.956E3,4.116E3,1.364E3,1.396E3,3.826E3,3.477E3,3.452E3,1.663E3,6.44E2,6.9E2,6.65E2,7E2,2.167E3,9.93E2,7.81E2,6.7E1,5.01E2,7.46E2,1.336E3,1.759E3,8.46E2,1.137E3,6.97E2,5.5E1,8.8E2,1.255E3,2.291E3,1.445E3,1.665E3,1.291E3,2.03E3,2.086E3,1.467E3,2.359E3,1.674E3,1.803E3,1.775E3,1.677E3,1E3,6.63E2,1E1,6.8E2,1.158E3,1.009E3,5.99E2,3.94E2,5.05E2,2.76E2,2.6E1,4.1E1,1.64E2,3.37E2,2.91E2,4.55E2,7.64E2,5.72E2,9.28E2,8.31E2,3.53E2,4.93E2,3.6E1,1.9E1],"tree_param":{"num_deleted":"0","num_feature":"480","num_nodes":"91","size_leaf_vector":"1"}},{"base_weights":[-1.0553842E-3,-2.5377896E-1,2.9180694E-1,-3.065471E-1,-1.2981793E-1,1.0144021E-1,3.9672178E-1,-3.8057706E-1,-2.831728E-1,-1.7687751E-1,-1.0105161E-1,7.742527E-2,1.3990957E-1,3.4295005E-1,4.4123566E-1,-2.1268487E-2,-3.604121E-1,-3.0269358E-1,-2.553538E-1,-1.9766577E-1,-1.5647149E-1,-1.1570979E-1,-5.454105E-2,4.953724E-2,8.864669E-2,1.305078E-1,1.6383168E-1,3.179149E-1,3.5728192E-1,2.0889938E-2,4.531658E-1,-1.8824544E-2,-1.7370721E-2,-3.1569302E-1,-2.917959E-1,-2.657868E-1,-2.3691785E-1,-1.0462336E-2,-1.8452564E-1,-1.6337113E-1,-7.140679E-3,-1.2667322E-1,-1.07128486E-1,-6.257149E-2,-1.0608502E-2,3.3414073E-2,6.0298715E-2,8.0893435E-2,9.8634645E-2,1.1951981E-1,6.928018E-3,1.6097975E-1,2.6778552E-1,1.5343715E-2,1.6262984E-2,1.746281E-2,1.8494824E-2,2.2235777E-2,2.317733E-2,-1.6121624E-2,-1.5488508E-2,-1.4947812E-2,-1.4331537E-2,-1.3645038E-2,-1.2989837E-2,-1.23427985E-2,-1.1541516E-2,-9.745965E-4,-9.278537E-3,-8.55125E-3,-7.924784E-3,-6.659677E-3,-6.075092E-3,-5.616022E-3,-4.9437243E-3,-3.7874586E-3,-2.6258305E-3,-1.678239E-3,5.9586193E-4,1.2990203E-3,2.1694596E-3,2.6251401E-3,3.2353294E-3,3.820923E-3,4.2807576E-3,4.819264E-3,5.224627E-3,5.6007723E-3,6.2007383E-3,7.808003E-3,8.483512E-3,3.5759062E-3,1.3735801E-2],"categories":[],"categories_nodes":[],"categories_segments":[],"categories_sizes":[],"default_left":[0,0,0,0,0,0,0,0,0,0,0,0,0,0,0,0,0,0,0,0,0,0,0,0,0,0,0,0,0,0,0,0,0,0,0,0,0,0,0,0,0,0,0,0,0,0,0,0,0,0,0,0,0,0,0,0,0,0,0,0,0,0,0,0,0,0,0,0,0,0,0,0,0,0,0,0,0,0,0,0,0,0,0,0,0,0,0,0,0,0,0,0,0],"id":1,"left_children":[1,3,5,7,9,11,13,15,17,19,21,23,25,27,29,-1,31,33,35,37,39,41,43,45,47,49,51,53,55,-1,57,-1,-1,59,61,63,65,-1,67,69,-1,71,73,75,77,79,81,83,85,87,-1,89,91,-1,-1,-1,-1,-1,-1,-1,-1,-1,-1,-1,-1,-1,-1,-1,-1,-1,-1,-1,-1,-1,-1,-1,-1,-1,-1,-1,-1,-1,-1,-1,-1,-1,-1,-1,-1,-1,-1,-1,-1],"loss_changes":[3.202182E3,1.5187292E2,4.002246E2,2.8078735E1,9.371613E0,6.568756E0,3.0773682E1,3.3747559E0,6.647827E0,1.0847244E0,2.930027E0,1.3684883E0,5.9397125E-1,1.9875488E0,1.7861328E0,0E0,4.3344116E-1,9.3811035E-1,9.204407E-1,1.5906525E-1,1.02191925E-1,2.9445267E-1,3.6412883E-1,2.1677995E-1,2.3417473E-1,1.5766144E-1,1.8458176E-1,7.3791504E-2,2.4700928E-1,0E0,2.0349121E-1,0E0,0E0,3.1982422E-2,6.1065674E-2,6.790161E-2,5.5358887E-2,0E0,1.0280037E-1,5.657196E-3,0E0,3.2100677E-2,6.787491E-2,1.11827135E-1,8.365424E-2,3.646761E-2,2.2547007E-2,3.077221E-2,7.874489E-3,1.4442444E-2,0E0,4.919052E-3,6.197214E-3,0E0,0E0,0E0,0E0,0E0,0E0,0E0,0E0,0E0,0E0,0E0,0E0,0E0,0E0,0E0,0E0,0E0,0E0,0E0,0E0,0E0,0E0,0E0,0E0,0E0,0E0,0E0,0E0,0E0,0E0,0E0,0E0,0E0,0E0,0E0,0E0,0E0,0E0,0E0,0E0],"parents":[2147483647,0,0,1,1,2,2,3,3,4,4,5,5,6,6,7,7,8,8,9,9,10,10,11,11,12,12,13,13,14,14,16,16,17,17,18,18,19,19,20,20,21,21,22,22,23,23,24,24,25,25,26,26,27,27,28,28,30,30,33,33,34,34,35,35,36,36,38,38,39,39,41,41,42,42,43,43,44,44,45,45,46,46,47,47,48,48,49,49,51,51,52,52],"right_children":[2,4,6,8,10,12,14,16,18,20,22,24,26,28,30,-1,32,34,36,38,40,42,44,46,48,50,52,54,56,-1,58,-1,-1,60,62,64,66,-1,68,70,-1,72,74,76,78,80,82,84,86,88,-1,90,92,-1,-1,-1,-1,-1,-1,-1,-1,-1,-1,-1,-1,-1,-1,-1,-1,-1,-1,-1,-1,-1,-1,-1,-1,-1,-1,-1,-1,-1,-1,-1,-1,-1,-1,-1,-1,-1,-1,-1,-1],"split_conditions":[5.094663E-1,2.588174E-1,7.97312E-1,1.3854548E-1,3.4595507E-1,6.053177E-1,9.041486E-1,7.721262E-2,1.9581676E-1,3.060073E-1,3.9669994E-1,5.655493E-1,6.5018255E-1,8.477654E-1,9.492551E-1,-2.1268487E-2,1.050579E-1,1.7116718E-1,2.2420262E-1,2.8358117E-1,3.3421838E-1,3.675686E-1,4.474448E-1,5.4047704E-1,5.8635247E-1,6.27871E-1,7.97312E-1,8.2509124E-1,8.7031865E-1,2.0889938E-2,9.7178894E-1,-1.8824544E-2,-1.7370721E-2,1.5885685E-1,1.8244383E-1,2.1063542E-1,2.3633951E-1,-1.0462336E-2,5.6179776E-3,3.1776348E-1,-7.140679E-3,3.572317E-1,3.7978497E-1,4.2276984E-1,4.4461885E-1,5.3169596E-1,5.5426484E-1,5.7712615E-1,5.994026E-1,6.1632925E-1,6.928018E-3,6.617009E-1,1.220339E-1,1.5343715E-2,1.6262984E-2,1.746281E-2,1.8494824E-2,2.2235777E-2,2.317733E-2,-1.6121624E-2,-1.5488508E-2,-1.4947812E-2,-1.4331537E-2,-1.3645038E-2,-1.2989837E-2,-1.23427985E-2,-1.1541516E-2,-9.745965E-4,-9.278537E-3,-8.55125E-3,-7.924784E-3,-6.659677E-3,-6.075092E-3,-5.616022E-3,-4.9437243E-3,-3.7874586E-3,-2.6258305E-3,-1.678239E-3,5.9586193E-4,1.2990203E-3,2.1694596E-3,2.6251401E-3,3.2353294E-3,3.820923E-3,4.2807576E-3,4.819264E-3,5.224627E-3,5.6007723E-3,6.2007383E-3,7.808003E-3,8.483512E-3,3.5759062E-3,1.3735801E-2],"split_indices":[478,478,457,478,478,478,478,478,478,475,478,475,475,478,478,0,478,478,478,478,475,478,478,478,478,478,353,475,478,0,475,0,0,478,478,478,478,0,330,478,0,478,478,475,9,475,475,478,475,475,0,478,0,0,0,0,0,0,0,0,0,0,0,0,0,0,0,0,0,0,0,0,0,0,0,0,0,0,0,0,0,0,0,0,0,0,0,0,0,0,0,0,0],"split_type":[0,0,0,0,0,0,0,0,0,0,0,0,0,0,0,0,0,0,0,0,0,0,0,0,0,0,0,0,0,0,0,0,0,0,0,0,0,0,0,0,0,0,0,0,0,0,0,0,0,0,0,0,0,0,0,0,0,0,0,0,0,0,0,0,0,0,0,0,0,0,0,0,0,0,0,0,0,0,0,0,0,0,0,0,0,0,0,0,0,0,0,0,0],"sum_hessian":[4.3263E4,2.3223E4,2.004E4,1.6288E4,6.935E3,7.121E3,1.2919E4,3.905E3,1.2383E4,2.629E3,4.306E3,4.386E3,2.735E3,5.855E3,7.064E3,1.206E3,2.699E3,7.271E3,5.112E3,1.298E3,1.331E3,3.273E3,1.033E3,1.26E3,3.126E3,1.968E3,7.67E2,2.14E3,3.715E3,2.395E3,4.669E3,1.194E3,1.505E3,3.303E3,3.968E3,3.256E3,1.856E3,6.82E2,6.16E2,8.77E2,4.54E2,1.431E3,1.842E3,8.73E2,1.6E2,5.06E2,7.54E2,1.765E3,1.361E3,8.39E2,1.129E3,7.49E2,1.8E1,8.72E2,1.268E3,2.288E3,1.427E3,2.598E3,2.071E3,1.52E3,1.783E3,1.639E3,2.329E3,1.468E3,1.788E3,6.9E2,1.166E3,4E0,6.12E2,3.28E2,5.49E2,6.22E2,8.09E2,1.123E3,7.19E2,3.75E2,4.98E2,7.9E1,8.1E1,2.92E2,2.14E2,2.77E2,4.77E2,9.15E2,8.5E2,9.96E2,3.65E2,3.24E2,5.15E2,4.94E2,2.55E2,1E0,1.7E1],"tree_param":{"num_deleted":"0","num_feature":"480","num_nodes":"93","size_leaf_vector":"1"}},{"base_weights":[4.51579E-4,-2.4126522E-1,2.7747354E-1,-2.9070735E-1,-1.22900456E-1,9.64001E-2,3.7713048E-1,-3.6003724E-1,-2.686766E-1,-1.6723666E-1,-9.633866E-2,7.311123E-2,1.3272254E-1,3.2560357E-1,4.1916063E-1,-2.0265108E-2,-3.4204477E-1,-2.8701675E-1,-2.414754E-1,-1.8675333E-1,-1.488255E-1,-1.08178385E-1,-4.644174E-2,4.6663288E-2,8.4157646E-2,1.2401689E-1,1.5559343E-1,3.0197874E-1,3.392724E-1,4.004722E-1,4.3272436E-1,-1.7810188E-2,-1.6397698E-2,-2.978637E-1,-2.7498004E-1,-2.5162327E-1,-2.2406757E-1,-9.926588E-3,-1.757445E-1,-7.969929E-3,-1.4076142E-1,-1.1750061E-1,-9.630051E-2,-5.4660514E-2,-9.830063E-3,3.1640384E-2,5.6866553E-2,7.693646E-2,9.368559E-2,1.13482274E-1,6.5895203E-3,1.5274203E-1,2.4494971E-1,1.4260921E-2,1.5320874E-2,1.6665963E-2,1.7720396E-2,1.9360682E-2,2.0340737E-2,2.1242678E-2,2.202668E-2,-1.5170413E-2,-1.452469E-2,-1.4020192E-2,-1.3493408E-2,-1.284716E-2,-1.2246869E-2,-1.1584472E-2,-1.0833358E-2,-9.3561265E-4,-8.834762E-3,-7.362461E-3,-6.779237E-3,-6.323398E-3,-5.65633E-3,-5.1276474E-3,-4.374405E-3,-3.116431E-3,-2.3367691E-3,-1.5631154E-3,5.5865815E-4,9.954569E-4,1.8749671E-3,2.488096E-3,3.0688928E-3,3.6303406E-3,4.0691807E-3,4.449928E-3,4.816988E-3,5.321428E-3,5.8915555E-3,7.409861E-3,7.995575E-3,1.3076067E-2,5.249852E-3],"categories":[],"categories_nodes":[],"categories_segments":[],"categories_sizes":[],"default_left":[0,0,0,0,0,0,0,0,0,0,0,0,0,0,0,0,0,0,0,0,0,0,0,0,0,0,0,0,0,0,0,0,0,0,0,0,0,0,0,0,0,0,0,0,0,0,0,0,0,0,0,0,0,0,0,0,0,0,0,0,0,0,0,0,0,0,0,0,0,0,0,0,0,0,0,0,0,0,0,0,0,0,0,0,0,0,0,0,0,0,0,0,0,0,0],"id":2,"left_children":[1,3,5,7,9,11,13,15,17,19,21,23,25,27,29,-1,31,33,35,37,39,41,43,45,47,49,51,53,55,57,59,-1,-1,61,63,65,67,-1,69,-1,71,73,75,77,79,81,83,85,87,89,-1,91,93,-1,-1,-1,-1,-1,-1,-1,-1,-1,-1,-1,-1,-1,-1,-1,-1,-1,-1,-1,-1,-1,-1,-1,-1,-1,-1,-1,-1,-1,-1,-1,-1,-1,-1,-1,-1,-1,-1,-1,-1,-1,-1],"loss_changes":[2.8905664E3,1.3487512E2,3.6294348E2,2.4738647E1,7.9848404E0,6.031769E0,2.796106E1,3.0522766E0,6.088257E0,8.86322E-1,2.506321E0,1.268116E0,5.3601456E-1,1.781189E0,1.637085E0,0E0,4.4384766E-1,8.800049E-1,8.2281494E-1,1.2472916E-1,8.9595795E-2,3.690338E-1,2.4530041E-1,1.9516921E-1,2.0401573E-1,1.5087318E-1,1.5749931E-1,7.232666E-2,2.1408081E-1,9.6191406E-2,6.640625E-2,0E0,0E0,6.970215E-2,2.1484375E-2,4.8599243E-2,5.369568E-2,0E0,9.298706E-2,0E0,5.358696E-3,6.100273E-2,7.455826E-2,3.762114E-2,6.8321384E-2,3.513199E-2,2.1432877E-2,2.7824402E-2,7.835388E-3,1.4055252E-2,0E0,5.41687E-4,2.3564458E-2,0E0,0E0,0E0,0E0,0E0,0E0,0E0,0E0,0E0,0E0,0E0,0E0,0E0,0E0,0E0,0E0,0E0,0E0,0E0,0E0,0E0,0E0,0E0,0E0,0E0,0E0,0E0,0E0,0E0,0E0,0E0,0E0,0E0,0E0,0E0,0E0,0E0,0E0,0E0,0E0,0E0,0E0],"parents":[2147483647,0,0,1,1,2,2,3,3,4,4,5,5,6,6,7,7,8,8,9,9,10,10,11,11,12,12,13,13,14,14,16,16,17,17,18,18,19,19,20,20,21,21,22,22,23,23,24,24,25,25,26,26,27,27,28,28,29,29,30,30,33,33,34,34,35,35,36,36,38,38,40,40,41,41,42,42,43,43,44,44,45,45,46,46,47,47,48,48,49,49,51,51,52,52],"right_children":[2,4,6,8,10,12,14,16,18,20,22,24,26,28,30,-1,32,34,36,38,40,42,44,46,48,50,52,54,56,58,60,-1,-1,62,64,66,68,-1,70,-1,72,74,76,78,80,82,84,86,88,90,-1,92,94,-1,-1,-1,-1,-1,-1,-1,-1,-1,-1,-1,-1,-1,-1,-1,-1,-1,-1,-1,-1,-1,-1,-1,-1,-1,-1,-1,-1,-1,-1,-1,-1,-1,-1,-1,-1,-1,-1,-1,-1,-1,-1],"split_conditions":[5.101707E-1,2.6244098E-1,7.97312E-1,1.429756E-1,3.468943E-1,6.053177E-1,9.042862E-1,7.664366E-2,1.9935878E-1,3.060073E-1,4.1320944E-1,5.655493E-1,6.5018255E-1,8.47984E-1,9.5486224E-1,-2.0265108E-2,1.12747945E-1,1.7217392E-1,2.2865964E-1,2.8343844E-1,3.2340178E-1,3.7063634E-1,4.4823828E-1,5.4028195E-1,5.861787E-1,6.284054E-1,7.97312E-1,8.1561023E-1,8.7587124E-1,9.322934E-1,9.7180843E-1,-1.7810188E-2,-1.6397698E-2,1.6176909E-1,1.8432327E-1,2.1176308E-1,2.4394292E-1,-9.926588E-3,5.6179776E-3,-7.969929E-3,3.3563384E-1,3.5815474E-1,3.854233E-1,4.313476E-1,4.4461885E-1,5.2143115E-1,5.5426484E-1,5.777334E-1,5.928465E-1,6.1632925E-1,6.5895203E-3,6.6146696E-1,8.1012565E-1,1.4260921E-2,1.5320874E-2,1.6665963E-2,1.7720396E-2,1.9360682E-2,2.0340737E-2,2.1242678E-2,2.202668E-2,-1.5170413E-2,-1.452469E-2,-1.4020192E-2,-1.3493408E-2,-1.284716E-2,-1.2246869E-2,-1.1584472E-2,-1.0833358E-2,-9.3561265E-4,-8.834762E-3,-7.362461E-3,-6.779237E-3,-6.323398E-3,-5.65633E-3,-5.1276474E-3,-4.374405E-3,-3.116431E-3,-2.3367691E-3,-1.5631154E-3,5.5865815E-4,9.954569E-4,1.8749671E-3,2.488096E-3,3.0688928E-3,3.6303406E-3,4.0691807E-3,4.449928E-3,4.816988E-3,5.321428E-3,5.8915555E-3,7.409861E-3,7.995575E-3,1.3076067E-2,5.249852E-3],"split_indices":[473,473,473,478,473,478,473,473,478,475,475,475,475,473,475,0,478,475,473,475,478,475,473,475,473,473,369,473,475,475,478,0,0,475,478,478,475,0,330,0,473,473,478,473,9,473,475,473,478,475,0,475,1,0,0,0,0,0,0,0,0,0,0,0,0,0,0,0,0,0,0,0,0,0,0,0,0,0,0,0,0,0,0,0,0,0,0,0,0,0,0,0,0,0,0],"split_type":[0,0,0,0,0,0,0,0,0,0,0,0,0,0,0,0,0,0,0,0,0,0,0,0,0,0,0,0,0,0,0,0,0,0,0,0,0,0,0,0,0,0,0,0,0,0,0,0,0,0,0,0,0,0,0,0,0,0,0,0,0,0,0,0,0,0,0,0,0,0,0,0,0,0,0,0,0,0,0,0,0,0,0,0,0,0,0,0,0,0,0,0,0,0,0],"sum_hessian":[4.3166E4,2.3052E4,2.0114E4,1.6259E4,6.793E3,7.141E3,1.2973E4,3.917E3,1.2342E4,2.543E3,4.25E3,4.353E3,2.788E3,5.832E3,7.141E3,1.108E3,2.809E3,7.366E3,4.976E3,1.23E3,1.313E3,3.434E3,8.16E2,1.284E3,3.069E3,2.024E3,7.64E2,2.146E3,3.686E3,3.016E3,4.125E3,1.389E3,1.42E3,3.862E3,3.504E3,3.135E3,1.841E3,5.86E2,6.44E2,5.6E2,7.53E2,1.919E3,1.515E3,6.66E2,1.5E2,5.21E2,7.63E2,1.751E3,1.318E3,8.66E2,1.158E3,7.43E2,2.1E1,4.63E2,1.683E3,2.662E3,1.024E3,9.96E2,2.02E3,2.082E3,2.043E3,2.181E3,1.681E3,1.674E3,1.83E3,1.725E3,1.41E3,8.92E2,9.49E2,4E0,6.4E2,3.22E2,4.31E2,6.2E2,1.299E3,8.8E2,6.35E2,3.35E2,3.31E2,7.4E1,7.6E1,1.75E2,3.46E2,3.01E2,4.62E2,8.96E2,8.55E2,4.89E2,8.29E2,3.4E2,5.26E2,4.68E2,2.75E2,1.8E1,3E0],"tree_param":{"num_deleted":"0","num_feature":"480","num_nodes":"95","size_leaf_vector":"1"}},{"base_weights":[-4.852901E-4,-2.2912702E-1,2.6326534E-1,-2.7572438E-1,-1.1548194E-1,9.097625E-2,3.5798594E-1,-3.3930033E-1,-2.5362766E-1,-1.5758437E-1,-9.147231E-2,6.942205E-2,1.261629E-1,3.0921173E-1,3.9832968E-1,-3.796911E-1,-3.2042328E-1,-2.7014592E-1,-2.263179E-1,-1.7288814E-1,-1.3875018E-1,-1.04501575E-1,-4.9457487E-2,4.0255282E-2,7.839648E-2,1.1751107E-1,1.4846635E-1,2.8385317E-1,3.210025E-1,3.7701207E-1,4.090832E-1,-1.9420456E-2,-1.781649E-2,-1.6670002E-2,-1.5325794E-2,-2.812731E-1,-2.5927573E-1,-2.3547406E-1,-2.0837723E-1,-9.212068E-3,-1.6200627E-1,-7.2361343E-3,-6.443873E-3,-1.1459436E-1,-9.660762E-2,-5.604105E-2,-1.05116E-2,2.348027E-2,4.722619E-2,6.9406696E-2,8.6883366E-2,1.0775122E-1,6.253149E-3,1.4537455E-1,2.3593633E-1,1.3296599E-2,1.435922E-2,1.554531E-2,1.6517634E-2,1.8212637E-2,1.9082021E-2,1.9944271E-2,2.0810092E-2,-1.434239E-2,-1.3780991E-2,-1.3160757E-2,-1.2580561E-2,-1.1964562E-2,-1.13528855E-2,-1.0657151E-2,-9.997132E-3,-4.2509526E-4,-8.144255E-3,-6.028909E-3,-5.5043646E-3,-5.0727236E-3,-4.4552707E-3,-3.4466335E-3,-2.3763997E-3,-1.520041E-3,5.452404E-4,9.400776E-4,1.4392203E-3,2.0958637E-3,2.6826805E-3,3.1301335E-3,3.6175263E-3,4.1315313E-3,4.5737675E-3,5.046585E-3,5.598835E-3,7.044602E-3,7.641899E-3,1.25196045E-2,5.0529824E-3],"categories":[],"categories_nodes":[],"categories_segments":[],"categories_sizes":[],"default_left":[0,0,0,0,0,0,0,0,0,0,0,0,0,0,0,0,0,0,0,0,0,0,0,0,0,0,0,0,0,0,0,0,0,0,0,0,0,0,0,0,0,0,0,0,0,0,0,0,0,0,0,0,0,0,0,0,0,0,0,0,0,0,0,0,0,0,0,0,0,0,0,0,0,0,0,0,0,0,0,0,0,0,0,0,0,0,0,0,0,0,0,0,0,0,0],"id":3,"left_children":[1,3,5,7,9,11,13,15,17,19,21,23,25,27,29,31,33,35,37,39,41,43,45,47,49,51,53,55,57,59,61,-1,-1,-1,-1,63,65,67,69,-1,71,-1,-1,73,75,77,79,81,83,85,87,89,-1,91,93,-1,-1,-1,-1,-1,-1,-1,-1,-1,-1,-1,-1,-1,-1,-1,-1,-1,-1,-1,-1,-1,-1,-1,-1,-1,-1,-1,-1,-1,-1,-1,-1,-1,-1,-1,-1,-1,-1,-1,-1],"loss_changes":[2.5998433E3,1.2225867E2,3.2666394E2,2.2920654E1,6.775551E0,5.378296E0,2.5294067E1,3.0966492E0,5.4229736E0,6.787224E-1,2.337803E0,1.1503983E0,5.029793E-1,1.6586304E0,1.4655762E0,1.3430786E-1,4.1812134E-1,8.427124E-1,7.046051E-1,1.3582611E-1,4.609108E-2,2.4913406E-1,2.5965977E-1,1.2038863E-1,2.510109E-1,1.3010216E-1,1.6852951E-1,3.501892E-2,2.7365112E-1,1.6479492E-3,1.7407227E-1,0E0,0E0,0E0,0E0,3.8482666E-2,4.977417E-2,4.3014526E-2,2.0050049E-2,0E0,9.210205E-2,0E0,0E0,2.5239944E-2,5.783081E-2,9.198403E-2,6.3372955E-2,7.0774853E-3,2.2762775E-2,2.8339386E-2,2.6206017E-2,1.3393402E-2,0E0,2.7894974E-3,2.1489263E-2,0E0,0E0,0E0,0E0,0E0,0E0,0E0,0E0,0E0,0E0,0E0,0E0,0E0,0E0,0E0,0E0,0E0,0E0,0E0,0E0,0E0,0E0,0E0,0E0,0E0,0E0,0E0,0E0,0E0,0E0,0E0,0E0,0E0,0E0,0E0,0E0,0E0,0E0,0E0,0E0],"parents":[2147483647,0,0,1,1,2,2,3,3,4,4,5,5,6,6,7,7,8,8,9,9,10,10,11,11,12,12,13,13,14,14,15,15,16,16,17,17,18,18,19,19,20,20,21,21,22,22,23,23,24,24,25,25,26,26,27,27,28,28,29,29,30,30,35,35,36,36,37,37,38,38,40,40,43,43,44,44,45,45,46,46,47,47,48,48,49,49,50,50,51,51,53,53,54,54],"right_children":[2,4,6,8,10,12,14,16,18,20,22,24,26,28,30,32,34,36,38,40,42,44,46,48,50,52,54,56,58,60,62,-1,-1,-1,-1,64,66,68,70,-1,72,-1,-1,74,76,78,80,82,84,86,88,90,-1,92,94,-1,-1,-1,-1,-1,-1,-1,-1,-1,-1,-1,-1,-1,-1,-1,-1,-1,-1,-1,-1,-1,-1,-1,-1,-1,-1,-1,-1,-1,-1,-1,-1,-1,-1,-1,-1,-1,-1,-1,-1],"split_conditions":[5.101707E-1,2.6333803E-1,7.97312E-1,1.4647736E-1,3.468943E-1,6.053177E-1,9.040823E-1,8.614466E-2,2.0217794E-1,3.1164953E-1,3.975663E-1,5.599071E-1,6.5018255E-1,8.421271E-1,9.49328E-1,5.7749752E-2,1.19814135E-1,1.768053E-1,2.3428987E-1,2.8957188E-1,3.3421838E-1,3.6753845E-1,4.4823828E-1,5.326916E-1,5.8276445E-1,6.284054E-1,7.97312E-1,8.1380683E-1,8.6487466E-1,9.268071E-1,9.6621865E-1,-1.9420456E-2,-1.781649E-2,-1.6670002E-2,-1.5325794E-2,1.6176909E-1,1.909013E-1,2.1796523E-1,2.5010365E-1,-9.212068E-3,5.6179776E-3,-7.2361343E-3,-6.443873E-3,3.5441253E-1,3.806756E-1,4.2089012E-1,4.4461885E-1,5.2041155E-1,5.4418224E-1,5.6866866E-1,5.928465E-1,6.1632925E-1,6.253149E-3,6.617009E-1,8.1012565E-1,1.3296599E-2,1.435922E-2,1.554531E-2,1.6517634E-2,1.8212637E-2,1.9082021E-2,1.9944271E-2,2.0810092E-2,-1.434239E-2,-1.3780991E-2,-1.3160757E-2,-1.2580561E-2,-1.1964562E-2,-1.13528855E-2,-1.0657151E-2,-9.997132E-3,-4.2509526E-4,-8.144255E-3,-6.028909E-3,-5.5043646E-3,-5.0727236E-3,-4.4552707E-3,-3.4466335E-3,-2.3763997E-3,-1.520041E-3,5.452404E-4,9.400776E-4,1.4392203E-3,2.0958637E-3,2.6826805E-3,3.1301335E-3,3.6175263E-3,4.1315313E-3,4.5737675E-3,5.046585E-3,5.598835E-3,7.044602E-3,7.641899E-3,1.25196045E-2,5.0529824E-3],"split_indices":[473,478,473,475,473,478,475,473,478,475,473,475,475,478,473,475,475,473,473,478,475,473,473,473,478,473,353,475,473,473,473,0,0,0,0,475,478,478,478,0,330,0,0,478,473,478,9,475,478,478,478,475,0,478,1,0,0,0,0,0,0,0,0,0,0,0,0,0,0,0,0,0,0,0,0,0,0,0,0,0,0,0,0,0,0,0,0,0,0,0,0,0,0,0,0],"split_type":[0,0,0,0,0,0,0,0,0,0,0,0,0,0,0,0,0,0,0,0,0,0,0,0,0,0,0,0,0,0,0,0,0,0,0,0,0,0,0,0,0,0,0,0,0,0,0,0,0,0,0,0,0,0,0,0,0,0,0,0,0,0,0,0,0,0,0,0,0,0,0,0,0,0,0,0,0,0,0,0,0,0,0,0,0,0,0,0,0,0,0,0,0,0,0],"sum_hessian":[4.311E4,2.3092E4,2.0018E4,1.6376E4,6.716E3,7.102E3,1.2916E4,4.22E3,1.2156E4,2.437E3,4.279E3,4.406E3,2.696E3,5.851E3,7.065E3,1.338E3,2.882E3,7.569E3,4.587E3,1.34E3,1.097E3,3.265E3,1.014E3,1.038E3,3.368E3,1.947E3,7.49E2,1.865E3,3.986E3,2.381E3,4.684E3,9.63E2,3.75E2,1.479E3,1.403E3,3.728E3,3.841E3,3.029E3,1.558E3,6.48E2,6.92E2,6.75E2,4.22E2,1.427E3,1.838E3,8.67E2,1.47E2,3.06E2,7.32E2,1.64E3,1.728E3,8.56E2,1.091E3,7.26E2,2.3E1,3.05E2,1.56E3,1.933E3,2.053E3,6.55E2,1.726E3,1.949E3,2.735E3,1.852E3,1.876E3,2.515E3,1.326E3,2.065E3,9.64E2,9.8E2,5.78E2,4E0,6.88E2,6.02E2,8.25E2,1.109E3,7.29E2,3.42E2,5.25E2,7.6E1,7.1E1,1.65E2,1.41E2,4.05E2,3.27E2,5.02E2,1.138E3,9.07E2,8.21E2,3.37E2,5.19E2,4.66E2,2.6E2,2E1,3E0],"tree_param":{"num_deleted":"0","num_feature":"480","num_nodes":"95","size_leaf_vector":"1"}},{"base_weights":[3.227667E-4,-2.1747795E-1,2.4991287E-1,-2.618611E-1,-1.0932194E-1,8.682299E-2,3.397318E-1,-3.264452E-1,-2.418604E-1,-1.4658631E-1,-8.495033E-2,6.6140465E-2,1.1975312E-1,2.9379353E-1,3.782812E-1,-1.8296588E-2,-3.0953512E-1,-2.59156E-1,-2.1709342E-1,-1.6429332E-1,-1.2871534E-1,-9.614902E-2,-4.1594453E-2,3.8275987E-2,7.4707225E-2,1.118623E-1,1.4066404E-1,2.7487683E-1,3.0779448E-1,1.7886262E-2,3.884701E-1,-1.6188435E-2,-1.489257E-2,-2.710378E-1,-2.5003594E-1,-2.2701584E-1,-2.0120418E-1,-8.758367E-3,-1.5392262E-1,-6.8625133E-3,-6.0264138E-3,-1.02155924E-1,-8.279302E-2,-4.887391E-2,-7.977256E-3,2.2262694E-2,4.4865027E-2,6.603306E-2,8.2697734E-2,1.0390422E-1,6.007695E-3,1.3813387E-1,2.2636199E-1,1.329156E-2,1.4227778E-2,1.5106121E-2,1.6008351E-2,1.8940477E-2,1.9768666E-2,-1.386509E-2,-1.33197745E-2,-1.2745309E-2,-1.2178902E-2,-1.1682582E-2,-1.1115965E-2,-1.0429213E-2,-9.710721E-3,-1.2426672E-3,-7.7414885E-3,-5.5170967E-3,-4.934415E-3,-4.379969E-3,-3.7775722E-3,-2.8118584E-3,-2.0934881E-3,-1.4132714E-3,4.595892E-4,9.0599584E-4,1.3797685E-3,1.997764E-3,2.543606E-3,2.9789992E-3,3.439294E-3,3.92991E-3,4.3502897E-3,4.80709E-3,5.3814496E-3,6.8226843E-3,7.9876995E-3,2.5685176E-3,1.1643419E-2],"categories":[],"categories_nodes":[],"categories_segments":[],"categories_sizes":[],"default_left":[0,0,0,0,0,0,0,0,0,0,0,0,0,0,0,0,0,0,0,0,0,0,0,0,0,0,0,0,0,0,0,0,0,0,0,0,0,0,0,0,0,0,0,0,0,0,0,0,0,0,0,0,0,0,0,0,0,0,0,0,0,0,0,0,0,0,0,0,0,0,0,0,0,0,0,0,0,0,0,0,0,0,0,0,0,0,0,0,0,0,0],"id":4,"left_children":[1,3,5,7,9,11,13,15,17,19,21,23,25,27,29,-1,31,33,35,37,39,41,43,45,47,49,51,53,55,-1,57,-1,-1,59,61,63,65,-1,67,-1,-1,69,71,73,75,77,79,81,83,85,-1,87,89,-1,-1,-1,-1,-1,-1,-1,-1,-1,-1,-1,-1,-1,-1,-1,-1,-1,-1,-1,-1,-1,-1,-1,-1,-1,-1,-1,-1,-1,-1,-1,-1,-1,-1,-1,-1,-1,-1],"loss_changes":[2.3498042E3,1.1077673E2,2.950365E2,2.1061401E1,6.088791E0,4.8651924E0,2.289087E1,2.468811E0,5.298218E0,8.1900406E-1,1.9691887E0,1.0467415E0,4.3951035E-1,1.4862366E0,1.3395386E0,0E0,3.5488892E-1,7.2924805E-1,7.6564026E-1,1.2302399E-1,7.611275E-2,2.505989E-1,2.041918E-1,1.0831177E-1,2.2756386E-1,1.2001228E-1,1.3179016E-1,1.4604187E-1,1.418457E-1,0E0,1.6412354E-1,0E0,0E0,1.864624E-2,6.921387E-2,4.6539307E-2,6.19812E-2,0E0,7.682228E-2,0E0,0E0,5.221367E-2,2.8430939E-2,3.3076167E-2,5.2509077E-2,6.21596E-3,1.9586086E-2,2.4626255E-2,2.3996353E-2,1.9491196E-2,0E0,4.828453E-3,1.0808706E-2,0E0,0E0,0E0,0E0,0E0,0E0,0E0,0E0,0E0,0E0,0E0,0E0,0E0,0E0,0E0,0E0,0E0,0E0,0E0,0E0,0E0,0E0,0E0,0E0,0E0,0E0,0E0,0E0,0E0,0E0,0E0,0E0,0E0,0E0,0E0,0E0,0E0,0E0],"parents":[2147483647,0,0,1,1,2,2,3,3,4,4,5,5,6,6,7,7,8,8,9,9,10,10,11,11,12,12,13,13,14,14,16,16,17,17,18,18,19,19,20,20,21,21,22,22,23,23,24,24,25,25,26,26,27,27,28,28,30,30,33,33,34,34,35,35,36,36,38,38,41,41,42,42,43,43,44,44,45,45,46,46,47,47,48,48,49,49,51,51,52,52],"right_children":[2,4,6,8,10,12,14,16,18,20,22,24,26,28,30,-1,32,34,36,38,40,42,44,46,48,50,52,54,56,-1,58,-1,-1,60,62,64,66,-1,68,-1,-1,70,72,74,76,78,80,82,84,86,-1,88,90,-1,-1,-1,-1,-1,-1,-1,-1,-1,-1,-1,-1,-1,-1,-1,-1,-1,-1,-1,-1,-1,-1,-1,-1,-1,-1,-1,-1,-1,-1,-1,-1,-1,-1,-1,-1,-1,-1],"split_conditions":[5.0912714E-1,2.6315182E-1,7.97312E-1,1.3876188E-1,3.4868574E-1,6.053177E-1,9.040823E-1,7.664366E-2,1.9935878E-1,3.1311297E-1,4.1320944E-1,5.599071E-1,6.5018255E-1,8.517592E-1,9.462191E-1,-1.8296588E-2,1.04590796E-1,1.6891186E-1,2.2865964E-1,2.8957188E-1,3.3421838E-1,3.7518153E-1,4.4823828E-1,5.326916E-1,5.8276445E-1,6.3020223E-1,7.97312E-1,8.280313E-1,8.7587124E-1,1.7886262E-2,9.6621865E-1,-1.6188435E-2,-1.489257E-2,1.5484549E-1,1.8432327E-1,2.1176898E-1,2.4446532E-1,-8.758367E-3,1.1299435E-2,-6.8625133E-3,-6.0264138E-3,3.6231622E-1,3.9064056E-1,4.313476E-1,4.4241932E-1,5.2041155E-1,5.4418224E-1,5.6866866E-1,5.928465E-1,6.165944E-1,6.007695E-3,6.783936E-1,1.5762712E-1,1.329156E-2,1.4227778E-2,1.5106121E-2,1.6008351E-2,1.8940477E-2,1.9768666E-2,-1.386509E-2,-1.33197745E-2,-1.2745309E-2,-1.2178902E-2,-1.1682582E-2,-1.1115965E-2,-1.0429213E-2,-9.710721E-3,-1.2426672E-3,-7.7414885E-3,-5.5170967E-3,-4.934415E-3,-4.379969E-3,-3.7775722E-3,-2.8118584E-3,-2.0934881E-3,-1.4132714E-3,4.595892E-4,9.0599584E-4,1.3797685E-3,1.997764E-3,2.543606E-3,2.9789992E-3,3.439294E-3,3.92991E-3,4.3502897E-3,4.80709E-3,5.3814496E-3,6.8226843E-3,7.9876995E-3,2.5685176E-3,1.1643419E-2],"split_indices":[475,475,473,475,473,478,475,473,478,473,475,475,475,478,478,0,475,478,473,478,475,478,465,473,478,478,369,478,475,0,473,0,0,475,478,473,478,0,376,0,0,473,475,473,6,475,478,478,478,478,0,475,24,0,0,0,0,0,0,0,0,0,0,0,0,0,0,0,0,0,0,0,0,0,0,0,0,0,0,0,0,0,0,0,0,0,0,0,0,0,0],"split_type":[0,0,0,0,0,0,0,0,0,0,0,0,0,0,0,0,0,0,0,0,0,0,0,0,0,0,0,0,0,0,0,0,0,0,0,0,0,0,0,0,0,0,0,0,0,0,0,0,0,0,0,0,0,0,0,0,0,0,0,0,0,0,0,0,0,0,0,0,0,0,0,0,0,0,0,0,0,0,0,0,0,0,0,0,0,0,0,0,0,0,0],"sum_hessian":[4.3224E4,2.3082E4,2.0142E4,1.6365E4,6.717E3,7.154E3,1.2988E4,3.866E3,1.2499E4,2.654E3,4.063E3,4.396E3,2.758E3,5.93E3,7.058E3,1.153E3,2.713E3,7.354E3,5.145E3,1.329E3,1.325E3,3.228E3,8.35E2,1.035E3,3.361E3,2.007E3,7.51E2,2.531E3,3.399E3,2.351E3,4.707E3,1.211E3,1.502E3,3.181E3,4.173E3,3.159E3,1.986E3,6.41E2,6.88E2,6.41E2,6.84E2,2.222E3,1.006E3,6.86E2,1.49E2,3.03E2,7.32E2,1.616E3,1.745E3,1.031E3,9.76E2,7.32E2,1.9E1,1.323E3,1.208E3,2.348E3,1.051E3,1.985E3,2.722E3,1.329E3,1.852E3,2.357E3,1.816E3,1.289E3,1.87E3,9.52E2,1.034E3,5E0,6.83E2,6.52E2,1.57E3,5.98E2,4.08E2,3.31E2,3.55E2,6.8E1,8.1E1,1.73E2,1.3E2,4.07E2,3.25E2,4.9E2,1.126E3,9.04E2,8.41E2,3.43E2,6.88E2,6.86E2,4.6E1,1E0,1.8E1],"tree_param":{"num_deleted":"0","num_feature":"480","num_nodes":"91","size_leaf_vector":"1"}},{"base_weights":[-1.112999E-3,-2.0683683E-1,2.3715472E-1,-2.4972211E-1,-1.0619678E-1,8.257266E-2,3.2295254E-1,-3.1176588E-1,-2.3130824E-1,-1.4472327E-1,-8.2815215E-2,6.3889556E-2,1.1551984E-1,2.792479E-1,3.5935816E-1,-1.7390316E-2,-2.9542965E-1,-2.4720152E-1,-2.0788614E-1,-1.6449316E-1,-1.3078131E-1,-9.431184E-2,-4.4559825E-2,4.0376056E-2,7.312467E-2,1.0814661E-1,1.3321492E-1,2.5626558E-1,2.8960848E-1,3.4342104E-1,3.7127003E-1,-1.536364E-2,-1.4223786E-2,-2.5816625E-1,-2.3793943E-1,-2.165115E-1,-1.9295752E-1,-8.5357195E-3,-1.5377548E-1,-6.98215E-3,-1.21124476E-1,-1.03578314E-1,-8.713007E-2,-5.0720062E-2,-9.077135E-3,2.6977638E-2,4.917015E-2,6.5957755E-2,8.1356235E-2,1.0054411E-1,5.7036025E-3,1.3089639E-1,2.1626025E-1,1.1981144E-2,1.2958581E-2,1.4017502E-2,1.491456E-2,1.658397E-2,1.7456202E-2,1.8315352E-2,1.904065E-2,-1.3338871E-2,-1.2719519E-2,-1.220374E-2,-1.1673966E-2,-1.1136898E-2,-1.0593795E-2,-1.0042718E-2,-9.392626E-3,1.8039733E-3,-7.763916E-3,-6.300421E-3,-5.8408044E-3,-5.4411804E-3,-4.970728E-3,-4.519212E-3,-3.909768E-3,-3.0879665E-3,-2.125016E-3,-1.3440608E-3,4.6654005E-4,1.0434807E-3,1.7606573E-3,2.1405346E-3,2.6414027E-3,3.1021181E-3,3.483607E-3,3.92325E-3,4.3343185E-3,4.781268E-3,5.1838113E-3,6.350574E-3,6.8695233E-3,1.1362455E-2,4.09517E-3],"categories":[],"categories_nodes":[],"categories_segments":[],"categories_sizes":[],"default_left":[0,0,0,0,0,0,0,0,0,0,0,0,0,0,0,0,0,0,0,0,0,0,0,0,0,0,0,0,0,0,0,0,0,0,0,0,0,0,0,0,0,0,0,0,0,0,0,0,0,0,0,0,0,0,0,0,0,0,0,0,0,0,0,0,0,0,0,0,0,0,0,0,0,0,0,0,0,0,0,0,0,0,0,0,0,0,0,0,0,0,0,0,0,0,0],"id":5,"left_children":[1,3,5,7,9,11,13,15,17,19,21,23,25,27,29,-1,31,33,35,37,39,41,43,45,47,49,51,53,55,57,59,-1,-1,61,63,65,67,-1,69,-1,71,73,75,77,79,81,83,85,87,89,-1,91,93,-1,-1,-1,-1,-1,-1,-1,-1,-1,-1,-1,-1,-1,-1,-1,-1,-1,-1,-1,-1,-1,-1,-1,-1,-1,-1,-1,-1,-1,-1,-1,-1,-1,-1,-1,-1,-1,-1,-1,-1,-1,-1],"loss_changes":[2.1178928E3,1.00048096E2,2.654945E2,1.8502197E1,6.230629E0,4.3919945E0,2.0383423E1,2.0862732E0,4.6169434E0,6.9953537E-1,1.893568E0,9.879036E-1,3.2286072E-1,1.3199158E0,1.2052002E0,0E0,2.4534607E-1,6.968384E-1,6.118164E-1,4.5627594E-2,1.1478615E-1,2.1172142E-1,2.1790254E-1,1.5055227E-1,1.8784142E-1,7.096863E-2,1.1725521E-1,2.6298523E-2,2.4020386E-1,8.618164E-2,5.0109863E-2,0E0,0E0,4.2892456E-2,5.4107666E-2,4.5425415E-2,3.7582397E-2,0E0,1.2144375E-1,0E0,9.355545E-4,2.0697594E-2,4.744816E-2,7.4594975E-2,4.9083546E-2,2.507037E-2,1.581335E-2,2.1215439E-2,1.6623497E-2,2.5644302E-3,0E0,1.168251E-3,9.439647E-3,0E0,0E0,0E0,0E0,0E0,0E0,0E0,0E0,0E0,0E0,0E0,0E0,0E0,0E0,0E0,0E0,0E0,0E0,0E0,0E0,0E0,0E0,0E0,0E0,0E0,0E0,0E0,0E0,0E0,0E0,0E0,0E0,0E0,0E0,0E0,0E0,0E0,0E0,0E0,0E0,0E0,0E0],"parents":[2147483647,0,0,1,1,2,2,3,3,4,4,5,5,6,6,7,7,8,8,9,9,10,10,11,11,12,12,13,13,14,14,16,16,17,17,18,18,19,19,20,20,21,21,22,22,23,23,24,24,25,25,26,26,27,27,28,28,29,29,30,30,33,33,34,34,35,35,36,36,38,38,40,40,41,41,42,42,43,43,44,44,45,45,46,46,47,47,48,48,49,49,51,51,52,52],"right_children":[2,4,6,8,10,12,14,16,18,20,22,24,26,28,30,-1,32,34,36,38,40,42,44,46,48,50,52,54,56,58,60,-1,-1,62,64,66,68,-1,70,-1,72,74,76,78,80,82,84,86,88,90,-1,92,94,-1,-1,-1,-1,-1,-1,-1,-1,-1,-1,-1,-1,-1,-1,-1,-1,-1,-1,-1,-1,-1,-1,-1,-1,-1,-1,-1,-1,-1,-1,-1,-1,-1,-1,-1,-1,-1,-1,-1,-1,-1,-1],"split_conditions":[5.0912714E-1,2.5897622E-1,7.97312E-1,1.3777179E-1,3.4550282E-1,6.0688543E-1,9.042862E-1,7.664366E-2,1.953722E-1,3.003651E-1,3.975663E-1,5.6647295E-1,6.5018255E-1,8.4201795E-1,9.549582E-1,-1.7390316E-2,1.0534406E-1,1.6934124E-1,2.2382662E-1,2.8343844E-1,3.2293394E-1,3.6753845E-1,4.4823828E-1,5.4028195E-1,5.861787E-1,6.3049746E-1,7.97312E-1,8.1012565E-1,8.6487466E-1,9.322934E-1,9.774311E-1,-1.536364E-2,-1.4223786E-2,1.5331404E-1,1.8214911E-1,2.0730363E-1,2.399201E-1,-8.5357195E-3,1.1299435E-2,-6.98215E-3,3.3563384E-1,3.5678726E-1,3.825923E-1,4.2276984E-1,4.4461885E-1,5.3169596E-1,5.5426484E-1,5.768337E-1,5.994026E-1,6.19016E-1,5.7036025E-3,6.6146696E-1,2.7683616E-1,1.1981144E-2,1.2958581E-2,1.4017502E-2,1.491456E-2,1.658397E-2,1.7456202E-2,1.8315352E-2,1.904065E-2,-1.3338871E-2,-1.2719519E-2,-1.220374E-2,-1.1673966E-2,-1.1136898E-2,-1.0593795E-2,-1.0042718E-2,-9.392626E-3,1.8039733E-3,-7.763916E-3,-6.300421E-3,-5.8408044E-3,-5.4411804E-3,-4.970728E-3,-4.519212E-3,-3.909768E-3,-3.0879665E-3,-2.125016E-3,-1.3440608E-3,4.6654005E-4,1.0434807E-3,1.7606573E-3,2.1405346E-3,2.6414027E-3,3.1021181E-3,3.483607E-3,3.92325E-3,4.3343185E-3,4.781268E-3,5.1838113E-3,6.350574E-3,6.8695233E-3,1.1362455E-2,4.09517E-3],"split_indices":[475,473,473,473,475,473,473,473,473,475,473,473,475,475,473,0,473,473,473,475,475,473,465,475,473,475,345,457,473,475,475,0,0,473,473,473,473,0,376,0,473,475,473,475,9,475,475,475,475,475,0,475,0,0,0,0,0,0,0,0,0,0,0,0,0,0,0,0,0,0,0,0,0,0,0,0,0,0,0,0,0,0,0,0,0,0,0,0,0,0,0,0,0,0,0],"split_type":[0,0,0,0,0,0,0,0,0,0,0,0,0,0,0,0,0,0,0,0,0,0,0,0,0,0,0,0,0,0,0,0,0,0,0,0,0,0,0,0,0,0,0,0,0,0,0,0,0,0,0,0,0,0,0,0,0,0,0,0,0,0,0,0,0,0,0,0,0,0,0,0,0,0,0,0,0,0,0,0,0,0,0,0,0,0,0,0,0,0,0,0,0,0,0],"sum_hessian":[4.3205E4,2.3186E4,2.0019E4,1.6257E4,6.929E3,7.146E3,1.2873E4,3.717E3,1.254E4,2.615E3,4.314E3,4.562E3,2.584E3,5.854E3,7.019E3,1.153E3,2.564E3,7.465E3,5.075E3,1.077E3,1.538E3,3.316E3,9.98E2,1.288E3,3.274E3,1.829E3,7.55E2,1.827E3,4.027E3,3.015E3,4.004E3,1.219E3,1.345E3,3.406E3,4.059E3,3.208E3,1.867E3,6.72E2,4.05E2,7.95E2,7.43E2,1.442E3,1.874E3,8.5E2,1.48E2,5.12E2,7.76E2,1.755E3,1.519E3,8.09E2,1.02E3,7.37E2,1.8E1,2.84E2,1.543E3,1.965E3,2.062E3,1.005E3,2.01E3,2.66E3,1.344E3,1.017E3,2.389E3,1.686E3,2.373E3,1.349E3,1.859E3,7.18E2,1.149E3,3E0,4.02E2,3.35E2,4.08E2,6.27E2,8.15E2,1.367E3,5.07E2,3.6E2,4.9E2,7.5E1,7.3E1,2.96E2,2.16E2,2.88E2,4.88E2,8.63E2,8.92E2,9.95E2,5.24E2,3.27E2,4.82E2,4.74E2,2.63E2,1.6E1,2E0],"tree_param":{"num_deleted":"0","num_feature":"480","num_nodes":"95","size_leaf_vector":"1"}},{"base_weights":[2.1079605E-4,-1.9652008E-1,2.252615E-1,-2.369725E-1,-1.0018014E-1,7.835046E-2,3.0696118E-1,-2.962794E-1,-2.194651E-1,-1.3656533E-1,-7.7892244E-2,5.9652973E-2,1.08243495E-1,2.653553E-1,3.4143108E-1,-3.30155E-1,-2.8100088E-1,-2.3623823E-1,-1.9905484E-1,-1.5249248E-1,-1.21163346E-1,-8.945844E-2,-4.1494094E-2,3.8350467E-2,6.862345E-2,1.0096876E-1,1.2755364E-1,2.480309E-1,2.7788302E-1,3.2291967E-1,3.5064563E-1,-1.6826874E-2,-1.5739368E-2,-1.47179365E-2,-1.3591318E-2,-2.4573152E-1,-2.279251E-1,-2.072164E-1,-1.8299912E-1,-8.076767E-3,-1.4309216E-1,-6.4973533E-3,-1.1473496E-1,-9.581855E-2,-8.014946E-2,-4.7705732E-2,-7.3426734E-3,2.5551485E-2,4.6775173E-2,6.269553E-2,7.629081E-2,9.2441894E-2,1.0738939E-1,1.2493321E-1,2.088255E-1,1.2012801E-2,1.286948E-2,1.363947E-2,1.4486405E-2,1.557641E-2,1.63509E-2,1.719567E-2,1.7945495E-2,-1.2664288E-2,-1.2106886E-2,-1.1638873E-2,-1.1185933E-2,-1.065877E-2,-1.006401E-2,-9.441349E-3,-8.806491E-3,-3.235963E-4,-7.1978085E-3,-5.9847212E-3,-5.5356896E-3,-5.0653075E-3,-4.5616743E-3,-4.1892543E-3,-3.71403E-3,-2.9017946E-3,-2.031636E-3,-1.2396965E-3,4.567014E-4,8.008318E-4,1.5191424E-3,2.03841E-3,2.5060782E-3,2.9581625E-3,3.3159603E-3,3.7277737E-3,4.057699E-3,4.335817E-3,4.7981045E-3,5.1959916E-3,5.5483542E-3,6.166193E-3,7.240797E-3,1.0866417E-2,4.1265744E-3],"categories":[],"categories_nodes":[],"categories_segments":[],"categories_sizes":[],"default_left":[0,0,0,0,0,0,0,0,0,0,0,0,0,0,0,0,0,0,0,0,0,0,0,0,0,0,0,0,0,0,0,0,0,0,0,0,0,0,0,0,0,0,0,0,0,0,0,0,0,0,0,0,0,0,0,0,0,0,0,0,0,0,0,0,0,0,0,0,0,0,0,0,0,0,0,0,0,0,0,0,0,0,0,0,0,0,0,0,0,0,0,0,0,0,0,0,0,0,0],"id":6,"left_children":[1,3,5,7,9,11,13,15,17,19,21,23,25,27,29,31,33,35,37,39,41,43,45,47,49,51,53,55,57,59,61,-1,-1,-1,-1,63,65,67,69,-1,71,-1,73,75,77,79,81,83,85,87,89,91,93,95,97,-1,-1,-1,-1,-1,-1,-1,-1,-1,-1,-1,-1,-1,-1,-1,-1,-1,-1,-1,-1,-1,-1,-1,-1,-1,-1,-1,-1,-1,-1,-1,-1,-1,-1,-1,-1,-1,-1,-1,-1,-1,-1,-1,-1],"loss_changes":[1.9069878E3,8.954138E1,2.4110785E2,1.673999E1,5.5021973E0,4.0071793E0,1.8424316E1,1.8150024E0,4.2323E0,6.14666E-1,1.7720146E0,8.4200287E-1,3.7511444E-1,1.2016296E0,1.0905151E0,5.874634E-3,2.3213196E-1,4.850769E-1,7.0181274E-1,8.441925E-2,5.9453964E-2,1.8177795E-1,2.1581662E-1,1.4027452E-1,1.3652611E-1,1.0017204E-1,1.3406277E-1,1.1758423E-1,1.2542725E-1,8.2092285E-3,1.3806152E-1,0E0,0E0,0E0,0E0,2.5222778E-2,2.281189E-2,8.918762E-2,4.3247223E-2,0E0,7.331753E-2,0E0,2.084732E-3,3.8463593E-2,2.1621704E-2,6.062424E-2,4.5657653E-2,2.3606032E-2,1.3837099E-2,1.8591404E-2,5.3505898E-3,9.232998E-3,2.632141E-3,5.531311E-3,5.6883693E-3,0E0,0E0,0E0,0E0,0E0,0E0,0E0,0E0,0E0,0E0,0E0,0E0,0E0,0E0,0E0,0E0,0E0,0E0,0E0,0E0,0E0,0E0,0E0,0E0,0E0,0E0,0E0,0E0,0E0,0E0,0E0,0E0,0E0,0E0,0E0,0E0,0E0,0E0,0E0,0E0,0E0,0E0,0E0,0E0],"parents":[2147483647,0,0,1,1,2,2,3,3,4,4,5,5,6,6,7,7,8,8,9,9,10,10,11,11,12,12,13,13,14,14,15,15,16,16,17,17,18,18,19,19,20,20,21,21,22,22,23,23,24,24,25,25,26,26,27,27,28,28,29,29,30,30,35,35,36,36,37,37,38,38,40,40,42,42,43,43,44,44,45,45,46,46,47,47,48,48,49,49,50,50,51,51,52,52,53,53,54,54],"right_children":[2,4,6,8,10,12,14,16,18,20,22,24,26,28,30,32,34,36,38,40,42,44,46,48,50,52,54,56,58,60,62,-1,-1,-1,-1,64,66,68,70,-1,72,-1,74,76,78,80,82,84,86,88,90,92,94,96,98,-1,-1,-1,-1,-1,-1,-1,-1,-1,-1,-1,-1,-1,-1,-1,-1,-1,-1,-1,-1,-1,-1,-1,-1,-1,-1,-1,-1,-1,-1,-1,-1,-1,-1,-1,-1,-1,-1,-1,-1,-1,-1,-1,-1],"split_conditions":[5.0912714E-1,2.6244098E-1,7.97312E-1,1.3693453E-1,3.468943E-1,6.050448E-1,9.041486E-1,7.664366E-2,1.9372046E-1,3.060073E-1,3.975663E-1,5.6647295E-1,6.5018255E-1,8.517592E-1,9.461199E-1,4.8492555E-2,1.0479477E-1,1.6589224E-1,2.2382662E-1,2.8415754E-1,3.2340178E-1,3.7063634E-1,4.4823828E-1,5.4028195E-1,5.8635247E-1,6.284054E-1,7.97312E-1,8.310934E-1,8.761351E-1,9.266512E-1,9.7178894E-1,-1.6826874E-2,-1.5739368E-2,-1.47179365E-2,-1.3591318E-2,1.5278535E-1,1.7828397E-1,2.0781626E-1,2.4446532E-1,-8.076767E-3,5.6179776E-3,-6.4973533E-3,3.3563384E-1,3.6242947E-1,3.8260412E-1,4.2276984E-1,4.4461885E-1,5.2143115E-1,5.5426484E-1,5.7712615E-1,5.994026E-1,6.1632925E-1,6.3889813E-1,6.783936E-1,8.1012565E-1,1.2012801E-2,1.286948E-2,1.363947E-2,1.4486405E-2,1.557641E-2,1.63509E-2,1.719567E-2,1.7945495E-2,-1.2664288E-2,-1.2106886E-2,-1.1638873E-2,-1.1185933E-2,-1.065877E-2,-1.006401E-2,-9.441349E-3,-8.806491E-3,-3.235963E-4,-7.1978085E-3,-5.9847212E-3,-5.5356896E-3,-5.0653075E-3,-4.5616743E-3,-4.1892543E-3,-3.71403E-3,-2.9017946E-3,-2.031636E-3,-1.2396965E-3,4.567014E-4,8.008318E-4,1.5191424E-3,2.03841E-3,2.5060782E-3,2.9581625E-3,3.3159603E-3,3.7277737E-3,4.057699E-3,4.335817E-3,4.7981045E-3,5.1959916E-3,5.5483542E-3,6.166193E-3,7.240797E-3,1.0866417E-2,4.1265744E-3],"split_indices":[475,473,473,478,473,475,478,473,478,475,473,473,475,478,475,473,473,475,473,473,478,475,473,475,478,473,353,473,473,475,475,0,0,0,0,478,473,478,478,0,330,0,473,475,478,475,9,465,475,478,475,467,475,475,1,0,0,0,0,0,0,0,0,0,0,0,0,0,0,0,0,0,0,0,0,0,0,0,0,0,0,0,0,0,0,0,0,0,0,0,0,0,0,0,0,0,0,0,0],"split_type":[0,0,0,0,0,0,0,0,0,0,0,0,0,0,0,0,0,0,0,0,0,0,0,0,0,0,0,0,0,0,0,0,0,0,0,0,0,0,0,0,0,0,0,0,0,0,0,0,0,0,0,0,0,0,0,0,0,0,0,0,0,0,0,0,0,0,0,0,0,0,0,0,0,0,0,0,0,0,0,0,0,0,0,0,0,0,0,0,0,0,0,0,0,0,0,0,0,0,0],"sum_hessian":[4.307E4,2.2981E4,2.0089E4,1.6184E4,6.797E3,7.18E3,1.2909E4,3.685E3,1.2499E4,2.58E3,4.217E3,4.419E3,2.761E3,5.853E3,7.056E3,1.139E3,2.546E3,6.855E3,5.644E3,1.264E3,1.316E3,3.199E3,1.018E3,1.311E3,3.108E3,2.01E3,7.51E2,2.465E3,3.388E3,2.357E3,4.699E3,7.9E2,3.49E2,1.024E3,1.522E3,3.187E3,3.668E3,3.734E3,1.91E3,6.36E2,6.28E2,5.48E2,7.68E2,1.895E3,1.304E3,8.61E2,1.57E2,5.22E2,7.89E2,1.758E3,1.35E3,8.7E2,1.14E3,7.3E2,2.1E1,1.361E3,1.104E3,2.386E3,1.002E3,6.44E2,1.713E3,2.613E3,2.086E3,1.005E3,2.182E3,1.678E3,1.99E3,1.846E3,1.888E3,1.019E3,8.91E2,4E0,6.24E2,3.31E2,4.37E2,8.53E2,1.042E3,7.97E2,5.07E2,3.47E2,5.14E2,7.6E1,8.1E1,1.77E2,3.45E2,2.87E2,5.02E2,8.99E2,8.59E2,1.007E3,3.43E2,3.41E2,5.29E2,5.94E2,5.46E2,6.82E2,4.8E1,1.9E1,2E0],"tree_param":{"num_deleted":"0","num_feature":"480","num_nodes":"99","size_leaf_vector":"1"}},{"base_weights":[1.818456E-4,-1.8665484E-1,2.1480687E-1,-2.2442117E-1,-9.357982E-2,7.4514806E-2,2.9196662E-1,-2.7633476E-1,-2.065272E-1,-1.252792E-1,-7.28119E-2,5.661839E-2,1.0266345E-1,2.5201485E-1,3.2442153E-1,-3.0965272E-1,-2.6115128E-1,-2.2007015E-1,-1.84006E-1,-1.4034687E-1,-1.1057935E-1,-8.268317E-2,-3.5530336E-2,3.271693E-2,6.381258E-2,9.585431E-2,1.21247366E-1,2.3084752E-1,2.612977E-1,3.0999666E-1,3.351801E-1,-1.5984533E-2,-1.4756897E-2,-1.3606383E-2,-1.2472317E-2,-2.2906303E-1,-2.110526E-1,-1.9153982E-1,-1.6964751E-1,-7.4694934E-3,-1.3198549E-1,-5.8633364E-3,-1.0348001E-1,-8.774987E-2,-7.116486E-2,-4.176013E-2,-8.389457E-3,1.8978111E-2,3.8625374E-2,5.635845E-2,7.064885E-2,8.896189E-2,5.151655E-3,1.1858381E-1,1.9565804E-1,1.0781567E-2,1.1677117E-2,1.27420975E-2,1.3593736E-2,1.5152283E-2,1.5919281E-2,1.6527344E-2,1.719722E-2,-1.1666729E-2,-1.1197149E-2,-1.0711711E-2,-1.0242044E-2,-9.741603E-3,-9.236358E-3,-8.690489E-3,-8.124852E-3,-2.764538E-3,-6.6406275E-3,-1.3423733E-3,-5.17779E-3,-4.725274E-3,-4.2374935E-3,-3.7513305E-3,-3.2404796E-3,-2.4055718E-3,-1.7859854E-3,-1.2166327E-3,3.8293027E-4,7.6484546E-4,1.1703749E-3,1.7177671E-3,2.1693257E-3,2.5580504E-3,2.9454723E-3,3.3647567E-3,3.7220859E-3,4.216132E-3,4.677281E-3,5.8539915E-3,6.897222E-3,1.039167E-2,4.1411477E-3],"categories":[],"categories_nodes":[],"categories_segments":[],"categories_sizes":[],"default_left":[0,0,0,0,0,0,0,0,0,0,0,0,0,0,0,0,0,0,0,0,0,0,0,0,0,0,0,0,0,0,0,0,0,0,0,0,0,0,0,0,0,0,0,0,0,0,0,0,0,0,0,0,0,0,0,0,0,0,0,0,0,0,0,0,0,0,0,0,0,0,0,0,0,0,0,0,0,0,0,0,0,0,0,0,0,0,0,0,0,0,0,0,0,0,0,0,0],"id":7,"left_children":[1,3,5,7,9,11,13,15,17,19,21,23,25,27,29,31,33,35,37,39,41,43,45,47,49,51,53,55,57,59,61,-1,-1,-1,-1,63,65,67,69,-1,71,-1,73,75,77,79,81,83,85,87,89,91,-1,93,95,-1,-1,-1,-1,-1,-1,-1,-1,-1,-1,-1,-1,-1,-1,-1,-1,-1,-1,-1,-1,-1,-1,-1,-1,-1,-1,-1,-1,-1,-1,-1,-1,-1,-1,-1,-1,-1,-1,-1,-1,-1,-1],"loss_changes":[1.7310293E3,8.1100525E1,2.1745056E2,1.5192444E1,4.3773346E0,3.5859947E0,1.6723877E1,2.0463867E0,3.684143E0,5.683327E-1,1.4794312E0,7.4779415E-1,3.388939E-1,1.0820923E0,1.00531E0,9.666443E-2,3.040619E-1,5.6967163E-1,4.6424866E-1,7.842827E-2,5.143547E-2,1.7957306E-1,1.42524E-1,8.133483E-2,1.6678143E-1,9.137535E-2,1.2326527E-1,2.2666931E-2,2.0617676E-1,8.239746E-2,5.2093506E-2,0E0,0E0,0E0,0E0,3.0929565E-2,3.1570435E-2,3.138733E-2,1.9046783E-2,0E0,3.5980225E-2,0E0,1.0404587E-3,3.6720276E-2,1.9140244E-2,2.4637938E-2,4.086768E-2,4.6314076E-3,1.2862682E-2,1.8305779E-2,1.7173767E-2,1.4312744E-2,0E0,4.6977997E-3,1.5757918E-2,0E0,0E0,0E0,0E0,0E0,0E0,0E0,0E0,0E0,0E0,0E0,0E0,0E0,0E0,0E0,0E0,0E0,0E0,0E0,0E0,0E0,0E0,0E0,0E0,0E0,0E0,0E0,0E0,0E0,0E0,0E0,0E0,0E0,0E0,0E0,0E0,0E0,0E0,0E0,0E0,0E0,0E0],"parents":[2147483647,0,0,1,1,2,2,3,3,4,4,5,5,6,6,7,7,8,8,9,9,10,10,11,11,12,12,13,13,14,14,15,15,16,16,17,17,18,18,19,19,20,20,21,21,22,22,23,23,24,24,25,25,26,26,27,27,28,28,29,29,30,30,35,35,36,36,37,37,38,38,40,40,42,42,43,43,44,44,45,45,46,46,47,47,48,48,49,49,50,50,51,51,53,53,54,54],"right_children":[2,4,6,8,10,12,14,16,18,20,22,24,26,28,30,32,34,36,38,40,42,44,46,48,50,52,54,56,58,60,62,-1,-1,-1,-1,64,66,68,70,-1,72,-1,74,76,78,80,82,84,86,88,90,92,-1,94,96,-1,-1,-1,-1,-1,-1,-1,-1,-1,-1,-1,-1,-1,-1,-1,-1,-1,-1,-1,-1,-1,-1,-1,-1,-1,-1,-1,-1,-1,-1,-1,-1,-1,-1,-1,-1,-1,-1,-1,-1,-1,-1],"split_conditions":[5.101707E-1,2.6651177E-1,7.97312E-1,1.4611848E-1,3.4868574E-1,6.050448E-1,9.040823E-1,8.5960835E-2,2.0197728E-1,3.1311297E-1,4.1320944E-1,5.599071E-1,6.5018255E-1,8.377327E-1,9.549582E-1,4.8492555E-2,1.19814135E-1,1.7798765E-1,2.3428987E-1,2.9059207E-1,3.3563384E-1,3.7512445E-1,4.4823828E-1,5.326916E-1,5.8247596E-1,6.3049746E-1,7.97312E-1,8.1380683E-1,8.651373E-1,9.34683E-1,9.774311E-1,-1.5984533E-2,-1.4756897E-2,-1.3606383E-2,-1.2472317E-2,1.6610925E-1,1.9070777E-1,2.1812147E-1,2.5118053E-1,-7.4694934E-3,1.1299435E-2,-5.8633364E-3,4.8665208E-1,3.6231622E-1,3.9193606E-1,4.313476E-1,4.4461885E-1,5.2041155E-1,5.4360735E-1,5.699469E-1,5.929219E-1,6.19016E-1,5.151655E-3,6.783936E-1,8.1012565E-1,1.0781567E-2,1.1677117E-2,1.27420975E-2,1.3593736E-2,1.5152283E-2,1.5919281E-2,1.6527344E-2,1.719722E-2,-1.1666729E-2,-1.1197149E-2,-1.0711711E-2,-1.0242044E-2,-9.741603E-3,-9.236358E-3,-8.690489E-3,-8.124852E-3,-2.764538E-3,-6.6406275E-3,-1.3423733E-3,-5.17779E-3,-4.725274E-3,-4.2374935E-3,-3.7513305E-3,-3.2404796E-3,-2.4055718E-3,-1.7859854E-3,-1.2166327E-3,3.8293027E-4,7.6484546E-4,1.1703749E-3,1.7177671E-3,2.1693257E-3,2.5580504E-3,2.9454723E-3,3.3647567E-3,3.7220859E-3,4.216132E-3,4.677281E-3,5.8539915E-3,6.897222E-3,1.039167E-2,4.1411477E-3],"split_indices":[473,475,473,473,473,475,475,475,473,473,475,475,475,475,473,473,475,473,473,473,473,475,449,473,475,475,361,443,475,475,475,0,0,0,0,473,473,475,473,0,376,0,92,473,473,473,17,475,475,473,473,475,0,475,1,0,0,0,0,0,0,0,0,0,0,0,0,0,0,0,0,0,0,0,0,0,0,0,0,0,0,0,0,0,0,0,0,0,0,0,0,0,0,0,0,0,0],"split_type":[0,0,0,0,0,0,0,0,0,0,0,0,0,0,0,0,0,0,0,0,0,0,0,0,0,0,0,0,0,0,0,0,0,0,0,0,0,0,0,0,0,0,0,0,0,0,0,0,0,0,0,0,0,0,0,0,0,0,0,0,0,0,0,0,0,0,0,0,0,0,0,0,0,0,0,0,0,0,0,0,0,0,0,0,0,0,0,0,0,0,0,0,0,0,0,0,0],"sum_hessian":[4.3166E4,2.3077E4,2.0089E4,1.6415E4,6.662E3,7.129E3,1.296E4,4.204E3,1.2211E4,2.635E3,4.027E3,4.36E3,2.769E3,5.813E3,7.147E3,1.31E3,2.894E3,7.62E3,4.591E3,1.297E3,1.338E3,3.183E3,8.44E2,1.01E3,3.35E3,2.031E3,7.38E2,1.78E3,4.033E3,3.066E3,4.081E3,7.62E2,5.48E2,1.482E3,1.412E3,3.803E3,3.817E3,3.003E3,1.588E3,6.15E2,6.82E2,6.81E2,6.57E2,2.206E3,9.77E2,6.86E2,1.58E2,3.05E2,7.05E2,1.607E3,1.743E3,1.043E3,9.88E2,7.15E2,2.3E1,2.8E2,1.5E3,2.52E3,1.513E3,1.697E3,1.369E3,2.695E3,1.386E3,2.049E3,1.754E3,2.502E3,1.315E3,2.006E3,9.97E2,9.89E2,5.99E2,8E0,6.74E2,1E0,6.56E2,6.69E2,1.537E3,6.01E2,3.76E2,3.31E2,3.55E2,7.9E1,7.9E1,1.69E2,1.36E2,3.76E2,3.29E2,5.36E2,1.071E3,9.35E2,8.08E2,5.28E2,5.15E2,6.7E2,4.5E1,2E1,3E0],"tree_param":{"num_deleted":"0","num_feature":"480","num_nodes":"97","size_leaf_vector":"1"}},{"base_weights":[9.9271034E-5,-1.7755546E-1,2.038615E-1,-2.1400347E-1,-9.044513E-2,7.077017E-2,2.772298E-1,-2.67213E-1,-1.9820176E-1,-1.233493E-1,-7.0435695E-2,5.4831028E-2,9.901504E-2,2.4032019E-1,3.0883747E-1,-2.9810682E-1,-2.5332516E-1,-2.119226E-1,-1.780176E-1,-1.4074078E-1,-1.1175394E-1,-8.080128E-2,-3.827836E-2,3.4723993E-2,6.276017E-2,9.267984E-2,1.1444006E-1,2.2367571E-1,2.5193185E-1,2.9756784E-1,1.6018571E-2,-1.5204455E-2,-1.4232675E-2,-1.3178202E-2,-1.219052E-2,-2.2103027E-1,-2.0371655E-1,-1.8561131E-1,-1.6509847E-1,-6.279533E-2,-1.4129217E-1,-5.979115E-3,-1.0362679E-1,-8.652754E-2,-7.243703E-2,-4.362348E-2,-6.9755944E-3,2.325204E-2,4.217159E-2,5.6565434E-2,6.982252E-2,8.6435296E-2,4.8900116E-3,1.1228258E-1,1.9108246E-1,2.1619907E-1,1.1586621E-2,1.2362062E-2,1.3299184E-2,1.4469974E-2,1.5210143E-2,-1.1331346E-2,-1.0829604E-2,-1.0378287E-2,-9.929897E-3,-9.538051E-3,-9.067252E-3,-8.614729E-3,-8.025639E-3,-6.398198E-3,1.1463843E-2,-7.488124E-3,-6.8118847E-3,-5.331941E-3,-4.895683E-3,-4.654857E-3,-4.170217E-3,-3.770432E-3,-3.346525E-3,-2.6598037E-3,-1.8512681E-3,-1.1690186E-3,4.0404798E-4,7.2912144E-4,1.3835976E-3,1.8424488E-3,2.2670978E-3,2.6590116E-3,2.9871853E-3,3.3650906E-3,3.7218656E-3,4.128609E-3,4.458364E-3,5.434966E-3,5.9410217E-3,9.840993E-3,2.1952316E-3,1.0235128E-2,1.0964189E-2],"categories":[],"categories_nodes":[],"categories_segments":[],"categories_sizes":[],"default_left":[0,0,0,0,0,0,0,0,0,0,0,0,0,0,0,0,0,0,0,0,0,0,0,0,0,0,0,0,0,0,0,0,0,0,0,0,0,0,0,0,0,0,0,0,0,0,0,0,0,0,0,0,0,0,0,0,0,0,0,0,0,0,0,0,0,0,0,0,0,0,0,0,0,0,0,0,0,0,0,0,0,0,0,0,0,0,0,0,0,0,0,0,0,0,0,0,0,0,0],"id":8,"left_children":[1,3,5,7,9,11,13,15,17,19,21,23,25,27,29,31,33,35,37,39,41,43,45,47,49,51,53,55,57,59,-1,-1,-1,-1,-1,61,63,65,67,69,71,-1,73,75,77,79,81,83,85,87,89,91,-1,93,95,97,-1,-1,-1,-1,-1,-1,-1,-1,-1,-1,-1,-1,-1,-1,-1,-1,-1,-1,-1,-1,-1,-1,-1,-1,-1,-1,-1,-1,-1,-1,-1,-1,-1,-1,-1,-1,-1,-1,-1,-1,-1,-1,-1],"loss_changes":[1.5627611E3,7.320569E1,1.9632867E2,1.3617554E1,4.4716835E0,3.212143E0,1.5047607E1,1.5205688E0,3.4351807E0,5.0294495E-1,1.408226E0,7.265816E-1,2.4122047E-1,1.1001892E0,8.118286E-1,5.8288574E-3,1.8638611E-1,5.124817E-1,4.6780396E-1,3.517914E-2,8.60939E-2,1.4704704E-1,1.7270148E-1,1.09662294E-1,1.394167E-1,5.0123215E-2,1.019001E-1,9.856415E-2,1.6604614E-1,1.04003906E-1,0E0,0E0,0E0,0E0,0E0,3.845215E-2,3.6346436E-2,3.553772E-2,3.4713745E-2,2.0064467E-1,2.3138046E-2,0E0,2.7570724E-3,3.1116486E-2,1.6339779E-2,5.3801656E-2,3.7732847E-2,1.9215763E-2,1.155889E-2,1.5661716E-2,1.2753487E-2,1.4390945E-3,0E0,4.137993E-3,7.402599E-3,1.0375977E-3,0E0,0E0,0E0,0E0,0E0,0E0,0E0,0E0,0E0,0E0,0E0,0E0,0E0,0E0,0E0,0E0,0E0,0E0,0E0,0E0,0E0,0E0,0E0,0E0,0E0,0E0,0E0,0E0,0E0,0E0,0E0,0E0,0E0,0E0,0E0,0E0,0E0,0E0,0E0,0E0,0E0,0E0,0E0],"parents":[2147483647,0,0,1,1,2,2,3,3,4,4,5,5,6,6,7,7,8,8,9,9,10,10,11,11,12,12,13,13,14,14,15,15,16,16,17,17,18,18,19,19,20,20,21,21,22,22,23,23,24,24,25,25,26,26,27,27,28,28,29,29,35,35,36,36,37,37,38,38,39,39,40,40,42,42,43,43,44,44,45,45,46,46,47,47,48,48,49,49,50,50,51,51,53,53,54,54,55,55],"right_children":[2,4,6,8,10,12,14,16,18,20,22,24,26,28,30,32,34,36,38,40,42,44,46,48,50,52,54,56,58,60,-1,-1,-1,-1,-1,62,64,66,68,70,72,-1,74,76,78,80,82,84,86,88,90,92,-1,94,96,98,-1,-1,-1,-1,-1,-1,-1,-1,-1,-1,-1,-1,-1,-1,-1,-1,-1,-1,-1,-1,-1,-1,-1,-1,-1,-1,-1,-1,-1,-1,-1,-1,-1,-1,-1,-1,-1,-1,-1,-1,-1,-1,-1],"split_conditions":[5.0912714E-1,2.6244098E-1,7.97312E-1,1.3777179E-1,3.468943E-1,6.078659E-1,9.1536677E-1,7.664366E-2,1.953722E-1,3.003651E-1,3.975663E-1,5.6647295E-1,6.5018255E-1,8.513162E-1,9.605045E-1,4.646532E-2,1.0534406E-1,1.7235743E-1,2.2382662E-1,1.1299435E-2,3.2293394E-1,3.7063634E-1,4.4823828E-1,5.4013157E-1,5.873121E-1,6.303715E-1,7.97312E-1,8.279124E-1,8.815134E-1,9.3806756E-1,1.6018571E-2,-1.5204455E-2,-1.4232675E-2,-1.3178202E-2,-1.219052E-2,1.5484549E-1,1.8428025E-1,2.1176898E-1,2.399201E-1,2.7370143E-1,2.7370143E-1,-5.979115E-3,3.4126407E-1,3.5815474E-1,3.8499835E-1,4.211596E-1,4.4461885E-1,5.2143115E-1,5.5426484E-1,5.768337E-1,5.994026E-1,6.219714E-1,4.8900116E-3,6.621867E-1,8.1012565E-1,8.1012565E-1,1.1586621E-2,1.2362062E-2,1.3299184E-2,1.4469974E-2,1.5210143E-2,-1.1331346E-2,-1.0829604E-2,-1.0378287E-2,-9.929897E-3,-9.538051E-3,-9.067252E-3,-8.614729E-3,-8.025639E-3,-6.398198E-3,1.1463843E-2,-7.488124E-3,-6.8118847E-3,-5.331941E-3,-4.895683E-3,-4.654857E-3,-4.170217E-3,-3.770432E-3,-3.346525E-3,-2.6598037E-3,-1.8512681E-3,-1.1690186E-3,4.0404798E-4,7.2912144E-4,1.3835976E-3,1.8424488E-3,2.2670978E-3,2.6590116E-3,2.9871853E-3,3.3650906E-3,3.7218656E-3,4.128609E-3,4.458364E-3,5.434966E-3,5.9410217E-3,9.840993E-3,2.1952316E-3,1.0235128E-2,1.0964189E-2],"split_indices":[475,473,473,473,473,475,475,473,473,475,465,473,475,473,475,475,473,473,473,376,475,475,473,473,475,473,369,475,475,473,0,0,0,0,0,475,473,473,473,1,473,0,473,473,475,473,9,473,475,475,475,475,0,473,1,473,0,0,0,0,0,0,0,0,0,0,0,0,0,0,0,0,0,0,0,0,0,0,0,0,0,0,0,0,0,0,0,0,0,0,0,0,0,0,0,0,0,0,0],"split_type":[0,0,0,0,0,0,0,0,0,0,0,0,0,0,0,0,0,0,0,0,0,0,0,0,0,0,0,0,0,0,0,0,0,0,0,0,0,0,0,0,0,0,0,0,0,0,0,0,0,0,0,0,0,0,0,0,0,0,0,0,0,0,0,0,0,0,0,0,0,0,0,0,0,0,0,0,0,0,0,0,0,0,0,0,0,0,0,0,0,0,0,0,0,0,0,0,0,0,0],"sum_hessian":[4.3169E4,2.3062E4,2.0107E4,1.6258E4,6.804E3,7.146E3,1.2961E4,3.719E3,1.2539E4,2.571E3,4.233E3,4.57E3,2.576E3,5.983E3,6.978E3,1.147E3,2.572E3,7.459E3,5.08E3,1.024E3,1.547E3,3.2E3,1.033E3,1.294E3,3.276E3,1.831E3,7.45E2,2.467E3,3.516E3,3.543E3,3.435E3,7.79E2,3.68E2,1.226E3,1.346E3,3.523E3,3.936E3,3.191E3,1.889E3,8E0,1.016E3,7.81E2,7.66E2,1.894E3,1.306E3,8.82E2,1.51E2,5.11E2,7.83E2,1.75E3,1.526E3,8.33E2,9.98E2,7.27E2,1.8E1,1.294E3,1.173E3,2.65E3,8.66E2,1.608E3,1.935E3,1.536E3,1.987E3,2.224E3,1.712E3,1.426E3,1.765E3,7.21E2,1.168E3,7E0,1E0,3.69E2,6.47E2,4.9E2,2.76E2,6.01E2,1.293E3,8.4E2,4.66E2,3.57E2,5.25E2,7.2E1,7.9E1,1.74E2,3.37E2,2.97E2,4.86E2,8.56E2,8.94E2,9.97E2,5.29E2,3.58E2,4.75E2,4.81E2,2.46E2,1.7E1,1E0,2.88E2,1.006E3],"tree_param":{"num_deleted":"0","num_feature":"480","num_nodes":"99","size_leaf_vector":"1"}},{"base_weights":[3.9219722E-4,-1.6838978E-1,1.9355051E-1,-2.0238774E-1,-8.421292E-2,6.730145E-2,2.6324362E-1,-2.4965203E-1,-1.862897E-1,-1.12774245E-1,-6.563421E-2,5.2223854E-2,9.391896E-2,2.2737572E-1,2.9278877E-1,-2.762702E-1,-2.3368335E-1,-1.9864547E-1,-1.661862E-1,-1.2649332E-1,-9.965696E-2,-7.4608505E-2,-3.182595E-2,3.3043057E-2,5.9640724E-2,8.781259E-2,1.087747E-1,2.1053037E-1,2.3690026E-1,2.8191727E-1,1.5220161E-2,-1.432537E-2,-1.2977712E-2,-1.208253E-2,-1.1138847E-2,-2.0687222E-1,-1.9065511E-1,-1.7302366E-1,-1.5286642E-1,-6.7394427E-3,-1.1910702E-1,-5.2933046E-3,-4.6672947E-3,-8.05159E-2,-6.6359326E-2,-3.7539583E-2,-7.129831E-3,2.1979759E-2,4.0124893E-2,5.3802818E-2,6.63352E-2,8.199578E-2,4.6478244E-3,1.066769E-1,1.8001042E-1,9.9398205E-3,1.0699776E-2,1.1570784E-2,1.2300967E-2,1.368349E-2,1.4449677E-2,-1.0553238E-2,-1.0126827E-2,-9.758373E-3,-9.344555E-3,-8.88712E-3,-8.454593E-3,-7.843441E-3,-7.321145E-3,-2.102278E-3,-5.9921946E-3,-4.2678346E-3,-3.886861E-3,-3.478551E-3,-2.9395525E-3,-2.1688514E-3,-1.6019238E-3,-1.0763226E-3,3.7679356E-4,8.376967E-4,1.4398689E-3,1.7382511E-3,2.1567952E-3,2.5042589E-3,2.8204075E-3,3.1951764E-3,3.5317037E-3,3.902802E-3,4.2268755E-3,5.1652817E-3,5.6451787E-3,9.497104E-3,3.0208537E-3],"categories":[],"categories_nodes":[],"categories_segments":[],"categories_sizes":[],"default_left":[0,0,0,0,0,0,0,0,0,0,0,0,0,0,0,0,0,0,0,0,0,0,0,0,0,0,0,0,0,0,0,0,0,0,0,0,0,0,0,0,0,0,0,0,0,0,0,0,0,0,0,0,0,0,0,0,0,0,0,0,0,0,0,0,0,0,0,0,0,0,0,0,0,0,0,0,0,0,0,0,0,0,0,0,0,0,0,0,0,0,0,0,0],"id":9,"left_children":[1,3,5,7,9,11,13,15,17,19,21,23,25,27,29,31,33,35,37,39,41,43,45,47,49,51,53,55,57,59,-1,-1,-1,-1,-1,61,63,65,67,-1,69,-1,-1,71,73,75,77,79,81,83,85,87,-1,89,91,-1,-1,-1,-1,-1,-1,-1,-1,-1,-1,-1,-1,-1,-1,-1,-1,-1,-1,-1,-1,-1,-1,-1,-1,-1,-1,-1,-1,-1,-1,-1,-1,-1,-1,-1,-1,-1,-1],"loss_changes":[1.4076738E3,6.5928345E1,1.771438E2,1.2441467E1,3.5112228E0,2.8698082E0,1.3681274E1,1.706665E0,3.0090942E0,4.5744324E-1,1.2173138E0,6.488762E-1,2.2530746E-1,8.909302E-1,8.120117E-1,1.9207764E-1,1.7304993E-1,4.588318E-1,3.9866638E-1,6.194687E-2,4.262638E-2,1.4942741E-1,1.18965745E-1,9.9247456E-2,1.2532234E-1,4.74329E-2,9.2876434E-2,4.3937683E-2,1.3002014E-1,1.3601685E-1,0E0,0E0,0E0,0E0,0E0,2.4932861E-2,2.9052734E-2,2.7038574E-2,1.8089294E-2,0E0,3.368759E-2,0E0,0E0,1.8195152E-2,2.8263092E-2,2.063936E-2,3.394407E-2,1.736702E-2,1.1056304E-2,1.4289379E-2,1.1501312E-2,2.1333694E-3,0E0,3.6811829E-3,1.2279391E-2,0E0,0E0,0E0,0E0,0E0,0E0,0E0,0E0,0E0,0E0,0E0,0E0,0E0,0E0,0E0,0E0,0E0,0E0,0E0,0E0,0E0,0E0,0E0,0E0,0E0,0E0,0E0,0E0,0E0,0E0,0E0,0E0,0E0,0E0,0E0,0E0,0E0,0E0],"parents":[2147483647,0,0,1,1,2,2,3,3,4,4,5,5,6,6,7,7,8,8,9,9,10,10,11,11,12,12,13,13,14,14,15,15,16,16,17,17,18,18,19,19,20,20,21,21,22,22,23,23,24,24,25,25,26,26,27,27,28,28,29,29,35,35,36,36,37,37,38,38,40,40,43,43,44,44,45,45,46,46,47,47,48,48,49,49,50,50,51,51,53,53,54,54],"right_children":[2,4,6,8,10,12,14,16,18,20,22,24,26,28,30,32,34,36,38,40,42,44,46,48,50,52,54,56,58,60,-1,-1,-1,-1,-1,62,64,66,68,-1,70,-1,-1,72,74,76,78,80,82,84,86,88,-1,90,92,-1,-1,-1,-1,-1,-1,-1,-1,-1,-1,-1,-1,-1,-1,-1,-1,-1,-1,-1,-1,-1,-1,-1,-1,-1,-1,-1,-1,-1,-1,-1,-1,-1,-1,-1,-1,-1,-1],"split_conditions":[5.101707E-1,2.680712E-1,7.97312E-1,1.4647736E-1,3.4868574E-1,6.078659E-1,9.040823E-1,9.1603056E-2,2.0217794E-1,3.1212515E-1,4.1320944E-1,5.6647295E-1,6.5018255E-1,8.476601E-1,9.605045E-1,5.8400817E-2,1.2545636E-1,1.768053E-1,2.3428987E-1,2.9059207E-1,3.3563384E-1,3.7414664E-1,4.4823828E-1,5.4028195E-1,5.861787E-1,6.3049746E-1,7.97312E-1,8.198329E-1,8.705049E-1,9.3806756E-1,1.5220161E-2,-1.432537E-2,-1.2977712E-2,-1.208253E-2,-1.1138847E-2,1.6176909E-1,1.8808214E-1,2.1570991E-1,2.5010365E-1,-6.7394427E-3,5.6179776E-3,-5.2933046E-3,-4.6672947E-3,3.6231622E-1,3.9064056E-1,4.313476E-1,4.4462767E-1,5.3169596E-1,5.5426484E-1,5.7189053E-1,5.994026E-1,6.185525E-1,4.6478244E-3,6.621867E-1,8.1012565E-1,9.9398205E-3,1.0699776E-2,1.1570784E-2,1.2300967E-2,1.368349E-2,1.4449677E-2,-1.0553238E-2,-1.0126827E-2,-9.758373E-3,-9.344555E-3,-8.88712E-3,-8.454593E-3,-7.843441E-3,-7.321145E-3,-2.102278E-3,-5.9921946E-3,-4.2678346E-3,-3.886861E-3,-3.478551E-3,-2.9395525E-3,-2.1688514E-3,-1.6019238E-3,-1.0763226E-3,3.7679356E-4,8.376967E-4,1.4398689E-3,1.7382511E-3,2.1567952E-3,2.5042589E-3,2.8204075E-3,3.1951764E-3,3.5317037E-3,3.902802E-3,4.2268755E-3,5.1652817E-3,5.6451787E-3,9.497104E-3,3.0208537E-3],"split_indices":[473,473,473,475,473,475,475,475,478,478,475,473,459,475,475,478,475,473,473,473,465,478,449,475,473,475,337,473,473,473,0,0,0,0,0,475,478,478,478,0,330,0,0,473,475,473,27,475,475,478,475,473,0,473,1,0,0,0,0,0,0,0,0,0,0,0,0,0,0,0,0,0,0,0,0,0,0,0,0,0,0,0,0,0,0,0,0,0,0,0,0,0,0],"split_type":[0,0,0,0,0,0,0,0,0,0,0,0,0,0,0,0,0,0,0,0,0,0,0,0,0,0,0,0,0,0,0,0,0,0,0,0,0,0,0,0,0,0,0,0,0,0,0,0,0,0,0,0,0,0,0,0,0,0,0,0,0,0,0,0,0,0,0,0,0,0,0,0,0,0,0,0,0,0,0,0,0,0,0,0,0,0,0,0,0,0,0,0,0],"sum_hessian":[4.3176E4,2.3042E4,2.0134E4,1.6412E4,6.63E3,7.162E3,1.2972E4,4.166E3,1.2246E4,2.611E3,4.019E3,4.574E3,2.588E3,5.863E3,7.109E3,1.556E3,2.61E3,7.579E3,4.667E3,1.272E3,1.339E3,3.175E3,8.44E2,1.277E3,3.297E3,1.839E3,7.49E2,2.126E3,3.737E3,3.685E3,3.424E3,9.55E2,6.01E2,1.496E3,1.114E3,3.722E3,3.857E3,3.076E3,1.591E3,5.91E2,6.81E2,6.67E2,6.72E2,1.845E3,1.33E3,6.85E2,1.59E2,5E2,7.77E2,1.766E3,1.531E3,8.71E2,9.68E2,7.3E2,1.9E1,4.98E2,1.628E3,2.35E3,1.387E3,1.72E3,1.965E3,1.868E3,1.854E3,1.731E3,2.126E3,1.378E3,1.698E3,9.67E2,6.24E2,7E0,6.74E2,6.62E2,1.183E3,9.28E2,4.02E2,3.29E2,3.56E2,8E1,7.9E1,2.85E2,2.15E2,2.84E2,4.93E2,7.36E2,1.03E3,9.88E2,5.43E2,3.54E2,5.17E2,4.85E2,2.45E2,1.7E1,2E0],"tree_param":{"num_deleted":"0","num_feature":"480","num_nodes":"93","size_leaf_vector":"1"}},{"base_weights":[7.23787E-4,-1.6010554E-1,1.8430713E-1,-1.9388188E-1,-8.338962E-2,6.408243E-2,2.5009704E-1,-2.4166435E-1,-1.7957768E-1,-1.1600562E-1,-6.510295E-2,4.8525494E-2,8.8101536E-2,2.1684335E-1,2.7891982E-1,-2.6913685E-1,-2.2900458E-1,-1.9250424E-1,-1.631979E-1,-1.3190961E-1,-1.0563537E-1,-7.412746E-2,-3.427099E-2,2.8209811E-2,5.4762263E-2,7.9167716E-2,9.857519E-2,2.0180921E-1,2.2730708E-1,2.6870418E-1,2.8925607E-1,-1.3877076E-2,-1.30199585E-2,-1.1999102E-2,-1.1078567E-2,-2.0023596E-1,-1.8563843E-1,-1.69887E-1,-1.5189946E-1,-6.817532E-3,-6.254577E-3,-1.1243776E-1,-9.817367E-2,-8.154922E-2,-6.73405E-2,-3.9225668E-2,-6.3356557E-3,1.6050864E-2,3.3131912E-2,4.837866E-2,6.081187E-2,3.6248E-3,4.1493024E-3,9.7199954E-2,1.6968818E-1,1.953744E-1,1.0488867E-2,1.1150635E-2,1.2001271E-2,1.3121167E-2,1.3785846E-2,1.4243903E-2,1.47827E-2,-1.0323244E-2,-9.849778E-3,-9.463115E-3,-9.092279E-3,-8.681668E-3,-8.2540745E-3,-7.852371E-3,-7.328526E-3,-2.8875957E-3,-5.653081E-3,-1.0588333E-3,-4.912471E-3,-4.2912173E-3,-3.8532459E-3,-3.498017E-3,-3.0291043E-3,-2.3670413E-3,-1.6457395E-3,-1.0227155E-3,3.7528816E-4,6.4405915E-4,1.0100015E-3,1.469181E-3,1.866901E-3,2.1953264E-3,2.5272546E-3,2.8874371E-3,3.19861E-3,4.5930482E-3,5.167495E-3,2.8939E-3,8.879034E-3,9.2319725E-3,9.901713E-3],"categories":[],"categories_nodes":[],"categories_segments":[],"categories_sizes":[],"default_left":[0,0,0,0,0,0,0,0,0,0,0,0,0,0,0,0,0,0,0,0,0,0,0,0,0,0,0,0,0,0,0,0,0,0,0,0,0,0,0,0,0,0,0,0,0,0,0,0,0,0,0,0,0,0,0,0,0,0,0,0,0,0,0,0,0,0,0,0,0,0,0,0,0,0,0,0,0,0,0,0,0,0,0,0,0,0,0,0,0,0,0,0,0,0,0,0,0],"id":10,"left_children":[1,3,5,7,9,11,13,15,17,19,21,23,25,27,29,31,33,35,37,39,41,43,45,47,49,51,53,55,57,59,61,-1,-1,-1,-1,63,65,67,69,-1,-1,71,73,75,77,79,81,83,85,87,89,-1,-1,91,93,95,-1,-1,-1,-1,-1,-1,-1,-1,-1,-1,-1,-1,-1,-1,-1,-1,-1,-1,-1,-1,-1,-1,-1,-1,-1,-1,-1,-1,-1,-1,-1,-1,-1,-1,-1,-1,-1,-1,-1,-1,-1],"loss_changes":[1.2719032E3,5.9482544E1,1.590929E2,1.0852844E1,4.180046E0,2.6547146E0,1.2400513E1,1.2147675E0,2.5671997E0,4.0184784E-1,1.2498341E0,5.459442E-1,2.538185E-1,9.0444946E-1,6.572876E-1,1.2329102E-2,1.5237427E-1,3.2666016E-1,3.8381958E-1,1.2950897E-2,6.667137E-2,1.698494E-1,1.410687E-1,6.0333133E-2,1.2469196E-1,3.255272E-2,1.0898018E-1,8.6586E-2,1.4059448E-1,8.2473755E-2,1.2329102E-2,0E0,0E0,0E0,0E0,2.4154663E-2,1.5663147E-2,3.2470703E-2,3.253174E-2,0E0,0E0,2.0558357E-2,2.2234917E-3,2.517128E-2,2.8057098E-2,4.2844176E-2,3.044397E-2,3.6194995E-3,1.030153E-2,1.3408184E-2,1.2694836E-2,0E0,0E0,3.1909943E-2,1.0018587E-2,3.15094E-3,0E0,0E0,0E0,0E0,0E0,0E0,0E0,0E0,0E0,0E0,0E0,0E0,0E0,0E0,0E0,0E0,0E0,0E0,0E0,0E0,0E0,0E0,0E0,0E0,0E0,0E0,0E0,0E0,0E0,0E0,0E0,0E0,0E0,0E0,0E0,0E0,0E0,0E0,0E0,0E0,0E0],"parents":[2147483647,0,0,1,1,2,2,3,3,4,4,5,5,6,6,7,7,8,8,9,9,10,10,11,11,12,12,13,13,14,14,15,15,16,16,17,17,18,18,19,19,20,20,21,21,22,22,23,23,24,24,25,25,26,26,27,27,28,28,29,29,30,30,35,35,36,36,37,37,38,38,41,41,42,42,43,43,44,44,45,45,46,46,47,47,48,48,49,49,50,50,53,53,54,54,55,55],"right_children":[2,4,6,8,10,12,14,16,18,20,22,24,26,28,30,32,34,36,38,40,42,44,46,48,50,52,54,56,58,60,62,-1,-1,-1,-1,64,66,68,70,-1,-1,72,74,76,78,80,82,84,86,88,90,-1,-1,92,94,96,-1,-1,-1,-1,-1,-1,-1,-1,-1,-1,-1,-1,-1,-1,-1,-1,-1,-1,-1,-1,-1,-1,-1,-1,-1,-1,-1,-1,-1,-1,-1,-1,-1,-1,-1,-1,-1,-1,-1,-1,-1],"split_conditions":[5.101707E-1,2.5525975E-1,7.97312E-1,1.3674079E-1,3.4126407E-1,6.050448E-1,9.1536677E-1,7.664366E-2,1.9372046E-1,2.9059207E-1,3.975663E-1,5.599071E-1,6.3966584E-1,8.517592E-1,9.605045E-1,4.08231E-2,1.0350736E-1,1.6589224E-1,2.2302942E-1,2.7265692E-1,3.1729174E-1,3.6753845E-1,4.4823828E-1,5.326916E-1,5.8276445E-1,6.219714E-1,7.97312E-1,8.310934E-1,8.815134E-1,9.4248915E-1,9.774791E-1,-1.3877076E-2,-1.30199585E-2,-1.1999102E-2,-1.1078567E-2,1.5425223E-1,1.8214911E-1,2.0781626E-1,2.3606783E-1,-6.817532E-3,-6.254577E-3,1.1299435E-2,4.7789934E-1,3.5422945E-1,3.8260412E-1,4.2276984E-1,4.4241932E-1,5.2041155E-1,5.4418224E-1,5.699469E-1,5.937604E-1,3.6248E-3,4.1493024E-3,6.558248E-1,3.8967896E-4,8.1012565E-1,1.0488867E-2,1.1150635E-2,1.2001271E-2,1.3121167E-2,1.3785846E-2,1.4243903E-2,1.47827E-2,-1.0323244E-2,-9.849778E-3,-9.463115E-3,-9.092279E-3,-8.681668E-3,-8.2540745E-3,-7.852371E-3,-7.328526E-3,-2.8875957E-3,-5.653081E-3,-1.0588333E-3,-4.912471E-3,-4.2912173E-3,-3.8532459E-3,-3.498017E-3,-3.0291043E-3,-2.3670413E-3,-1.6457395E-3,-1.0227155E-3,3.7528816E-4,6.4405915E-4,1.0100015E-3,1.469181E-3,1.866901E-3,2.1953264E-3,2.5272546E-3,2.8874371E-3,3.19861E-3,4.5930482E-3,5.167495E-3,2.8939E-3,8.879034E-3,9.2319725E-3,9.901713E-3],"split_indices":[473,478,473,475,473,475,475,457,478,473,473,475,473,478,475,475,478,475,473,478,475,473,457,473,478,475,361,473,475,478,473,0,0,0,0,478,473,478,473,0,0,376,420,475,478,475,6,475,478,473,475,0,0,475,37,473,0,0,0,0,0,0,0,0,0,0,0,0,0,0,0,0,0,0,0,0,0,0,0,0,0,0,0,0,0,0,0,0,0,0,0,0,0,0,0,0,0],"split_type":[0,0,0,0,0,0,0,0,0,0,0,0,0,0,0,0,0,0,0,0,0,0,0,0,0,0,0,0,0,0,0,0,0,0,0,0,0,0,0,0,0,0,0,0,0,0,0,0,0,0,0,0,0,0,0,0,0,0,0,0,0,0,0,0,0,0,0,0,0,0,0,0,0,0,0,0,0,0,0,0,0,0,0,0,0,0,0,0,0,0,0,0,0,0,0,0,0],"sum_hessian":[4.3076E4,2.2961E4,2.0115E4,1.5941E4,7.02E3,7.115E3,1.3E4,3.669E3,1.2272E4,2.52E3,4.5E3,4.32E3,2.795E3,6.04E3,6.96E3,1.151E3,2.518E3,6.853E3,5.419E3,9.9E2,1.53E3,3.48E3,1.02E3,1.016E3,3.304E3,1.513E3,1.282E3,2.487E3,3.553E3,3.514E3,3.446E3,5.71E2,5.8E2,1.004E3,1.514E3,3.21E3,3.643E3,3.395E3,2.024E3,5.88E2,4.02E2,7.93E2,7.37E2,1.657E3,1.823E3,8.66E2,1.54E2,2.94E2,7.22E2,1.612E3,1.692E3,5.58E2,9.55E2,1.26E3,2.2E1,1.39E3,1.097E3,2.67E3,8.83E2,1.874E3,1.64E3,2.073E3,1.373E3,1.077E3,2.133E3,1.838E3,1.805E3,1.888E3,1.507E3,1.015E3,1.009E3,1E1,7.83E2,1E0,7.36E2,8.39E2,8.18E2,1.307E3,5.16E2,3.76E2,4.9E2,7.6E1,7.8E1,1.69E2,1.25E2,3.86E2,3.36E2,5.33E2,1.079E3,8.69E2,8.23E2,6.83E2,5.77E2,2E0,2E1,2.9E2,1.1E3],"tree_param":{"num_deleted":"0","num_feature":"480","num_nodes":"97","size_leaf_vector":"1"}},{"base_weights":[2.27914E-5,-1.5217881E-1,1.7454477E-1,-1.8371953E-1,-7.785077E-2,6.1017815E-2,2.3755758E-1,-2.2955567E-1,-1.701104E-1,-1.0641485E-1,-6.083414E-2,4.701704E-2,8.502332E-2,2.0522565E-1,2.6433754E-1,-2.5598758E-1,-2.1740864E-1,-1.8176399E-1,-1.5280795E-1,-1.2103335E-1,-9.608457E-2,-6.955421E-2,-3.274491E-2,2.9588772E-2,5.3701278E-2,7.94528E-2,9.859267E-2,1.8789211E-1,2.1291913E-1,2.5234687E-1,2.729939E-1,-1.3169037E-2,-1.2363628E-2,-1.126967E-2,-1.0387682E-2,-1.897644E-1,-1.749159E-1,-1.5911357E-1,-1.4192528E-1,-6.4343573E-3,-1.1602387E-1,-5.123222E-3,-4.4501103E-3,-7.624095E-2,-6.41621E-2,-3.718323E-2,-6.433542E-3,1.9927407E-2,3.6041755E-2,4.8398722E-2,5.9898347E-2,7.3967904E-2,4.2002345E-3,4.7620097E-3,1.3422419E-1,8.90053E-3,9.549704E-3,1.02798045E-2,2.196419E-1,1.2161065E-2,1.2840012E-2,1.3446926E-2,1.4033652E-2,-9.801521E-3,-9.342607E-3,-8.9682555E-3,-8.575671E-3,-8.128972E-3,-7.7182287E-3,-7.316993E-3,-6.8281214E-3,2.5454902E-3,-5.844095E-3,-4.009602E-3,-3.662871E-3,-3.3609301E-3,-2.9567697E-3,-2.1540883E-3,-1.4622692E-3,-9.5566374E-4,3.6080406E-4,6.18874E-4,1.179937E-3,1.5725701E-3,1.938591E-3,2.2536223E-3,2.5458748E-3,2.8859545E-3,3.1904124E-3,3.5247838E-3,3.8092674E-3,5.8268714E-3,8.944772E-3,1.0804224E-2,1.1339756E-2],"categories":[],"categories_nodes":[],"categories_segments":[],"categories_sizes":[],"default_left":[0,0,0,0,0,0,0,0,0,0,0,0,0,0,0,0,0,0,0,0,0,0,0,0,0,0,0,0,0,0,0,0,0,0,0,0,0,0,0,0,0,0,0,0,0,0,0,0,0,0,0,0,0,0,0,0,0,0,0,0,0,0,0,0,0,0,0,0,0,0,0,0,0,0,0,0,0,0,0,0,0,0,0,0,0,0,0,0,0,0,0,0,0,0,0],"id":11,"left_children":[1,3,5,7,9,11,13,15,17,19,21,23,25,27,29,31,33,35,37,39,41,43,45,47,49,51,53,55,57,59,61,-1,-1,-1,-1,63,65,67,69,-1,71,-1,-1,73,75,77,79,81,83,85,87,89,-1,-1,91,-1,-1,-1,93,-1,-1,-1,-1,-1,-1,-1,-1,-1,-1,-1,-1,-1,-1,-1,-1,-1,-1,-1,-1,-1,-1,-1,-1,-1,-1,-1,-1,-1,-1,-1,-1,-1,-1,-1,-1],"loss_changes":[1.1404088E3,5.3748962E1,1.4305853E2,1.0003967E1,3.3152847E0,2.3957272E0,1.1081421E1,1.1268463E0,2.4761353E0,3.7345505E-1,1.0472908E0,5.2403355E-1,1.9088745E-1,7.3757935E-1,6.609192E-1,9.223938E-3,1.4820862E-1,3.7304688E-1,3.2079315E-1,2.5403976E-2,5.8612823E-2,1.1297417E-1,1.1852431E-1,7.739961E-2,1.0422611E-1,4.0449142E-2,7.812071E-2,2.1205902E-2,1.532898E-1,5.7876587E-2,5.126953E-2,0E0,0E0,0E0,0E0,2.5558472E-2,2.9907227E-2,2.6908875E-2,2.3693085E-2,0E0,9.847927E-2,0E0,0E0,1.1264801E-2,2.3926258E-2,3.9474964E-2,2.5752809E-2,1.3677925E-2,8.179545E-3,1.2467384E-2,9.08947E-3,1.2197495E-3,0E0,0E0,2.8927684E-2,0E0,0E0,0E0,4.096985E-3,0E0,0E0,0E0,0E0,0E0,0E0,0E0,0E0,0E0,0E0,0E0,0E0,0E0,0E0,0E0,0E0,0E0,0E0,0E0,0E0,0E0,0E0,0E0,0E0,0E0,0E0,0E0,0E0,0E0,0E0,0E0,0E0,0E0,0E0,0E0,0E0],"parents":[2147483647,0,0,1,1,2,2,3,3,4,4,5,5,6,6,7,7,8,8,9,9,10,10,11,11,12,12,13,13,14,14,15,15,16,16,17,17,18,18,19,19,20,20,21,21,22,22,23,23,24,24,25,25,26,26,27,27,28,28,29,29,30,30,35,35,36,36,37,37,38,38,40,40,43,43,44,44,45,45,46,46,47,47,48,48,49,49,50,50,51,51,54,54,58,58],"right_children":[2,4,6,8,10,12,14,16,18,20,22,24,26,28,30,32,34,36,38,40,42,44,46,48,50,52,54,56,58,60,62,-1,-1,-1,-1,64,66,68,70,-1,72,-1,-1,74,76,78,80,82,84,86,88,90,-1,-1,92,-1,-1,-1,94,-1,-1,-1,-1,-1,-1,-1,-1,-1,-1,-1,-1,-1,-1,-1,-1,-1,-1,-1,-1,-1,-1,-1,-1,-1,-1,-1,-1,-1,-1,-1,-1,-1,-1,-1,-1],"split_conditions":[5.0912714E-1,2.588174E-1,7.97312E-1,1.3693453E-1,3.4550282E-1,6.078659E-1,9.042862E-1,7.664366E-2,1.9581676E-1,3.003651E-1,3.9669994E-1,5.655493E-1,6.5018255E-1,8.377327E-1,9.5486224E-1,4.148586E-2,1.12747945E-1,1.6891186E-1,2.2419515E-1,2.7265692E-1,3.2340178E-1,3.6807168E-1,4.4823828E-1,5.4047704E-1,5.873121E-1,6.3020223E-1,6.783936E-1,8.1675464E-1,8.645868E-1,9.322934E-1,9.774311E-1,-1.3169037E-2,-1.2363628E-2,-1.126967E-2,-1.0387682E-2,1.5425223E-1,1.8244383E-1,2.121047E-1,2.4446532E-1,-6.4343573E-3,1.1299435E-2,-5.123222E-3,-4.4501103E-3,3.5441253E-1,3.7978497E-1,4.3013608E-1,4.4241932E-1,5.2074295E-1,5.5426484E-1,5.7189053E-1,5.994026E-1,6.188094E-1,4.2002345E-3,4.7620097E-3,1.5355805E-1,8.90053E-3,9.549704E-3,1.02798045E-2,8.79783E-1,1.2161065E-2,1.2840012E-2,1.3446926E-2,1.4033652E-2,-9.801521E-3,-9.342607E-3,-8.9682555E-3,-8.575671E-3,-8.128972E-3,-7.7182287E-3,-7.316993E-3,-6.8281214E-3,2.5454902E-3,-5.844095E-3,-4.009602E-3,-3.662871E-3,-3.3609301E-3,-2.9567697E-3,-2.1540883E-3,-1.4622692E-3,-9.5566374E-4,3.6080406E-4,6.18874E-4,1.179937E-3,1.5725701E-3,1.938591E-3,2.2536223E-3,2.5458748E-3,2.8859545E-3,3.1904124E-3,3.5247838E-3,3.8092674E-3,5.8268714E-3,8.944772E-3,1.0804224E-2,1.1339756E-2],"split_indices":[475,478,465,478,475,475,465,465,478,475,478,475,475,475,475,478,478,478,475,478,478,475,465,478,475,478,475,478,475,475,467,0,0,0,0,478,478,475,478,0,376,0,0,478,478,475,6,478,467,478,475,478,0,0,426,0,0,0,478,0,0,0,0,0,0,0,0,0,0,0,0,0,0,0,0,0,0,0,0,0,0,0,0,0,0,0,0,0,0,0,0,0,0,0,0],"split_type":[0,0,0,0,0,0,0,0,0,0,0,0,0,0,0,0,0,0,0,0,0,0,0,0,0,0,0,0,0,0,0,0,0,0,0,0,0,0,0,0,0,0,0,0,0,0,0,0,0,0,0,0,0,0,0,0,0,0,0,0,0,0,0,0,0,0,0,0,0,0,0,0,0,0,0,0,0,0,0,0,0,0,0,0,0,0,0,0,0,0,0,0,0,0,0],"sum_hessian":[4.2931E4,2.2932E4,1.9999E4,1.6099E4,6.833E3,7.139E3,1.286E4,3.682E3,1.2417E4,2.549E3,4.284E3,4.511E3,2.628E3,5.83E3,7.03E3,1.153E3,2.529E3,7.414E3,5.003E3,1.051E3,1.498E3,3.268E3,1.016E3,1.252E3,3.259E3,1.868E3,7.6E2,1.8E3,4.03E3,2.96E3,4.07E3,6.08E2,5.45E2,1.372E3,1.157E3,3.407E3,4.007E3,3.159E3,1.844E3,4.06E2,6.45E2,7.81E2,7.17E2,1.453E3,1.815E3,8.69E2,1.47E2,5.03E2,7.49E2,1.761E3,1.498E3,8.55E2,1.013E3,6.98E2,6.2E1,4.44E2,1.356E3,1.944E3,2.086E3,9.89E2,1.971E3,2.687E3,1.383E3,1.06E3,2.347E3,1.714E3,2.293E3,1.807E3,1.352E3,9.97E2,8.47E2,3E0,6.42E2,6.14E2,8.39E2,1.121E3,6.94E2,4.96E2,3.73E2,7.6E1,7.1E1,1.66E2,3.37E2,2.84E2,4.65E2,7.67E2,9.94E2,9.72E2,5.26E2,3.46E2,5.09E2,4.7E1,1.5E1,1.414E3,6.72E2],"tree_param":{"num_deleted":"0","num_feature":"480","num_nodes":"95","size_leaf_vector":"1"}},{"base_weights":[1.4181709E-4,-1.4440376E-1,1.6603687E-1,-1.7441836E-1,-7.410116E-2,5.7796437E-2,2.257772E-1,-2.160468E-1,-1.6111523E-1,-1.01114474E-1,-5.7697564E-2,4.4732854E-2,8.102858E-2,1.9561315E-1,2.517569E-1,-2.3990028E-1,-2.0361103E-1,-1.7194533E-1,-1.4467603E-1,-1.1488809E-1,-9.121753E-2,-6.505168E-2,-2.7498225E-2,2.5221908E-2,5.0158832E-2,7.5539924E-2,9.3765944E-2,1.8473618E-1,2.0762604E-1,2.4252474E-1,2.6113868E-1,-1.2377341E-2,-1.1424395E-2,-1.0517816E-2,-9.703144E-3,-1.7851298E-1,-1.6463034E-1,-1.4997219E-1,-1.3298114E-1,-5.9700175E-3,-1.0717595E-1,-9.731754E-2,-8.461439E-2,-7.066935E-2,-5.7558015E-2,-3.2240056E-2,-5.871784E-3,1.4461004E-2,2.9797692E-2,4.377348E-2,5.558389E-2,7.066453E-2,3.9968053E-3,4.5321947E-3,1.2990595E-1,1.7756645E-1,9.629379E-3,1.0184561E-2,1.0852056E-2,1.1836006E-2,1.2446126E-2,1.2862982E-2,1.3333586E-2,-9.183669E-3,-8.758887E-3,-8.385697E-3,-8.055222E-3,-7.6861344E-3,-7.2695496E-3,-6.785349E-3,-6.373923E-3,2.7956055E-3,-5.4256087E-3,-5.0166952E-3,-4.65158E-3,-4.3443977E-3,-4.0045795E-3,-3.740875E-3,-3.3587005E-3,-3.0610429E-3,-2.6232156E-3,-1.8521075E-3,-1.3788552E-3,-9.152555E-4,3.3188995E-4,5.79631E-4,9.1650506E-4,1.3291506E-3,1.6960967E-3,1.9809757E-3,2.2864675E-3,2.6129542E-3,2.9350712E-3,3.369042E-3,3.647687E-3,5.5526E-3,8.497692E-3,8.31879E-3,8.990365E-3],"categories":[],"categories_nodes":[],"categories_segments":[],"categories_sizes":[],"default_left":[0,0,0,0,0,0,0,0,0,0,0,0,0,0,0,0,0,0,0,0,0,0,0,0,0,0,0,0,0,0,0,0,0,0,0,0,0,0,0,0,0,0,0,0,0,0,0,0,0,0,0,0,0,0,0,0,0,0,0,0,0,0,0,0,0,0,0,0,0,0,0,0,0,0,0,0,0,0,0,0,0,0,0,0,0,0,0,0,0,0,0,0,0,0,0,0,0,0,0],"id":12,"left_children":[1,3,5,7,9,11,13,15,17,19,21,23,25,27,29,31,33,35,37,39,41,43,45,47,49,51,53,55,57,59,61,-1,-1,-1,-1,63,65,67,69,-1,71,73,75,77,79,81,83,85,87,89,91,93,-1,-1,95,97,-1,-1,-1,-1,-1,-1,-1,-1,-1,-1,-1,-1,-1,-1,-1,-1,-1,-1,-1,-1,-1,-1,-1,-1,-1,-1,-1,-1,-1,-1,-1,-1,-1,-1,-1,-1,-1,-1,-1,-1,-1,-1,-1],"loss_changes":[1.035934E3,4.870099E1,1.3005695E2,8.924377E0,3.055645E0,2.167883E0,1.0107666E1,1.112503E0,2.1585693E0,3.4517288E-1,9.5341873E-1,4.8381233E-1,1.7286873E-1,7.458954E-1,5.3952026E-1,6.0012817E-2,1.2534332E-1,3.2554626E-1,2.8212738E-1,2.5030136E-2,5.3111076E-2,1.4150333E-1,8.6362064E-2,4.875946E-2,1.21720314E-1,3.301716E-2,7.521725E-2,1.4362335E-1,6.1157227E-2,7.18689E-2,5.218506E-3,0E0,0E0,0E0,0E0,3.4622192E-2,1.1123657E-2,3.5186768E-2,5.6324005E-3,0E0,9.563255E-2,8.13961E-4,6.3991547E-4,2.35672E-2,2.4531841E-2,1.4473736E-2,2.391847E-2,3.1169206E-3,8.378983E-3,1.1601925E-2,1.6978264E-2,1.5792847E-3,0E0,0E0,2.567494E-2,1.1814117E-2,0E0,0E0,0E0,0E0,0E0,0E0,0E0,0E0,0E0,0E0,0E0,0E0,0E0,0E0,0E0,0E0,0E0,0E0,0E0,0E0,0E0,0E0,0E0,0E0,0E0,0E0,0E0,0E0,0E0,0E0,0E0,0E0,0E0,0E0,0E0,0E0,0E0,0E0,0E0,0E0,0E0,0E0,0E0],"parents":[2147483647,0,0,1,1,2,2,3,3,4,4,5,5,6,6,7,7,8,8,9,9,10,10,11,11,12,12,13,13,14,14,15,15,16,16,17,17,18,18,19,19,20,20,21,21,22,22,23,23,24,24,25,25,26,26,27,27,28,28,29,29,30,30,35,35,36,36,37,37,38,38,40,40,41,41,42,42,43,43,44,44,45,45,46,46,47,47,48,48,49,49,50,50,51,51,54,54,55,55],"right_children":[2,4,6,8,10,12,14,16,18,20,22,24,26,28,30,32,34,36,38,40,42,44,46,48,50,52,54,56,58,60,62,-1,-1,-1,-1,64,66,68,70,-1,72,74,76,78,80,82,84,86,88,90,92,94,-1,-1,96,98,-1,-1,-1,-1,-1,-1,-1,-1,-1,-1,-1,-1,-1,-1,-1,-1,-1,-1,-1,-1,-1,-1,-1,-1,-1,-1,-1,-1,-1,-1,-1,-1,-1,-1,-1,-1,-1,-1,-1,-1,-1,-1,-1],"split_conditions":[5.0912714E-1,2.588174E-1,7.97312E-1,1.4238301E-1,3.4550282E-1,6.078659E-1,9.1536677E-1,8.549607E-2,1.9935878E-1,3.008485E-1,4.1320944E-1,5.599071E-1,6.5042424E-1,8.5622287E-1,9.605318E-1,4.712418E-2,1.2042232E-1,1.7217392E-1,2.2773962E-1,2.8343844E-1,3.2340178E-1,3.7063634E-1,4.474448E-1,5.3201956E-1,5.8276445E-1,6.332559E-1,6.783936E-1,8.311525E-1,8.79783E-1,9.4248915E-1,9.7744673E-1,-1.2377341E-2,-1.1424395E-2,-1.0517816E-2,-9.703144E-3,1.5885685E-1,1.8745567E-1,2.1570991E-1,2.4647006E-1,-5.9700175E-3,1.1299435E-2,3.1311297E-1,3.3986062E-1,3.6242947E-1,3.854233E-1,4.3052983E-1,4.4241932E-1,5.2074295E-1,5.4548806E-1,5.711915E-1,5.9404105E-1,6.222327E-1,3.9968053E-3,4.5321947E-3,1.2078652E-1,8.1380683E-1,9.629379E-3,1.0184561E-2,1.0852056E-2,1.1836006E-2,1.2446126E-2,1.2862982E-2,1.3333586E-2,-9.183669E-3,-8.758887E-3,-8.385697E-3,-8.055222E-3,-7.6861344E-3,-7.2695496E-3,-6.785349E-3,-6.373923E-3,2.7956055E-3,-5.4256087E-3,-5.0166952E-3,-4.65158E-3,-4.3443977E-3,-4.0045795E-3,-3.740875E-3,-3.3587005E-3,-3.0610429E-3,-2.6232156E-3,-1.8521075E-3,-1.3788552E-3,-9.152555E-4,3.3188995E-4,5.79631E-4,9.1650506E-4,1.3291506E-3,1.6960967E-3,1.9809757E-3,2.2864675E-3,2.6129542E-3,2.9350712E-3,3.369042E-3,3.647687E-3,5.5526E-3,8.497692E-3,8.31879E-3,8.990365E-3],"split_indices":[475,478,449,475,475,475,475,478,478,478,475,475,478,478,478,478,478,475,475,475,478,475,462,478,478,475,475,478,478,478,478,0,0,0,0,478,478,478,478,0,384,465,475,475,478,478,6,462,467,475,478,478,0,0,426,475,0,0,0,0,0,0,0,0,0,0,0,0,0,0,0,0,0,0,0,0,0,0,0,0,0,0,0,0,0,0,0,0,0,0,0,0,0,0,0,0,0,0,0],"split_type":[0,0,0,0,0,0,0,0,0,0,0,0,0,0,0,0,0,0,0,0,0,0,0,0,0,0,0,0,0,0,0,0,0,0,0,0,0,0,0,0,0,0,0,0,0,0,0,0,0,0,0,0,0,0,0,0,0,0,0,0,0,0,0,0,0,0,0,0,0,0,0,0,0,0,0,0,0,0,0,0,0,0,0,0,0,0,0,0,0,0,0,0,0,0,0,0,0,0,0],"sum_hessian":[4.3199E4,2.3085E4,2.0114E4,1.6177E4,6.908E3,7.154E3,1.296E4,3.914E3,1.2263E4,2.608E3,4.3E3,4.581E3,2.573E3,6.001E3,6.959E3,1.335E3,2.579E3,7.387E3,4.876E3,1.086E3,1.522E3,3.457E3,8.43E2,9.98E2,3.583E3,1.803E3,7.7E2,3.158E3,2.843E3,3.521E3,3.438E3,7.87E2,5.48E2,1.499E3,1.08E3,3.88E3,3.507E3,3.348E3,1.528E3,6.76E2,4.1E2,7.84E2,7.38E2,1.971E3,1.486E3,6.91E2,1.52E2,2.99E2,6.99E2,1.65E3,1.933E3,8.63E2,9.4E2,7.12E2,5.8E1,1.663E3,1.495E3,2.021E3,8.22E2,1.866E3,1.655E3,2.049E3,1.389E3,1.502E3,2.378E3,1.846E3,1.661E3,1.823E3,1.525E3,1.006E3,5.22E2,3E0,4.07E2,4.47E2,3.37E2,4.79E2,2.59E2,8.92E2,1.079E3,8.58E2,6.28E2,3.37E2,3.54E2,7.6E1,7.6E1,1.74E2,1.25E2,3.97E2,3.02E2,5.35E2,1.115E3,9.44E2,9.89E2,3.67E2,4.96E2,4.2E1,1.6E1,2.9E2,1.373E3],"tree_param":{"num_deleted":"0","num_feature":"480","num_nodes":"99","size_leaf_vector":"1"}},{"base_weights":[-8.1800175E-4,-1.3757606E-1,1.5743202E-1,-1.6609922E-1,-7.156216E-2,5.461387E-2,2.14524E-1,-2.0929745E-1,-1.5461121E-1,-9.947783E-2,-5.5869766E-2,4.1614678E-2,7.558443E-2,1.859978E-1,2.3910195E-1,-1.1671977E-2,-1.9927517E-1,-1.660213E-1,-1.4021027E-1,-1.1293368E-1,-9.050078E-2,-6.358364E-2,-2.9261163E-2,2.4100814E-2,4.7088083E-2,6.7962684E-2,8.4551334E-2,1.7558369E-1,1.9719358E-1,2.3055267E-1,2.4812555E-1,-1.0476637E-2,-9.656972E-3,-1.7397556E-1,-1.6051766E-1,-1.4587109E-1,-1.301454E-1,-5.8469824E-3,-5.358278E-3,-9.6099615E-2,-8.409744E-2,-6.999238E-2,-5.7757482E-2,-3.3714037E-2,-5.0235866E-3,1.37264645E-2,2.8574778E-2,4.1156203E-2,5.19305E-2,3.1263267E-3,7.121428E-2,8.338391E-2,1.4576529E-1,1.6866401E-1,9.149177E-3,9.674715E-3,1.0311112E-2,1.1203145E-2,1.1782161E-2,1.22997975E-2,1.2872106E-2,-8.898522E-3,-8.518393E-3,-8.178385E-3,-7.8248745E-3,-7.459424E-3,-7.0716883E-3,-6.731793E-3,-6.2772534E-3,-1.382567E-4,-4.834268E-3,-8.1249926E-4,-4.2085056E-3,-3.6762815E-3,-3.3051316E-3,-3.0300124E-3,-2.6642515E-3,-2.0599642E-3,-1.4236405E-3,-8.609818E-4,3.316104E-4,5.5579736E-4,8.5914135E-4,1.2662121E-3,1.6186176E-3,1.8784868E-3,2.1490098E-3,2.4625766E-3,2.7486288E-3,3.5625405E-3,9.438664E-4,3.948274E-3,4.4434536E-3,7.7909725E-3,3.078337E-3,7.91368E-3,8.541113E-3],"categories":[],"categories_nodes":[],"categories_segments":[],"categories_sizes":[],"default_left":[0,0,0,0,0,0,0,0,0,0,0,0,0,0,0,0,0,0,0,0,0,0,0,0,0,0,0,0,0,0,0,0,0,0,0,0,0,0,0,0,0,0,0,0,0,0,0,0,0,0,0,0,0,0,0,0,0,0,0,0,0,0,0,0,0,0,0,0,0,0,0,0,0,0,0,0,0,0,0,0,0,0,0,0,0,0,0,0,0,0,0,0,0,0,0,0,0],"id":13,"left_children":[1,3,5,7,9,11,13,15,17,19,21,23,25,27,29,-1,31,33,35,37,39,41,43,45,47,49,51,53,55,57,59,-1,-1,61,63,65,67,-1,-1,69,71,73,75,77,79,81,83,85,87,-1,89,91,93,95,-1,-1,-1,-1,-1,-1,-1,-1,-1,-1,-1,-1,-1,-1,-1,-1,-1,-1,-1,-1,-1,-1,-1,-1,-1,-1,-1,-1,-1,-1,-1,-1,-1,-1,-1,-1,-1,-1,-1,-1,-1,-1,-1],"loss_changes":[9.307127E2,4.3425293E1,1.1701437E2,7.961426E0,3.0442429E0,1.9374962E0,8.942505E0,7.715454E-1,2.0681458E0,2.9224586E-1,9.1337395E-1,4.2036343E-1,1.8035316E-1,6.575775E-1,4.7369385E-1,0E0,1.103363E-1,2.8271484E-1,3.0195618E-1,1.0527611E-2,4.594612E-2,1.2499905E-1,1.08189225E-1,4.829657E-2,9.406185E-2,2.1655083E-2,7.695961E-2,1.2710571E-1,5.5374146E-2,6.442261E-2,2.8381348E-3,0E0,0E0,1.1329651E-2,2.5993347E-2,3.1852722E-2,2.5177002E-2,0E0,0E0,4.3304443E-2,2.1381378E-3,1.7692566E-2,1.985979E-2,3.209561E-2,2.2432484E-2,2.6782788E-3,8.216083E-3,8.2633495E-3,1.2288094E-2,0E0,4.081726E-4,2.2695541E-2,9.03067E-3,8.998871E-3,0E0,0E0,0E0,0E0,0E0,0E0,0E0,0E0,0E0,0E0,0E0,0E0,0E0,0E0,0E0,0E0,0E0,0E0,0E0,0E0,0E0,0E0,0E0,0E0,0E0,0E0,0E0,0E0,0E0,0E0,0E0,0E0,0E0,0E0,0E0,0E0,0E0,0E0,0E0,0E0,0E0,0E0,0E0],"parents":[2147483647,0,0,1,1,2,2,3,3,4,4,5,5,6,6,7,7,8,8,9,9,10,10,11,11,12,12,13,13,14,14,16,16,17,17,18,18,19,19,20,20,21,21,22,22,23,23,24,24,25,25,26,26,27,27,28,28,29,29,30,30,33,33,34,34,35,35,36,36,39,39,40,40,41,41,42,42,43,43,44,44,45,45,46,46,47,47,48,48,50,50,51,51,52,52,53,53],"right_children":[2,4,6,8,10,12,14,16,18,20,22,24,26,28,30,-1,32,34,36,38,40,42,44,46,48,50,52,54,56,58,60,-1,-1,62,64,66,68,-1,-1,70,72,74,76,78,80,82,84,86,88,-1,90,92,94,96,-1,-1,-1,-1,-1,-1,-1,-1,-1,-1,-1,-1,-1,-1,-1,-1,-1,-1,-1,-1,-1,-1,-1,-1,-1,-1,-1,-1,-1,-1,-1,-1,-1,-1,-1,-1,-1,-1,-1,-1,-1,-1,-1],"split_conditions":[5.101707E-1,2.5576812E-1,7.97312E-1,1.288798E-1,3.4126407E-1,6.053177E-1,9.1554666E-1,5.8400817E-2,1.909013E-1,2.9059207E-1,3.975663E-1,5.602112E-1,6.3966584E-1,8.5622287E-1,9.6058846E-1,-1.1671977E-2,9.7869046E-2,1.6610925E-1,2.2302942E-1,2.7265692E-1,3.1776348E-1,3.6753845E-1,4.474448E-1,5.326916E-1,5.771984E-1,6.222327E-1,7.97312E-1,8.311525E-1,8.7895024E-1,9.3806756E-1,9.8307335E-1,-1.0476637E-2,-9.656972E-3,1.5331404E-1,1.7798562E-1,2.0781626E-1,2.3633951E-1,-5.8469824E-3,-5.358278E-3,5.6179776E-3,4.7789934E-1,3.5441253E-1,3.806756E-1,4.2089012E-1,4.4461885E-1,5.2143115E-1,5.4548806E-1,5.699469E-1,5.928465E-1,3.1263267E-3,8.556787E-1,6.565565E-1,8.1012565E-1,8.1111634E-1,9.149177E-3,9.674715E-3,1.0311112E-2,1.1203145E-2,1.1782161E-2,1.22997975E-2,1.2872106E-2,-8.898522E-3,-8.518393E-3,-8.178385E-3,-7.8248745E-3,-7.459424E-3,-7.0716883E-3,-6.731793E-3,-6.2772534E-3,-1.382567E-4,-4.834268E-3,-8.1249926E-4,-4.2085056E-3,-3.6762815E-3,-3.3051316E-3,-3.0300124E-3,-2.6642515E-3,-2.0599642E-3,-1.4236405E-3,-8.609818E-4,3.316104E-4,5.5579736E-4,8.5914135E-4,1.2662121E-3,1.6186176E-3,1.8784868E-3,2.1490098E-3,2.4625766E-3,2.7486288E-3,3.5625405E-3,9.438664E-4,3.948274E-3,4.4434536E-3,7.7909725E-3,3.078337E-3,7.91368E-3,8.541113E-3],"split_indices":[473,473,473,478,473,478,473,478,478,473,473,478,473,478,473,0,478,473,473,478,478,473,478,473,478,478,369,478,473,473,467,0,0,473,478,478,478,0,0,330,420,478,473,478,9,473,467,473,478,0,1,473,1,462,0,0,0,0,0,0,0,0,0,0,0,0,0,0,0,0,0,0,0,0,0,0,0,0,0,0,0,0,0,0,0,0,0,0,0,0,0,0,0,0,0,0,0],"split_type":[0,0,0,0,0,0,0,0,0,0,0,0,0,0,0,0,0,0,0,0,0,0,0,0,0,0,0,0,0,0,0,0,0,0,0,0,0,0,0,0,0,0,0,0,0,0,0,0,0,0,0,0,0,0,0,0,0,0,0,0,0,0,0,0,0,0,0,0,0,0,0,0,0,0,0,0,0,0,0,0,0,0,0,0,0,0,0,0,0,0,0,0,0,0,0,0,0],"sum_hessian":[4.3003E4,2.3068E4,1.9935E4,1.6107E4,6.961E3,7.118E3,1.2817E4,3.38E3,1.2727E4,2.503E3,4.458E3,4.396E3,2.722E3,5.936E3,6.881E3,9.85E2,2.395E3,7.095E3,5.632E3,9.97E2,1.506E3,3.455E3,1.003E3,1.048E3,3.348E3,1.476E3,1.246E3,3.084E3,2.852E3,3.547E3,3.334E3,8.84E2,1.511E3,2.889E3,4.206E3,3.596E3,2.036E3,5.77E2,4.2E2,7.96E2,7.1E2,1.64E3,1.815E3,8.47E2,1.56E2,3.17E2,7.31E2,1.509E3,1.839E3,5.6E2,9.16E2,1.225E3,2.1E1,1.606E3,1.478E3,2.039E3,8.13E2,1.579E3,1.968E3,2.736E3,5.98E2,1.348E3,1.541E3,2.369E3,1.837E3,2.039E3,1.557E3,1.016E3,1.02E3,5E0,7.91E2,1E0,7.09E2,8.5E2,7.9E2,1.102E3,7.13E2,3.46E2,5.01E2,7.6E1,8E1,1.83E2,1.34E2,3.98E2,3.33E2,5.16E2,9.93E2,9.87E2,8.52E2,9.15E2,1E0,6.87E2,5.38E2,1.8E1,3E0,2.89E2,1.317E3],"tree_param":{"num_deleted":"0","num_feature":"480","num_nodes":"97","size_leaf_vector":"1"}},{"base_weights":[2.6073178E-5,-1.3047369E-1,1.501375E-1,-1.5798211E-1,-6.785842E-2,5.2205138E-2,2.0360662E-1,-1.9910277E-1,-1.4687227E-1,-9.4483435E-2,-5.3079166E-2,4.029443E-2,7.298719E-2,1.7599978E-1,2.2654212E-1,-2.1944614E-1,-1.8830524E-1,-1.5765294E-1,-1.3318937E-1,-1.0742727E-1,-8.60492E-2,-5.9614066E-2,-2.4647562E-2,2.533272E-2,4.6158656E-2,6.819968E-2,8.438749E-2,1.6441083E-1,1.8439968E-1,2.1406159E-1,2.3286167E-1,-1.1320492E-2,-1.0600604E-2,-9.8960595E-3,-9.168876E-3,-1.6529696E-1,-1.5243727E-1,-1.3895242E-1,-1.2423718E-1,-5.550732E-3,-5.1034316E-3,-9.14616E-2,-4.00312E-3,-6.479595E-2,-5.1971123E-2,-2.9131752E-2,-4.823566E-3,1.6891517E-2,3.1101793E-2,4.1607797E-2,5.1406417E-2,6.3535556E-2,7.21389E-2,8.2762346E-2,1.4037973E-1,7.838898E-3,8.4378E-3,9.042465E-3,9.619112E-3,1.0262415E-2,1.0860819E-2,1.1397175E-2,1.1943181E-2,-8.458086E-3,-8.090175E-3,-7.770002E-3,-7.429735E-3,-7.146424E-3,-6.7922077E-3,-6.42002E-3,-5.972988E-3,-4.606197E-3,-2.5417034E-3,-3.493384E-3,-3.0744493E-3,-2.7164926E-3,-2.275238E-3,-1.6311184E-3,-1.1522867E-3,-7.802988E-4,2.9421793E-4,6.5170234E-4,1.1121173E-3,1.3679255E-3,1.6708283E-3,1.9353168E-3,2.1857033E-3,2.4720451E-3,2.740141E-3,3.0216465E-3,3.2680996E-3,3.4796584E-3,3.7128942E-3,4.083328E-3,4.996216E-3,1.5618801E-3,7.223998E-3],"categories":[],"categories_nodes":[],"categories_segments":[],"categories_sizes":[],"default_left":[0,0,0,0,0,0,0,0,0,0,0,0,0,0,0,0,0,0,0,0,0,0,0,0,0,0,0,0,0,0,0,0,0,0,0,0,0,0,0,0,0,0,0,0,0,0,0,0,0,0,0,0,0,0,0,0,0,0,0,0,0,0,0,0,0,0,0,0,0,0,0,0,0,0,0,0,0,0,0,0,0,0,0,0,0,0,0,0,0,0,0,0,0,0,0,0,0],"id":14,"left_children":[1,3,5,7,9,11,13,15,17,19,21,23,25,27,29,31,33,35,37,39,41,43,45,47,49,51,53,55,57,59,61,-1,-1,-1,-1,63,65,67,69,-1,-1,71,-1,73,75,77,79,81,83,85,87,89,91,93,95,-1,-1,-1,-1,-1,-1,-1,-1,-1,-1,-1,-1,-1,-1,-1,-1,-1,-1,-1,-1,-1,-1,-1,-1,-1,-1,-1,-1,-1,-1,-1,-1,-1,-1,-1,-1,-1,-1,-1,-1,-1,-1],"loss_changes":[8.462078E2,3.9791595E1,1.05182526E2,7.3049316E0,2.7711105E0,1.7535229E0,8.187683E0,7.0814514E-1,1.8439941E0,2.6554108E-1,8.418665E-1,3.9479637E-1,1.3527775E-1,5.4411316E-1,5.0964355E-1,1.2931824E-2,6.965637E-2,2.565155E-1,2.7051544E-1,7.6818466E-3,4.2222023E-2,1.4277458E-1,7.54199E-2,6.146705E-2,7.526207E-2,2.894783E-2,5.753851E-2,5.6098938E-2,6.1935425E-2,2.2071838E-2,8.4243774E-2,0E0,0E0,0E0,0E0,1.1161804E-2,2.4864197E-2,2.242279E-2,2.8301239E-2,0E0,0E0,1.6736984E-2,0E0,3.2518387E-2,2.0345211E-2,1.3970196E-2,1.8334072E-2,1.0422617E-2,5.6276917E-3,8.947611E-3,7.3103905E-3,8.325577E-4,1.2922287E-4,5.774975E-3,4.43694E-3,0E0,0E0,0E0,0E0,0E0,0E0,0E0,0E0,0E0,0E0,0E0,0E0,0E0,0E0,0E0,0E0,0E0,0E0,0E0,0E0,0E0,0E0,0E0,0E0,0E0,0E0,0E0,0E0,0E0,0E0,0E0,0E0,0E0,0E0,0E0,0E0,0E0,0E0,0E0,0E0,0E0,0E0],"parents":[2147483647,0,0,1,1,2,2,3,3,4,4,5,5,6,6,7,7,8,8,9,9,10,10,11,11,12,12,13,13,14,14,15,15,16,16,17,17,18,18,19,19,20,20,21,21,22,22,23,23,24,24,25,25,26,26,27,27,28,28,29,29,30,30,35,35,36,36,37,37,38,38,41,41,43,43,44,44,45,45,46,46,47,47,48,48,49,49,50,50,51,51,52,52,53,53,54,54],"right_children":[2,4,6,8,10,12,14,16,18,20,22,24,26,28,30,32,34,36,38,40,42,44,46,48,50,52,54,56,58,60,62,-1,-1,-1,-1,64,66,68,70,-1,-1,72,-1,74,76,78,80,82,84,86,88,90,92,94,96,-1,-1,-1,-1,-1,-1,-1,-1,-1,-1,-1,-1,-1,-1,-1,-1,-1,-1,-1,-1,-1,-1,-1,-1,-1,-1,-1,-1,-1,-1,-1,-1,-1,-1,-1,-1,-1,-1,-1,-1,-1,-1],"split_conditions":[5.101707E-1,2.5576812E-1,7.97312E-1,1.3294588E-1,3.4126407E-1,6.078659E-1,9.040823E-1,7.664366E-2,1.909013E-1,2.9059207E-1,4.1320944E-1,5.6647295E-1,6.5018255E-1,8.5330236E-1,9.461199E-1,4.08231E-2,9.9164546E-2,1.6610925E-1,2.1796523E-1,2.7265692E-1,3.1729174E-1,3.7063634E-1,4.4823828E-1,5.4013157E-1,5.873121E-1,6.3020223E-1,7.97312E-1,8.254631E-1,8.7587124E-1,9.266512E-1,9.7178894E-1,-1.1320492E-2,-1.0600604E-2,-9.8960595E-3,-9.168876E-3,1.5331404E-1,1.7811705E-1,2.0499709E-1,2.3606783E-1,-5.550732E-3,-5.1034316E-3,1.7790262E-1,-4.00312E-3,3.5422945E-1,3.9064056E-1,4.3697783E-1,4.423273E-1,5.3169596E-1,5.545728E-1,5.7189053E-1,5.994026E-1,6.19016E-1,6.3966584E-1,6.783936E-1,3.8967896E-4,7.838898E-3,8.4378E-3,9.042465E-3,9.619112E-3,1.0262415E-2,1.0860819E-2,1.1397175E-2,1.1943181E-2,-8.458086E-3,-8.090175E-3,-7.770002E-3,-7.429735E-3,-7.146424E-3,-6.7922077E-3,-6.42002E-3,-5.972988E-3,-4.606197E-3,-2.5417034E-3,-3.493384E-3,-3.0744493E-3,-2.7164926E-3,-2.275238E-3,-1.6311184E-3,-1.1522867E-3,-7.802988E-4,2.9421793E-4,6.5170234E-4,1.1121173E-3,1.3679255E-3,1.6708283E-3,1.9353168E-3,2.1857033E-3,2.4720451E-3,2.740141E-3,3.0216465E-3,3.2680996E-3,3.4796584E-3,3.7128942E-3,4.083328E-3,4.996216E-3,1.5618801E-3,7.223998E-3],"split_indices":[473,473,473,473,473,475,475,473,478,473,467,473,475,475,475,475,473,473,478,478,475,475,473,473,475,478,353,473,467,475,475,0,0,0,0,473,475,478,473,0,0,410,0,475,475,473,11,467,478,478,475,475,473,403,37,0,0,0,0,0,0,0,0,0,0,0,0,0,0,0,0,0,0,0,0,0,0,0,0,0,0,0,0,0,0,0,0,0,0,0,0,0,0,0,0,0,0],"split_type":[0,0,0,0,0,0,0,0,0,0,0,0,0,0,0,0,0,0,0,0,0,0,0,0,0,0,0,0,0,0,0,0,0,0,0,0,0,0,0,0,0,0,0,0,0,0,0,0,0,0,0,0,0,0,0,0,0,0,0,0,0,0,0,0,0,0,0,0,0,0,0,0,0,0,0,0,0,0,0,0,0,0,0,0,0,0,0,0,0,0,0,0,0,0,0,0,0],"sum_hessian":[4.3195E4,2.3107E4,2.0088E4,1.6053E4,7.054E3,7.095E3,1.2993E4,3.411E3,1.2642E4,2.516E3,4.538E3,4.512E3,2.583E3,5.9E3,7.093E3,1.176E3,2.235E3,7.065E3,5.577E3,9.88E2,1.528E3,3.689E3,8.49E2,1.272E3,3.24E3,1.824E3,7.59E2,2.488E3,3.412E3,2.396E3,4.697E3,5.92E2,5.84E2,7.44E2,1.491E3,2.853E3,4.212E3,3.384E3,2.193E3,5.8E2,4.08E2,7.95E2,7.33E2,2.194E3,1.495E3,6.92E2,1.57E2,5.18E2,7.54E2,1.74E3,1.5E3,8.43E2,9.81E2,7.4E2,1.9E1,9.16E2,1.572E3,2.378E3,1.034E3,6.49E2,1.747E3,2.603E3,2.094E3,1.332E3,1.521E3,2.356E3,1.856E3,1.465E3,1.919E3,1.158E3,1.035E3,7.81E2,1.4E1,8.58E2,1.336E3,1.09E3,4.05E2,4.37E2,2.55E2,7.8E1,7.9E1,3.03E2,2.15E2,2.93E2,4.61E2,7.4E2,1E3,9.6E2,5.4E2,3.25E2,5.18E2,4.61E2,5.2E2,7.01E2,3.9E1,1E0,1.8E1],"tree_param":{"num_deleted":"0","num_feature":"480","num_nodes":"97","size_leaf_vector":"1"}},{"base_weights":[2.7766856E-4,-1.239368E-1,1.4252634E-1,-1.498602E-1,-6.467196E-2,4.9522456E-2,1.9367467E-1,-1.8899032E-1,-1.3952518E-1,-8.997732E-2,-5.0502792E-2,3.829199E-2,6.921299E-2,1.6724399E-1,2.1531E-1,-1.052694E-2,-1.8014294E-1,-1.4973801E-1,-1.2651883E-1,-1.0085482E-1,-8.079006E-2,-5.74321E-2,-2.6268968E-2,2.418051E-2,4.381605E-2,6.536969E-2,8.208669E-2,1.531131E-1,1.7343096E-1,2.056471E-1,2.2250083E-1,-9.481992E-3,-8.72509E-3,-1.5697186E-1,-1.4485756E-1,-1.3165611E-1,-1.1754084E-1,-5.2699735E-3,-4.8119137E-3,-4.285424E-3,-3.7955516E-3,-6.3232124E-2,-5.2114137E-2,-3.0317845E-2,-4.7722766E-3,1.6100515E-2,2.9394155E-2,3.9526246E-2,4.887087E-2,6.053417E-2,6.938808E-2,8.0004506E-2,1.3489246E-1,7.13329E-3,7.7458248E-3,8.3754E-3,1.7908038E-1,9.894114E-3,1.0467402E-2,1.0958527E-2,1.1443352E-2,-8.030839E-3,-7.6852203E-3,-7.3828185E-3,-7.056486E-3,-6.7286748E-3,-6.3818614E-3,-6.073793E-3,-5.671188E-3,-3.3191242E-3,-2.9898433E-3,-2.7408774E-3,-2.4074072E-3,-1.859821E-3,-1.2785625E-3,-7.599301E-4,2.4210008E-4,4.964011E-4,9.657638E-4,1.2865497E-3,1.581969E-3,1.8577777E-3,2.098036E-3,2.3522747E-3,2.6030892E-3,2.8940681E-3,3.125266E-3,3.3102972E-3,3.5566338E-3,3.941712E-3,4.6799113E-3,1.5228331E-3,6.9295713E-3,8.847497E-3,9.37345E-3],"categories":[],"categories_nodes":[],"categories_segments":[],"categories_sizes":[],"default_left":[0,0,0,0,0,0,0,0,0,0,0,0,0,0,0,0,0,0,0,0,0,0,0,0,0,0,0,0,0,0,0,0,0,0,0,0,0,0,0,0,0,0,0,0,0,0,0,0,0,0,0,0,0,0,0,0,0,0,0,0,0,0,0,0,0,0,0,0,0,0,0,0,0,0,0,0,0,0,0,0,0,0,0,0,0,0,0,0,0,0,0,0,0,0,0],"id":15,"left_children":[1,3,5,7,9,11,13,15,17,19,21,23,25,27,29,-1,31,33,35,37,39,41,43,45,47,49,51,53,55,57,59,-1,-1,61,63,65,67,-1,-1,-1,-1,69,71,73,75,77,79,81,83,85,87,89,91,-1,-1,-1,93,-1,-1,-1,-1,-1,-1,-1,-1,-1,-1,-1,-1,-1,-1,-1,-1,-1,-1,-1,-1,-1,-1,-1,-1,-1,-1,-1,-1,-1,-1,-1,-1,-1,-1,-1,-1,-1,-1],"loss_changes":[7.625912E2,3.5387726E1,9.569632E1,6.4555664E0,2.5100098E0,1.5762444E0,7.3864136E0,5.999756E-1,1.6657562E0,2.4328613E-1,7.5381184E-1,3.5354662E-1,1.2287998E-1,4.846344E-1,4.499817E-1,0E0,9.436035E-2,2.2787476E-1,2.4211884E-1,1.3941765E-2,2.6346207E-2,1.04566574E-1,8.706683E-2,5.35326E-2,6.893253E-2,3.4680367E-2,5.4299355E-2,1.1604309E-2,1.058197E-1,4.6432495E-2,3.630066E-2,0E0,0E0,9.231567E-3,2.3521423E-2,2.4375916E-2,1.9304276E-2,0E0,0E0,0E0,0E0,1.4082432E-2,1.6981602E-2,2.6572585E-2,1.6112247E-2,9.829E-3,5.5845976E-3,8.673668E-3,6.264448E-3,1.1720657E-3,1.3198853E-3,1.7206669E-3,3.891319E-3,0E0,0E0,0E0,3.7002563E-3,0E0,0E0,0E0,0E0,0E0,0E0,0E0,0E0,0E0,0E0,0E0,0E0,0E0,0E0,0E0,0E0,0E0,0E0,0E0,0E0,0E0,0E0,0E0,0E0,0E0,0E0,0E0,0E0,0E0,0E0,0E0,0E0,0E0,0E0,0E0,0E0,0E0,0E0],"parents":[2147483647,0,0,1,1,2,2,3,3,4,4,5,5,6,6,7,7,8,8,9,9,10,10,11,11,12,12,13,13,14,14,16,16,17,17,18,18,19,19,20,20,21,21,22,22,23,23,24,24,25,25,26,26,27,27,28,28,29,29,30,30,33,33,34,34,35,35,36,36,41,41,42,42,43,43,44,44,45,45,46,46,47,47,48,48,49,49,50,50,51,51,52,52,56,56],"right_children":[2,4,6,8,10,12,14,16,18,20,22,24,26,28,30,-1,32,34,36,38,40,42,44,46,48,50,52,54,56,58,60,-1,-1,62,64,66,68,-1,-1,-1,-1,70,72,74,76,78,80,82,84,86,88,90,92,-1,-1,-1,94,-1,-1,-1,-1,-1,-1,-1,-1,-1,-1,-1,-1,-1,-1,-1,-1,-1,-1,-1,-1,-1,-1,-1,-1,-1,-1,-1,-1,-1,-1,-1,-1,-1,-1,-1,-1,-1,-1],"split_conditions":[5.0912714E-1,2.5576812E-1,7.97312E-1,1.3109857E-1,3.4126407E-1,6.0688543E-1,9.040823E-1,5.8400817E-2,1.909013E-1,2.9521018E-1,3.975663E-1,5.658495E-1,6.558248E-1,8.377327E-1,9.549582E-1,-1.052694E-2,9.563321E-2,1.6610925E-1,2.2302942E-1,2.7265692E-1,3.1776348E-1,3.6753845E-1,4.4823828E-1,5.4047704E-1,5.8811814E-1,6.340356E-1,7.97312E-1,8.1380683E-1,8.6487466E-1,9.322934E-1,9.774311E-1,-9.481992E-3,-8.72509E-3,1.5366744E-1,1.7811705E-1,2.0928358E-1,2.3683217E-1,-5.2699735E-3,-4.8119137E-3,-4.285424E-3,-3.7955516E-3,3.5422945E-1,3.7935612E-1,4.2089012E-1,4.4230804E-1,5.2143115E-1,5.5426484E-1,5.7712615E-1,5.994026E-1,6.222327E-1,6.3966584E-1,6.783936E-1,1.3276836E-1,7.13329E-3,7.7458248E-3,8.3754E-3,8.8715565E-1,9.894114E-3,1.0467402E-2,1.0958527E-2,1.1443352E-2,-8.030839E-3,-7.6852203E-3,-7.3828185E-3,-7.056486E-3,-6.7286748E-3,-6.3818614E-3,-6.073793E-3,-5.671188E-3,-3.3191242E-3,-2.9898433E-3,-2.7408774E-3,-2.4074072E-3,-1.859821E-3,-1.2785625E-3,-7.599301E-4,2.4210008E-4,4.964011E-4,9.657638E-4,1.2865497E-3,1.581969E-3,1.8577777E-3,2.098036E-3,2.3522747E-3,2.6030892E-3,2.8940681E-3,3.125266E-3,3.3102972E-3,3.5566338E-3,3.941712E-3,4.6799113E-3,1.5228331E-3,6.9295713E-3,8.847497E-3,9.37345E-3],"split_indices":[475,473,473,475,473,473,475,478,478,478,465,478,475,475,465,0,475,473,473,478,478,473,441,478,475,473,361,435,473,475,475,0,0,475,475,475,475,0,0,0,0,475,475,478,3,425,475,478,475,478,473,467,32,0,0,0,475,0,0,0,0,0,0,0,0,0,0,0,0,0,0,0,0,0,0,0,0,0,0,0,0,0,0,0,0,0,0,0,0,0,0,0,0,0,0],"split_type":[0,0,0,0,0,0,0,0,0,0,0,0,0,0,0,0,0,0,0,0,0,0,0,0,0,0,0,0,0,0,0,0,0,0,0,0,0,0,0,0,0,0,0,0,0,0,0,0,0,0,0,0,0,0,0,0,0,0,0,0,0,0,0,0,0,0,0,0,0,0,0,0,0,0,0,0,0,0,0,0,0,0,0,0,0,0,0,0,0,0,0,0,0,0,0],"sum_hessian":[4.3157E4,2.3039E4,2.0118E4,1.6027E4,7.012E3,7.139E3,1.2979E4,3.345E3,1.2682E4,2.515E3,4.497E3,4.548E3,2.591E3,5.846E3,7.133E3,9.67E2,2.378E3,7.098E3,5.584E3,1.147E3,1.368E3,3.496E3,1.001E3,1.281E3,3.267E3,2E3,5.91E2,1.788E3,4.058E3,3.056E3,4.077E3,8.74E2,1.504E3,2.847E3,4.251E3,3.543E3,2.041E3,5.67E2,5.8E2,6.73E2,6.95E2,1.667E3,1.829E3,8.42E2,1.59E2,5.04E2,7.77E2,1.772E3,1.495E3,9.15E2,1.085E3,5.71E2,2E1,2.75E2,1.513E3,1.996E3,2.062E3,1.004E3,2.052E3,2.7E3,1.377E3,1.323E3,1.524E3,2.406E3,1.845E3,2.034E3,1.509E3,1.029E3,1.012E3,8.6E2,8.07E2,1.08E3,7.49E2,3.41E2,5.01E2,7.6E1,8.3E1,1.74E2,3.3E2,3E2,4.77E2,9.06E2,8.66E2,9.61E2,5.34E2,4.03E2,5.12E2,3.98E2,6.87E2,5.32E2,3.9E1,1E0,1.9E1,1.662E3,4E2],"tree_param":{"num_deleted":"0","num_feature":"480","num_nodes":"95","size_leaf_vector":"1"}},{"base_weights":[3.6789707E-4,-1.1648988E-1,1.3665792E-1,-1.4101614E-1,-5.5911817E-2,4.7874313E-2,1.8422103E-1,-1.7437197E-1,-1.2953615E-1,-6.4652555E-2,-2.3645794E-2,3.736972E-2,6.577527E-2,1.5963553E-1,2.0510855E-1,-1.9303434E-1,-1.6289046E-1,-1.3866465E-1,-1.1532263E-1,-8.206019E-2,-5.5940237E-2,-3.1788673E-2,2.6060806E-3,2.6547428E-2,4.2367157E-2,6.1417416E-2,7.6251E-2,1.5059634E-1,1.6935459E-1,1.9753814E-1,2.1288553E-1,-1.0019426E-2,-9.083088E-3,-1.6855195E-1,-7.761627E-3,-1.4442721E-1,-1.3312183E-1,-1.2027867E-1,-1.0519462E-1,-8.794392E-2,-7.541924E-2,-6.257428E-2,-5.1768854E-2,-4.0896963E-2,-2.6150024E-2,-1.4518579E-2,7.865183E-3,2.0003375E-2,3.0346295E-2,3.8339894E-2,4.651072E-2,5.7273697E-2,6.496506E-2,7.471826E-2,1.2846011E-1,1.446532E-1,7.8440225E-3,8.337705E-3,8.956618E-3,9.635823E-3,1.0138395E-2,1.0542755E-2,1.1074771E-2,-8.429983E-3,-2.4299212E-3,-7.3670284E-3,-7.075255E-3,-6.8131685E-3,-6.5311887E-3,-6.139274E-3,-5.791698E-3,-5.3955186E-3,-5.019162E-3,-1.1219416E-3,-4.424576E-3,-3.8778689E-3,-3.5806973E-3,-3.265767E-3,-2.980708E-3,-2.7155282E-3,-2.4288814E-3,-2.1109874E-3,-1.6887201E-3,-1.471748E-3,-1.0356912E-3,-6.099559E-4,-9.088485E-4,-9.427418E-4,4.0726978E-4,7.461192E-4,1.0794369E-3,1.3630621E-3,1.6091174E-3,1.8405135E-3,2.0537416E-3,2.237487E-3,2.4736328E-3,2.8652723E-3,7.6043606E-4,3.127483E-3,3.3426643E-3,3.5936073E-3,3.9828774E-3,6.7754327E-3,2.1674396E-3,6.51137E-3,7.287121E-3],"categories":[],"categories_nodes":[],"categories_segments":[],"categories_sizes":[],"default_left":[0,0,0,0,0,0,0,0,0,0,0,0,0,0,0,0,0,0,0,0,0,0,0,0,0,0,0,0,0,0,0,0,0,0,0,0,0,0,0,0,0,0,0,0,0,0,0,0,0,0,0,0,0,0,0,0,0,0,0,0,0,0,0,0,0,0,0,0,0,0,0,0,0,0,0,0,0,0,0,0,0,0,0,0,0,0,0,0,0,0,0,0,0,0,0,0,0,0,0,0,0,0,0,0,0,0,0],"id":16,"left_children":[1,3,5,7,9,11,13,15,17,19,21,23,25,27,29,31,33,35,37,39,41,43,45,47,49,51,53,55,57,59,61,-1,-1,63,-1,65,67,69,71,73,75,77,79,81,83,85,87,89,91,93,95,97,99,101,103,105,-1,-1,-1,-1,-1,-1,-1,-1,-1,-1,-1,-1,-1,-1,-1,-1,-1,-1,-1,-1,-1,-1,-1,-1,-1,-1,-1,-1,-1,-1,-1,-1,-1,-1,-1,-1,-1,-1,-1,-1,-1,-1,-1,-1,-1,-1,-1,-1,-1,-1,-1],"loss_changes":[6.867528E2,3.4483856E1,8.404648E1,6.30484E0,1.885807E0,1.3034964E0,6.623169E0,8.7449646E-1,1.5795288E0,7.9390335E-1,3.053406E-1,2.3570776E-1,1.1250591E-1,4.979248E-1,3.7026978E-1,9.7839355E-2,8.760071E-2,2.197876E-1,2.290268E-1,6.1901093E-2,9.3948364E-2,5.4911256E-2,3.0644648E-2,3.384888E-2,4.8178673E-2,2.3004532E-2,5.0418377E-2,9.2941284E-2,4.2922974E-2,5.076599E-2,1.34887695E-2,0E0,0E0,3.7002563E-4,0E0,1.0284424E-2,1.2229919E-2,2.17247E-2,9.943008E-3,3.1158924E-2,1.2073517E-3,7.068157E-3,1.4897823E-2,2.483964E-3,1.1462063E-2,4.5709498E-4,2.100274E-3,3.8020909E-3,4.079044E-3,4.8635006E-3,5.458832E-3,2.5963783E-4,2.5129318E-4,4.5514107E-3,6.1240494E-3,6.2217712E-3,0E0,0E0,0E0,0E0,0E0,0E0,0E0,0E0,0E0,0E0,0E0,0E0,0E0,0E0,0E0,0E0,0E0,0E0,0E0,0E0,0E0,0E0,0E0,0E0,0E0,0E0,0E0,0E0,0E0,0E0,0E0,0E0,0E0,0E0,0E0,0E0,0E0,0E0,0E0,0E0,0E0,0E0,0E0,0E0,0E0,0E0,0E0,0E0,0E0,0E0,0E0],"parents":[2147483647,0,0,1,1,2,2,3,3,4,4,5,5,6,6,7,7,8,8,9,9,10,10,11,11,12,12,13,13,14,14,15,15,16,16,17,17,18,18,19,19,20,20,21,21,22,22,23,23,24,24,25,25,26,26,27,27,28,28,29,29,30,30,33,33,35,35,36,36,37,37,38,38,39,39,40,40,41,41,42,42,43,43,44,44,45,45,46,46,47,47,48,48,49,49,50,50,51,51,52,52,53,53,54,54,55,55],"right_children":[2,4,6,8,10,12,14,16,18,20,22,24,26,28,30,32,34,36,38,40,42,44,46,48,50,52,54,56,58,60,62,-1,-1,64,-1,66,68,70,72,74,76,78,80,82,84,86,88,90,92,94,96,98,100,102,104,106,-1,-1,-1,-1,-1,-1,-1,-1,-1,-1,-1,-1,-1,-1,-1,-1,-1,-1,-1,-1,-1,-1,-1,-1,-1,-1,-1,-1,-1,-1,-1,-1,-1,-1,-1,-1,-1,-1,-1,-1,-1,-1,-1,-1,-1,-1,-1,-1,-1,-1,-1],"split_conditions":[5.2041155E-1,2.72154E-1,7.97312E-1,1.4802523E-1,3.9064056E-1,6.0688543E-1,9.1536677E-1,9.353433E-2,2.0217794E-1,3.3421838E-1,4.474448E-1,5.699469E-1,6.5042424E-1,8.555557E-1,9.6058846E-1,5.7749752E-2,1.2545636E-1,1.7606896E-1,2.3606783E-1,3.0648682E-1,3.6231622E-1,4.1361487E-1,4.4461885E-1,5.4418224E-1,5.8899385E-1,6.3020223E-1,7.97312E-1,8.311525E-1,8.8715565E-1,9.425035E-1,9.8307335E-1,-1.0019426E-2,-9.083088E-3,1.7228465E-1,-7.761627E-3,1.6176909E-1,1.8745567E-1,2.1796523E-1,2.5522736E-1,1.1299435E-2,3.2340178E-1,3.4868574E-1,3.7504542E-1,4.1287345E-1,4.3697783E-1,5.181024E-2,4.4823828E-1,5.326916E-1,5.599071E-1,5.771984E-1,5.994026E-1,8.556787E-1,6.3889813E-1,6.621867E-1,8.1012565E-1,8.0265886E-1,7.8440225E-3,8.337705E-3,8.956618E-3,9.635823E-3,1.0138395E-2,1.0542755E-2,1.1074771E-2,-8.429983E-3,-2.4299212E-3,-7.3670284E-3,-7.075255E-3,-6.8131685E-3,-6.5311887E-3,-6.139274E-3,-5.791698E-3,-5.3955186E-3,-5.019162E-3,-1.1219416E-3,-4.424576E-3,-3.8778689E-3,-3.5806973E-3,-3.265767E-3,-2.980708E-3,-2.7155282E-3,-2.4288814E-3,-2.1109874E-3,-1.6887201E-3,-1.471748E-3,-1.0356912E-3,-6.099559E-4,-9.088485E-4,-9.427418E-4,4.0726978E-4,7.461192E-4,1.0794369E-3,1.3630621E-3,1.6091174E-3,1.8405135E-3,2.0537416E-3,2.237487E-3,2.4736328E-3,2.8652723E-3,7.6043606E-4,3.127483E-3,3.3426643E-3,3.5936073E-3,3.9828774E-3,6.7754327E-3,2.1674396E-3,6.51137E-3,7.287121E-3],"split_indices":[475,475,473,475,467,473,475,473,478,467,438,473,478,473,473,475,475,478,473,478,473,478,9,478,473,478,353,478,475,473,475,0,0,346,0,475,478,478,475,384,478,473,473,385,473,18,465,457,475,478,