{"learner":{"attributes":{"best_iteration":"287","best_score":"0.06539429628846603","scikit_learn":"{\"_estimator_type\": \"regressor\"}"},"feature_names":[],"feature_types":[],"gradient_booster":{"model":{"gbtree_model_param":{"num_parallel_tree":"1","num_trees":"300"},"iteration_indptr":[0,1,2,3,4,5,6,7,8,9,10,11,12,13,14,15,16,17,18,19,20,21,22,23,24,25,26,27,28,29,30,31,32,33,34,35,36,37,38,39,40,41,42,43,44,45,46,47,48,49,50,51,52,53,54,55,56,57,58,59,60,61,62,63,64,65,66,67,68,69,70,71,72,73,74,75,76,77,78,79,80,81,82,83,84,85,86,87,88,89,90,91,92,93,94,95,96,97,98,99,100,101,102,103,104,105,106,107,108,109,110,111,112,113,114,115,116,117,118,119,120,121,122,123,124,125,126,127,128,129,130,131,132,133,134,135,136,137,138,139,140,141,142,143,144,145,146,147,148,149,150,151,152,153,154,155,156,157,158,159,160,161,162,163,164,165,166,167,168,169,170,171,172,173,174,175,176,177,178,179,180,181,182,183,184,185,186,187,188,189,190,191,192,193,194,195,196,197,198,199,200,201,202,203,204,205,206,207,208,209,210,211,212,213,214,215,216,217,218,219,220,221,222,223,224,225,226,227,228,229,230,231,232,233,234,235,236,237,238,239,240,241,242,243,244,245,246,247,248,249,250,251,252,253,254,255,256,257,258,259,260,261,262,263,264,265,266,267,268,269,270,271,272,273,274,275,276,277,278,279,280,281,282,283,284,285,286,287,288,289,290,291,292,293,294,295,296,297,298,299,300],"tree_info":[0,0,0,0,0,0,0,0,0,0,0,0,0,0,0,0,0,0,0,0,0,0,0,0,0,0,0,0,0,0,0,0,0,0,0,0,0,0,0,0,0,0,0,0,0,0,0,0,0,0,0,0,0,0,0,0,0,0,0,0,0,0,0,0,0,0,0,0,0,0,0,0,0,0,0,0,0,0,0,0,0,0,0,0,0,0,0,0,0,0,0,0,0,0,0,0,0,0,0,0,0,0,0,0,0,0,0,0,0,0,0,0,0,0,0,0,0,0,0,0,0,0,0,0,0,0,0,0,0,0,0,0,0,0,0,0,0,0,0,0,0,0,0,0,0,0,0,0,0,0,0,0,0,0,0,0,0,0,0,0,0,0,0,0,0,0,0,0,0,0,0,0,0,0,0,0,0,0,0,0,0,0,0,0,0,0,0,0,0,0,0,0,0,0,0,0,0,0,0,0,0,0,0,0,0,0,0,0,0,0,0,0,0,0,0,0,0,0,0,0,0,0,0,0,0,0,0,0,0,0,0,0,0,0,0,0,0,0,0,0,0,0,0,0,0,0,0,0,0,0,0,0,0,0,0,0,0,0,0,0,0,0,0,0,0,0,0,0,0,0,0,0,0,0,0,0,0,0,0,0,0,0,0,0,0,0,0,0,0,0,0,0,0,0,0,0,0,0,0,0],"trees":[{"base_weights":[-2.2418205E-4,-1.15080945E-1,4.6251553E-1,-2.0111193E-1,-5.1953443E-3,2.9724237E-1,5.4377586E-1,-2.374753E-1,-1.4468047E-1,-5.9248034E-2,8.9025974E-2,2.8329474E-1,3.1281835E-1,5.245947E-1,5.8993465E-1,-2.9964548E-1,-2.2476763E-1,-1.7125708E-1,-1.2493443E-1,-7.159555E-2,-2.1964425E-2,4.73498E-2,1.1290714E-1,1.3671597E-2,1.4553313E-2,1.548862E-2,2.2940809E-2,5.100587E-1,2.67307E-2,2.8386204E-2,3.0180698E-2,-3.3557454E-1,-1.3665489E-2,-2.4233814E-1,-2.0953071E-1,-1.8177822E-1,-1.5922008E-1,-1.3652791E-1,-1.1352122E-1,-8.391239E-2,-6.065427E-2,-3.4898035E-2,-4.4399793E-3,3.29095E-2,6.728802E-2,1.1143606E-1,2.4442372E-1,2.5509974E-2,6.84061E-3,-1.779678E-2,-1.603883E-2,-1.2590751E-2,-1.17265405E-2,-1.0854714E-2,-1.0012965E-2,-9.2810495E-3,-8.786615E-3,-8.189773E-3,-7.667278E-3,-7.097068E-3,-6.498015E-3,-5.9374995E-3,-5.3669754E-3,-4.6955002E-3,-3.8604734E-3,-3.406098E-3,-2.7442153E-3,-2.1248762E-3,-1.3545839E-3,-5.3402036E-4,3.785407E-4,1.158933E-3,2.0302448E-3,2.9286763E-3,3.654837E-3,4.8851147E-3,6.1091096E-3,5.0875186E-3,1.2687285E-2],"categories":[],"categories_nodes":[],"categories_segments":[],"categories_sizes":[],"default_left":[0,0,0,0,0,0,0,0,0,0,0,0,0,0,0,0,0,0,0,0,0,0,0,0,0,0,0,0,0,0,0,0,0,0,0,0,0,0,0,0,0,0,0,0,0,0,0,0,0,0,0,0,0,0,0,0,0,0,0,0,0,0,0,0,0,0,0,0,0,0,0,0,0,0,0,0,0,0,0],"id":0,"left_children":[1,3,5,7,9,11,13,15,17,19,21,23,25,27,29,31,33,35,37,39,41,43,45,-1,-1,-1,-1,47,-1,-1,-1,49,-1,51,53,55,57,59,61,63,65,67,69,71,73,75,77,-1,-1,-1,-1,-1,-1,-1,-1,-1,-1,-1,-1,-1,-1,-1,-1,-1,-1,-1,-1,-1,-1,-1,-1,-1,-1,-1,-1,-1,-1,-1,-1],"loss_changes":[2.2889587E3,3.2617532E2,1.1485425E2,3.9676758E1,7.7173134E1,5.251007E-1,4.772461E0,9.229004E0,3.95961E0,4.4312325E0,5.4925575E0,3.5461426E-2,4.4709778E-1,3.1921387E-1,1.6687012E-1,1.795044E0,2.565918E0,3.802414E-1,5.6088257E-1,9.6964264E-1,5.431355E-1,5.7764435E-1,6.520424E-1,0E0,0E0,0E0,0E0,1.8493652E-2,0E0,0E0,0E0,1.3861847E-1,0E0,2.7633667E-1,3.241272E-1,7.2669983E-3,1.5602112E-2,5.8208466E-2,5.839348E-2,2.205944E-1,1.6146183E-1,8.0656886E-2,7.645744E-2,8.667147E-2,3.849244E-2,5.0077057E-1,2.4721384E-2,0E0,0E0,0E0,0E0,0E0,0E0,0E0,0E0,0E0,0E0,0E0,0E0,0E0,0E0,0E0,0E0,0E0,0E0,0E0,0E0,0E0,0E0,0E0,0E0,0E0,0E0,0E0,0E0,0E0,0E0,0E0,0E0],"parents":[2147483647,0,0,1,1,2,2,3,3,4,4,5,5,6,6,7,7,8,8,9,9,10,10,11,11,12,12,13,13,14,14,15,15,16,16,17,17,18,18,19,19,20,20,21,21,22,22,27,27,31,31,33,33,34,34,35,35,36,36,37,37,38,38,39,39,40,40,41,41,42,42,43,43,44,44,45,45,46,46],"right_children":[2,4,6,8,10,12,14,16,18,20,22,24,26,28,30,32,34,36,38,40,42,44,46,-1,-1,-1,-1,48,-1,-1,-1,50,-1,52,54,56,58,60,62,64,66,68,70,72,74,76,78,-1,-1,-1,-1,-1,-1,-1,-1,-1,-1,-1,-1,-1,-1,-1,-1,-1,-1,-1,-1,-1,-1,-1,-1,-1,-1,-1,-1,-1,-1,-1,-1],"split_conditions":[6.268173E-1,2.6806417E-1,8.58335E-1,1.8023188E-1,3.8551548E-1,6.6965294E-1,9.268476E-1,1.09726176E-1,2.225215E-1,3.2544795E-1,4.5447233E-1,6.545263E-1,8.593823E-1,8.9379996E-1,9.596557E-1,7.065063E-2,1.4565904E-1,2.0183411E-1,2.4698442E-1,2.996838E-1,3.529453E-1,4.2200118E-1,5.1112586E-1,1.3671597E-2,1.4553313E-2,1.548862E-2,2.2940809E-2,9.147647E-1,2.67307E-2,2.8386204E-2,3.0180698E-2,2.883292E-2,-1.3665489E-2,1.283212E-1,1.6317777E-1,1.9109482E-1,2.1341297E-1,2.362796E-1,2.5910318E-1,2.8649044E-1,3.095173E-1,3.359878E-1,3.7229183E-1,4.0391147E-1,4.3787327E-1,4.8120388E-1,5.124557E-1,2.5509974E-2,6.84061E-3,-1.779678E-2,-1.603883E-2,-1.2590751E-2,-1.17265405E-2,-1.0854714E-2,-1.0012965E-2,-9.2810495E-3,-8.786615E-3,-8.189773E-3,-7.667278E-3,-7.097068E-3,-6.498015E-3,-5.9374995E-3,-5.3669754E-3,-4.6955002E-3,-3.8604734E-3,-3.406098E-3,-2.7442153E-3,-2.1248762E-3,-1.3545839E-3,-5.3402036E-4,3.785407E-4,1.158933E-3,2.0302448E-3,2.9286763E-3,3.654837E-3,4.8851147E-3,6.1091096E-3,5.0875186E-3,1.2687285E-2],"split_indices":[475,475,467,475,475,475,475,475,475,475,475,475,1,475,475,475,475,475,475,475,475,475,11,0,0,0,0,369,0,0,0,475,0,475,475,475,475,475,475,475,475,475,475,475,475,475,33,0,0,0,0,0,0,0,0,0,0,0,0,0,0,0,0,0,0,0,0,0,0,0,0,0,0,0,0,0,0,0,0],"split_type":[0,0,0,0,0,0,0,0,0,0,0,0,0,0,0,0,0,0,0,0,0,0,0,0,0,0,0,0,0,0,0,0,0,0,0,0,0,0,0,0,0,0,0,0,0,0,0,0,0,0,0,0,0,0,0,0,0,0,0,0,0,0,0,0,0,0,0,0,0,0,0,0,0,0,0,0,0,0,0],"sum_hessian":[4.3065E4,3.4502E4,8.563E3,1.9351E4,1.5151E4,2.824E3,5.739E3,1.1766E4,7.585E3,9.628E3,5.523E3,1.5E3,1.324E3,4.063E3,1.676E3,1.993E3,9.773E3,3.23E3,4.355E3,7.232E3,2.396E3,2.013E3,3.51E3,6.77E2,8.23E2,1.3E3,2.4E1,1.679E3,2.384E3,6.55E2,1.021E3,8.38E2,1.155E3,4.532E3,5.241E3,1.716E3,1.514E3,2.155E3,2.2E3,3.399E3,3.833E3,1.378E3,1.018E3,1.169E3,8.44E2,3.473E3,3.7E1,1.678E3,1E0,3.43E2,4.95E2,2.033E3,2.499E3,2.874E3,2.367E3,1.031E3,6.85E2,8.36E2,6.78E2,1.17E3,9.85E2,1.182E3,1.018E3,1.359E3,2.04E3,1.666E3,2.167E3,6.96E2,6.82E2,6.7E2,3.48E2,5.18E2,6.51E2,3.42E2,5.02E2,1.529E3,1.944E3,3E0,3.4E1],"tree_param":{"num_deleted":"0","num_feature":"480","num_nodes":"79","size_leaf_vector":"1"}},{"base_weights":[-1.0045685E-3,-1.09711945E-1,4.3755615E-1,-1.9140783E-1,-4.460733E-3,2.8208536E-1,5.1651055E-1,-2.2592652E-1,-1.3735737E-1,-5.639713E-2,8.433245E-2,1.328516E-2,2.9336637E-1,4.9839824E-1,5.6013125E-1,-2.7687344E-1,-2.1181166E-1,-1.6150536E-1,-1.17759384E-1,-6.840775E-2,-2.2423752E-2,4.2375557E-2,1.05684385E-1,2.9166332E-1,2.1461558E-2,2.4339331E-2,2.549358E-2,2.6967898E-2,2.867782E-2,-3.1867594E-1,-2.5568938E-1,-2.2594933E-1,-1.969417E-1,-1.7264284E-1,-1.5028623E-1,-1.2867105E-1,-1.0766091E-1,-8.206713E-2,-5.9953112E-2,-3.619882E-2,-6.5939273E-3,2.9184341E-2,5.7975814E-2,9.2015475E-2,1.1940711E-1,1.4319839E-2,1.5171672E-2,-1.6578013E-2,-1.4877181E-2,-1.3368863E-2,-1.2525283E-2,-1.1694059E-2,-1.0899804E-2,-1.0143403E-2,-9.411342E-3,-8.815552E-3,-8.346016E-3,-7.783343E-3,-7.231293E-3,-6.6937017E-3,-6.1703967E-3,-5.670653E-3,-5.133887E-3,-4.5040282E-3,-3.7931472E-3,-3.3040785E-3,-2.637684E-3,-2.0604876E-3,-1.4052531E-3,-7.2124385E-4,1.8447537E-4,9.487849E-4,1.7179223E-3,2.4177989E-3,3.2169465E-3,4.043538E-3,4.8190425E-3,5.861228E-3,1.1449471E-2],"categories":[],"categories_nodes":[],"categories_segments":[],"categories_sizes":[],"default_left":[0,0,0,0,0,0,0,0,0,0,0,0,0,0,0,0,0,0,0,0,0,0,0,0,0,0,0,0,0,0,0,0,0,0,0,0,0,0,0,0,0,0,0,0,0,0,0,0,0,0,0,0,0,0,0,0,0,0,0,0,0,0,0,0,0,0,0,0,0,0,0,0,0,0,0,0,0,0,0],"id":1,"left_children":[1,3,5,7,9,11,13,15,17,19,21,-1,23,25,27,29,31,33,35,37,39,41,43,45,-1,-1,-1,-1,-1,47,49,51,53,55,57,59,61,63,65,67,69,71,73,75,77,-1,-1,-1,-1,-1,-1,-1,-1,-1,-1,-1,-1,-1,-1,-1,-1,-1,-1,-1,-1,-1,-1,-1,-1,-1,-1,-1,-1,-1,-1,-1,-1,-1,-1],"loss_changes":[2.0628882E3,2.981553E2,1.05358765E2,3.639215E1,6.988891E1,4.5744324E-1,4.2235107E0,8.507324E0,3.5828857E0,3.9001598E0,5.006073E0,0E0,2.6956177E-1,2.8948975E-1,1.5466309E-1,2.2041168E0,1.9173584E0,3.9978027E-1,4.4950104E-1,8.108635E-1,5.446856E-1,3.868327E-1,6.8416214E-1,1.7730713E-2,0E0,0E0,0E0,0E0,0E0,1.3658905E-1,3.7109375E-2,2.503662E-1,1.971283E-1,6.3171387E-3,2.941513E-2,3.8684845E-2,5.1130295E-2,1.2730217E-1,1.8919373E-1,5.302608E-2,9.378903E-2,5.348909E-2,4.9776077E-2,8.274555E-2,4.1466522E-1,0E0,0E0,0E0,0E0,0E0,0E0,0E0,0E0,0E0,0E0,0E0,0E0,0E0,0E0,0E0,0E0,0E0,0E0,0E0,0E0,0E0,0E0,0E0,0E0,0E0,0E0,0E0,0E0,0E0,0E0,0E0,0E0,0E0,0E0],"parents":[2147483647,0,0,1,1,2,2,3,3,4,4,5,5,6,6,7,7,8,8,9,9,10,10,12,12,13,13,14,14,15,15,16,16,17,17,18,18,19,19,20,20,21,21,22,22,23,23,29,29,30,30,31,31,32,32,33,33,34,34,35,35,36,36,37,37,38,38,39,39,40,40,41,41,42,42,43,43,44,44],"right_children":[2,4,6,8,10,12,14,16,18,20,22,-1,24,26,28,30,32,34,36,38,40,42,44,46,-1,-1,-1,-1,-1,48,50,52,54,56,58,60,62,64,66,68,70,72,74,76,78,-1,-1,-1,-1,-1,-1,-1,-1,-1,-1,-1,-1,-1,-1,-1,-1,-1,-1,-1,-1,-1,-1,-1,-1,-1,-1,-1,-1,-1,-1,-1,-1,-1,-1],"split_conditions":[6.268775E-1,2.6822945E-1,8.584858E-1,1.801994E-1,3.8552988E-1,6.6530013E-1,9.269185E-1,1.14649795E-1,2.2490925E-1,3.2338476E-1,4.4786772E-1,1.328516E-2,8.589731E-1,8.966457E-1,9.598866E-1,7.051625E-2,1.4943875E-1,2.018151E-1,2.471272E-1,2.9675606E-1,3.4846607E-1,4.16493E-1,4.8345143E-1,6.832182E-1,2.1461558E-2,2.4339331E-2,2.549358E-2,2.6967898E-2,2.867782E-2,4.4488296E-2,9.917033E-2,1.3399407E-1,1.6619489E-1,1.9111761E-1,2.1328227E-1,2.3621279E-1,2.575243E-1,2.8423622E-1,3.0959493E-1,3.3577356E-1,3.6526525E-1,3.9722598E-1,4.3125334E-1,4.6480852E-1,5.129221E-1,1.4319839E-2,1.5171672E-2,-1.6578013E-2,-1.4877181E-2,-1.3368863E-2,-1.2525283E-2,-1.1694059E-2,-1.0899804E-2,-1.0143403E-2,-9.411342E-3,-8.815552E-3,-8.346016E-3,-7.783343E-3,-7.231293E-3,-6.6937017E-3,-6.1703967E-3,-5.670653E-3,-5.133887E-3,-4.5040282E-3,-3.7931472E-3,-3.3040785E-3,-2.637684E-3,-2.0604876E-3,-1.4052531E-3,-7.2124385E-4,1.8447537E-4,9.487849E-4,1.7179223E-3,2.4177989E-3,3.2169465E-3,4.043538E-3,4.8190425E-3,5.861228E-3,1.1449471E-2],"split_indices":[470,478,478,478,478,478,470,478,475,478,475,0,3,475,478,478,478,478,478,475,475,475,478,475,0,0,0,0,0,478,478,478,478,478,478,478,475,478,478,478,475,478,478,475,57,0,0,0,0,0,0,0,0,0,0,0,0,0,0,0,0,0,0,0,0,0,0,0,0,0,0,0,0,0,0,0,0,0,0],"split_type":[0,0,0,0,0,0,0,0,0,0,0,0,0,0,0,0,0,0,0,0,0,0,0,0,0,0,0,0,0,0,0,0,0,0,0,0,0,0,0,0,0,0,0,0,0,0,0,0,0,0,0,0,0,0,0,0,0,0,0,0,0,0,0,0,0,0,0,0,0,0,0,0,0,0,0,0,0,0,0],"sum_hessian":[4.3268E4,3.4674E4,8.594E3,1.9521E4,1.5153E4,2.896E3,5.698E3,1.1911E4,7.61E3,9.561E3,5.592E3,1.191E3,1.705E3,4.035E3,1.663E3,2.58E3,9.331E3,3.406E3,4.204E3,7.063E3,2.498E3,1.887E3,3.705E3,1.687E3,1.8E1,2.027E3,2.008E3,6.69E2,9.94E2,8.63E2,1.717E3,4.776E3,4.555E3,1.702E3,1.704E3,2.015E3,2.189E3,2.697E3,4.366E3,1.335E3,1.163E3,1.024E3,8.63E2,1.86E3,1.845E3,1.183E3,5.04E2,5.27E2,3.36E2,5.12E2,1.205E3,2.377E3,2.399E3,2.698E3,1.857E3,1.019E3,6.83E2,8.6E2,8.44E2,1.001E3,1.014E3,1.006E3,1.183E3,1.171E3,1.526E3,2.354E3,2.012E3,8.22E2,5.13E2,6.6E2,5.03E2,3.46E2,6.78E2,3.47E2,5.16E2,5.29E2,1.331E3,1.811E3,3.4E1],"tree_param":{"num_deleted":"0","num_feature":"480","num_nodes":"79","size_leaf_vector":"1"}},{"base_weights":[-3.778868E-5,-1.0368456E-1,4.163199E-1,-1.8072289E-1,-3.4975938E-3,2.68395E-1,4.9088198E-1,-2.1400559E-1,-1.2849148E-1,-5.275641E-2,8.0744945E-2,2.569955E-1,2.842653E-1,4.748653E-1,5.352633E-1,-2.6136902E-1,-2.001681E-1,-1.5138172E-1,-1.10466145E-1,-6.3247934E-2,-1.8057562E-2,4.2884488E-2,1.0231069E-1,1.2323883E-2,1.3192499E-2,1.40481135E-2,2.0849591E-2,2.3210756E-2,2.439904E-2,2.5740696E-2,2.7247315E-2,-3.0253425E-1,-2.4210903E-1,-2.1310502E-1,-1.8551914E-1,-1.619714E-1,-1.406635E-1,-1.20865926E-1,-1.0090011E-1,-7.311223E-2,-5.2084148E-2,-3.0145297E-2,-4.2623607E-3,3.0255001E-2,6.0680784E-2,1.0083887E-1,2.1938778E-1,-1.5764108E-2,-1.4124527E-2,-1.27161145E-2,-1.1856094E-2,-1.1025019E-2,-1.0262305E-2,-9.557391E-3,-8.883099E-3,-8.260267E-3,-7.744424E-3,-7.2889957E-3,-6.7686364E-3,-6.2818187E-3,-5.7813986E-3,-5.313725E-3,-4.805113E-3,-4.1479054E-3,-3.399033E-3,-2.8715024E-3,-2.3312825E-3,-1.7738555E-3,-1.141825E-3,-4.9016846E-4,3.530531E-4,1.0362471E-3,1.8543772E-3,2.6338615E-3,3.2851675E-3,4.4024955E-3,5.5122473E-3,4.909332E-3,1.1465053E-2],"categories":[],"categories_nodes":[],"categories_segments":[],"categories_sizes":[],"default_left":[0,0,0,0,0,0,0,0,0,0,0,0,0,0,0,0,0,0,0,0,0,0,0,0,0,0,0,0,0,0,0,0,0,0,0,0,0,0,0,0,0,0,0,0,0,0,0,0,0,0,0,0,0,0,0,0,0,0,0,0,0,0,0,0,0,0,0,0,0,0,0,0,0,0,0,0,0,0,0],"id":2,"left_children":[1,3,5,7,9,11,13,15,17,19,21,23,25,27,29,31,33,35,37,39,41,43,45,-1,-1,-1,-1,-1,-1,-1,-1,47,49,51,53,55,57,59,61,63,65,67,69,71,73,75,77,-1,-1,-1,-1,-1,-1,-1,-1,-1,-1,-1,-1,-1,-1,-1,-1,-1,-1,-1,-1,-1,-1,-1,-1,-1,-1,-1,-1,-1,-1,-1,-1],"loss_changes":[1.8630503E3,2.6679562E2,9.477783E1,3.3942627E1,6.2361614E1,4.4906616E-1,3.8117676E0,7.769104E0,3.1223755E0,3.451086E0,4.5230446E0,5.68161E-2,4.0760803E-1,3.618164E-1,1.8310547E-2,2.0634613E0,1.7115479E0,3.5733795E-1,4.1160965E-1,7.979965E-1,3.6722773E-1,4.5082712E-1,5.8649445E-1,0E0,0E0,0E0,0E0,0E0,0E0,0E0,0E0,1.2939453E-1,5.1826477E-2,2.3953247E-1,1.5802002E-1,1.2851715E-2,2.5527954E-2,3.6348343E-2,4.7159195E-2,1.8953705E-1,9.708977E-2,4.4939637E-2,6.4694695E-2,7.6066494E-2,3.0104399E-2,4.1012192E-1,2.9150248E-2,0E0,0E0,0E0,0E0,0E0,0E0,0E0,0E0,0E0,0E0,0E0,0E0,0E0,0E0,0E0,0E0,0E0,0E0,0E0,0E0,0E0,0E0,0E0,0E0,0E0,0E0,0E0,0E0,0E0,0E0,0E0,0E0],"parents":[2147483647,0,0,1,1,2,2,3,3,4,4,5,5,6,6,7,7,8,8,9,9,10,10,11,11,12,12,13,13,14,14,15,15,16,16,17,17,18,18,19,19,20,20,21,21,22,22,31,31,32,32,33,33,34,34,35,35,36,36,37,37,38,38,39,39,40,40,41,41,42,42,43,43,44,44,45,45,46,46],"right_children":[2,4,6,8,10,12,14,16,18,20,22,24,26,28,30,32,34,36,38,40,42,44,46,-1,-1,-1,-1,-1,-1,-1,-1,48,50,52,54,56,58,60,62,64,66,68,70,72,74,76,78,-1,-1,-1,-1,-1,-1,-1,-1,-1,-1,-1,-1,-1,-1,-1,-1,-1,-1,-1,-1,-1,-1,-1,-1,-1,-1,-1,-1,-1,-1,-1,-1],"split_conditions":[6.268173E-1,2.7114353E-1,8.584858E-1,1.8218371E-1,3.8552415E-1,6.7209274E-1,9.353377E-1,1.1650289E-1,2.2707577E-1,3.268238E-1,4.5447233E-1,6.545444E-1,8.593823E-1,9.001442E-1,9.599375E-1,7.046108E-2,1.5123475E-1,2.0420605E-1,2.4888659E-1,3.023914E-1,3.528725E-1,4.2200118E-1,5.1112586E-1,1.2323883E-2,1.3192499E-2,1.40481135E-2,2.0849591E-2,2.3210756E-2,2.439904E-2,2.5740696E-2,2.7247315E-2,4.440901E-2,9.9426165E-2,1.363637E-1,1.676888E-1,1.9500135E-1,2.158299E-1,2.3827015E-1,2.5942934E-1,2.8797284E-1,3.1409553E-1,3.40447E-1,3.7215576E-1,4.035138E-1,4.3748492E-1,4.8082742E-1,5.124557E-1,-1.5764108E-2,-1.4124527E-2,-1.27161145E-2,-1.1856094E-2,-1.1025019E-2,-1.0262305E-2,-9.557391E-3,-8.883099E-3,-8.260267E-3,-7.744424E-3,-7.2889957E-3,-6.7686364E-3,-6.2818187E-3,-5.7813986E-3,-5.313725E-3,-4.805113E-3,-4.1479054E-3,-3.399033E-3,-2.8715024E-3,-2.3312825E-3,-1.7738555E-3,-1.141825E-3,-4.9016846E-4,3.530531E-4,1.0362471E-3,1.8543772E-3,2.6338615E-3,3.2851675E-3,4.4024955E-3,5.5122473E-3,4.909332E-3,1.1465053E-2],"split_indices":[475,473,478,475,473,475,473,475,475,478,475,473,1,473,473,473,478,475,473,478,473,475,11,0,0,0,0,0,0,0,0,473,475,478,473,473,478,473,473,475,473,475,478,473,473,473,41,0,0,0,0,0,0,0,0,0,0,0,0,0,0,0,0,0,0,0,0,0,0,0,0,0,0,0,0,0,0,0,0],"split_type":[0,0,0,0,0,0,0,0,0,0,0,0,0,0,0,0,0,0,0,0,0,0,0,0,0,0,0,0,0,0,0,0,0,0,0,0,0,0,0,0,0,0,0,0,0,0,0,0,0,0,0,0,0,0,0,0,0,0,0,0,0,0,0,0,0,0,0,0,0,0,0,0,0,0,0,0,0,0,0],"sum_hessian":[4.317E4,3.4566E4,8.604E3,1.954E4,1.5026E4,2.885E3,5.719E3,1.1933E4,7.607E3,9.482E3,5.544E3,1.689E3,1.196E3,4.211E3,1.508E3,2.694E3,9.239E3,3.348E3,4.259E3,7.28E3,2.202E3,2.013E3,3.531E3,6.81E2,1.008E3,1.17E3,2.6E1,2.344E3,1.867E3,5.02E2,1.006E3,8.54E2,1.84E3,4.899E3,4.34E3,1.677E3,1.671E3,2.035E3,2.224E3,3.862E3,3.418E3,1.173E3,1.029E3,1.179E3,8.34E2,3.489E3,4.2E1,5.13E2,3.41E2,5.19E2,1.321E3,2.51E3,2.389E3,2.515E3,1.825E3,1.136E3,5.41E2,8.36E2,8.35E2,1.053E3,9.82E2,1.039E3,1.185E3,1.318E3,2.544E3,1.722E3,1.696E3,6.76E2,4.97E2,6.91E2,3.38E2,4.94E2,6.85E2,3.26E2,5.08E2,1.483E3,2.006E3,4E0,3.8E1],"tree_param":{"num_deleted":"0","num_feature":"480","num_nodes":"79","size_leaf_vector":"1"}},{"base_weights":[-4.0602515E-4,-9.86405E-2,3.9569634E-1,-1.7171358E-1,-3.2879468E-3,2.5462776E-1,4.6640852E-1,-2.0314494E-1,-1.2222794E-1,-5.022862E-2,7.669976E-2,2.4128424E-1,2.665412E-1,4.498366E-1,5.056548E-1,-2.4638818E-1,-1.8960202E-1,-1.4389557E-1,-1.04931526E-1,-6.0750324E-2,-1.8552924E-2,3.8176253E-2,9.571766E-2,1.1412822E-2,1.227672E-2,2.6438275E-1,1.9696953E-2,2.1737061E-2,2.2857208E-2,2.4353344E-2,2.5879169E-2,-2.877745E-1,-2.2896983E-1,-2.0148525E-1,-1.7569315E-1,-1.5379378E-1,-1.3363704E-1,-1.14609234E-1,-9.580424E-2,-7.0400015E-2,-5.107806E-2,-3.157114E-2,-5.803099E-3,2.6179614E-2,5.224801E-2,9.4199166E-2,2.0963529E-1,1.2962638E-2,1.3722295E-2,-1.5298881E-2,-1.37234675E-2,-1.197064E-2,-1.1170723E-2,-1.0416143E-2,-9.702089E-3,-9.033591E-3,-8.407972E-3,-7.8734355E-3,-7.4135843E-3,-6.9231824E-3,-6.4283274E-3,-5.9368354E-3,-5.4541896E-3,-5.0171176E-3,-4.540592E-3,-3.949215E-3,-3.2616598E-3,-2.8012602E-3,-2.2726047E-3,-1.8203523E-3,-1.2606803E-3,-6.4389437E-4,1.6666467E-4,8.413442E-4,1.5461448E-3,2.1866402E-3,2.9058524E-3,4.046032E-3,5.1856753E-3,4.791559E-3,1.0890157E-2],"categories":[],"categories_nodes":[],"categories_segments":[],"categories_sizes":[],"default_left":[0,0,0,0,0,0,0,0,0,0,0,0,0,0,0,0,0,0,0,0,0,0,0,0,0,0,0,0,0,0,0,0,0,0,0,0,0,0,0,0,0,0,0,0,0,0,0,0,0,0,0,0,0,0,0,0,0,0,0,0,0,0,0,0,0,0,0,0,0,0,0,0,0,0,0,0,0,0,0,0,0],"id":3,"left_children":[1,3,5,7,9,11,13,15,17,19,21,23,25,27,29,31,33,35,37,39,41,43,45,-1,-1,47,-1,-1,-1,-1,-1,49,51,53,55,57,59,61,63,65,67,69,71,73,75,77,79,-1,-1,-1,-1,-1,-1,-1,-1,-1,-1,-1,-1,-1,-1,-1,-1,-1,-1,-1,-1,-1,-1,-1,-1,-1,-1,-1,-1,-1,-1,-1,-1,-1,-1],"loss_changes":[1.677683E3,2.4071967E2,8.5349365E1,3.0397278E1,5.628646E1,3.908081E-1,3.4836426E0,6.95755E0,2.8331604E0,3.1473923E0,4.0580826E0,1.9317627E-2,3.091507E-1,2.4481201E-1,1.2173462E-1,1.987915E0,1.4706421E0,3.2174683E-1,3.6266327E-1,6.5823746E-1,3.9103156E-1,3.082366E-1,6.221924E-1,0E0,0E0,5.302429E-3,0E0,0E0,0E0,0E0,0E0,1.1946106E-1,6.312561E-2,2.0933533E-1,1.2738037E-1,1.1329651E-2,2.289772E-2,3.3756256E-2,4.034424E-2,1.5216827E-1,9.6120834E-2,3.492999E-2,7.709147E-2,4.348743E-2,3.9588213E-2,4.5450592E-1,2.3745298E-2,0E0,0E0,0E0,0E0,0E0,0E0,0E0,0E0,0E0,0E0,0E0,0E0,0E0,0E0,0E0,0E0,0E0,0E0,0E0,0E0,0E0,0E0,0E0,0E0,0E0,0E0,0E0,0E0,0E0,0E0,0E0,0E0,0E0,0E0],"parents":[2147483647,0,0,1,1,2,2,3,3,4,4,5,5,6,6,7,7,8,8,9,9,10,10,11,11,12,12,13,13,14,14,15,15,16,16,17,17,18,18,19,19,20,20,21,21,22,22,25,25,31,31,32,32,33,33,34,34,35,35,36,36,37,37,38,38,39,39,40,40,41,41,42,42,43,43,44,44,45,45,46,46],"right_children":[2,4,6,8,10,12,14,16,18,20,22,24,26,28,30,32,34,36,38,40,42,44,46,-1,-1,48,-1,-1,-1,-1,-1,50,52,54,56,58,60,62,64,66,68,70,72,74,76,78,80,-1,-1,-1,-1,-1,-1,-1,-1,-1,-1,-1,-1,-1,-1,-1,-1,-1,-1,-1,-1,-1,-1,-1,-1,-1,-1,-1,-1,-1,-1,-1,-1,-1,-1],"split_conditions":[6.268173E-1,2.709387E-1,8.584858E-1,1.821965E-1,3.8551548E-1,6.6745603E-1,9.271378E-1,1.1878329E-1,2.2707577E-1,3.2522878E-1,4.4770038E-1,6.471507E-1,8.593823E-1,8.90394E-1,9.599375E-1,7.046108E-2,1.5246461E-1,2.0418496E-1,2.4913144E-1,3.008455E-1,3.485647E-1,4.1643375E-1,5.1112586E-1,1.1412822E-2,1.227672E-2,6.8348277E-1,1.9696953E-2,2.1737061E-2,2.2857208E-2,2.4353344E-2,2.5879169E-2,2.883292E-2,1.0209235E-1,1.3739511E-1,1.692596E-1,1.9287457E-1,2.1596365E-1,2.3995784E-1,2.610376E-1,2.8797284E-1,3.126403E-1,3.3577356E-1,3.6510178E-1,3.9722598E-1,4.3125334E-1,4.776906E-1,5.124557E-1,1.2962638E-2,1.3722295E-2,-1.5298881E-2,-1.37234675E-2,-1.197064E-2,-1.1170723E-2,-1.0416143E-2,-9.702089E-3,-9.033591E-3,-8.407972E-3,-7.8734355E-3,-7.4135843E-3,-6.9231824E-3,-6.4283274E-3,-5.9368354E-3,-5.4541896E-3,-5.0171176E-3,-4.540592E-3,-3.949215E-3,-3.2616598E-3,-2.8012602E-3,-2.2726047E-3,-1.8203523E-3,-1.2606803E-3,-6.4389437E-4,1.6666467E-4,8.413442E-4,1.5461448E-3,2.1866402E-3,2.9058524E-3,4.046032E-3,5.1856753E-3,4.791559E-3,1.0890157E-2],"split_indices":[475,475,478,478,475,478,473,478,475,473,473,478,1,475,473,473,478,478,475,473,473,478,11,0,0,473,0,0,0,0,0,475,473,475,478,478,475,475,475,475,478,478,473,478,478,475,33,0,0,0,0,0,0,0,0,0,0,0,0,0,0,0,0,0,0,0,0,0,0,0,0,0,0,0,0,0,0,0,0,0,0],"split_type":[0,0,0,0,0,0,0,0,0,0,0,0,0,0,0,0,0,0,0,0,0,0,0,0,0,0,0,0,0,0,0,0,0,0,0,0,0,0,0,0,0,0,0,0,0,0,0,0,0,0,0,0,0,0,0,0,0,0,0,0,0,0,0,0,0,0,0,0,0,0,0,0,0,0,0,0,0,0,0,0,0],"sum_hessian":[4.3114E4,3.4547E4,8.567E3,1.9558E4,1.4989E4,2.862E3,5.705E3,1.1959E4,7.599E3,9.446E3,5.543E3,1.36E3,1.502E3,4.02E3,1.685E3,2.848E3,9.111E3,3.37E3,4.229E3,7.09E3,2.356E3,1.833E3,3.71E3,3.48E2,1.012E3,1.48E3,2.2E1,1.331E3,2.689E3,6.75E2,1.01E3,8.39E2,2.009E3,4.906E3,4.205E3,1.708E3,1.662E3,2.047E3,2.182E3,3.546E3,3.544E3,1.165E3,1.191E3,9.91E2,8.42E2,3.663E3,4.7E1,9.98E2,4.82E2,3.45E2,4.94E2,6.83E2,1.326E3,2.543E3,2.363E3,2.518E3,1.687E3,1.009E3,6.99E2,8.38E2,8.24E2,1.16E3,8.87E2,1.133E3,1.049E3,1.327E3,2.219E3,1.881E3,1.663E3,6.59E2,5.06E2,6.71E2,5.2E2,3.35E2,6.56E2,3.47E2,4.95E2,1.533E3,2.13E3,4E0,4.3E1],"tree_param":{"num_deleted":"0","num_feature":"480","num_nodes":"81","size_leaf_vector":"1"}},{"base_weights":[1.9289553E-4,-9.368947E-2,3.7626588E-1,-1.6337873E-1,-3.0199904E-3,2.4185021E-1,4.432335E-1,-1.92363E-1,-1.1531848E-1,-4.661788E-2,7.4688725E-2,2.2751777E-1,2.5152946E-1,4.262613E-1,4.7806156E-1,-2.3254117E-1,-1.7913747E-1,-1.3477817E-1,-9.89248E-2,-5.6283254E-2,-1.0664658E-2,4.0919084E-2,9.225567E-2,1.0819973E-2,1.1580741E-2,2.4994484E-1,1.8630711E-2,2.0578902E-2,2.1624677E-2,2.3033014E-2,2.458666E-2,-2.7277097E-1,-2.1669433E-1,-1.905675E-1,-1.6591853E-1,-1.4441274E-1,-1.2514368E-1,-1.0747611E-1,-9.0383865E-2,-6.528549E-2,-4.5012444E-2,-2.0736609E-2,3.0917018E-3,2.937969E-2,5.4562733E-2,9.099415E-2,2.0080507E-1,1.2214844E-2,1.29171E-2,-1.4514844E-2,-1.302761E-2,-1.1281661E-2,-1.0545062E-2,-9.8269945E-3,-9.148499E-3,-8.536886E-3,-7.941554E-3,-7.406745E-3,-6.932544E-3,-6.4812317E-3,-6.0246503E-3,-5.558582E-3,-5.103815E-3,-4.7181887E-3,-4.3058395E-3,-3.7040336E-3,-3.0097465E-3,-2.482075E-3,-1.9707147E-3,-1.3683819E-3,-7.8115513E-4,-1.2397357E-4,5.8218086E-4,1.1829268E-3,1.7476311E-3,2.382932E-3,2.9594835E-3,4.060356E-3,5.0703683E-3,4.313157E-3,1.0388041E-2],"categories":[],"categories_nodes":[],"categories_segments":[],"categories_sizes":[],"default_left":[0,0,0,0,0,0,0,0,0,0,0,0,0,0,0,0,0,0,0,0,0,0,0,0,0,0,0,0,0,0,0,0,0,0,0,0,0,0,0,0,0,0,0,0,0,0,0,0,0,0,0,0,0,0,0,0,0,0,0,0,0,0,0,0,0,0,0,0,0,0,0,0,0,0,0,0,0,0,0,0,0],"id":4,"left_children":[1,3,5,7,9,11,13,15,17,19,21,23,25,27,29,31,33,35,37,39,41,43,45,-1,-1,47,-1,-1,-1,-1,-1,49,51,53,55,57,59,61,63,65,67,69,71,73,75,77,79,-1,-1,-1,-1,-1,-1,-1,-1,-1,-1,-1,-1,-1,-1,-1,-1,-1,-1,-1,-1,-1,-1,-1,-1,-1,-1,-1,-1,-1,-1,-1,-1,-1,-1],"loss_changes":[1.5263052E3,2.1858823E2,7.762976E1,2.7224731E1,5.09411E1,3.4147644E-1,3.2027588E0,6.441162E0,2.3349457E0,3.3465328E0,3.2020378E0,3.1280518E-3,2.341919E-1,1.774292E-1,2.2073364E-1,1.864914E0,1.3558655E0,2.940979E-1,2.8235626E-1,7.672615E-1,2.8299013E-1,2.898171E-1,4.6840286E-1,0E0,0E0,1.6899109E-2,0E0,0E0,0E0,0E0,0E0,1.0617447E-1,6.479645E-2,1.8719482E-1,1.1859131E-1,1.5384674E-2,1.9578934E-2,2.842331E-2,2.5957108E-2,1.8439102E-1,8.547735E-2,3.954971E-2,4.119345E-2,3.1216145E-2,2.423644E-2,3.4999275E-1,1.394701E-2,0E0,0E0,0E0,0E0,0E0,0E0,0E0,0E0,0E0,0E0,0E0,0E0,0E0,0E0,0E0,0E0,0E0,0E0,0E0,0E0,0E0,0E0,0E0,0E0,0E0,0E0,0E0,0E0,0E0,0E0,0E0,0E0,0E0,0E0],"parents":[2147483647,0,0,1,1,2,2,3,3,4,4,5,5,6,6,7,7,8,8,9,9,10,10,11,11,12,12,13,13,14,14,15,15,16,16,17,17,18,18,19,19,20,20,21,21,22,22,25,25,31,31,32,32,33,33,34,34,35,35,36,36,37,37,38,38,39,39,40,40,41,41,42,42,43,43,44,44,45,45,46,46],"right_children":[2,4,6,8,10,12,14,16,18,20,22,24,26,28,30,32,34,36,38,40,42,44,46,-1,-1,48,-1,-1,-1,-1,-1,50,52,54,56,58,60,62,64,66,68,70,72,74,76,78,80,-1,-1,-1,-1,-1,-1,-1,-1,-1,-1,-1,-1,-1,-1,-1,-1,-1,-1,-1,-1,-1,-1,-1,-1,-1,-1,-1,-1,-1,-1,-1,-1,-1,-1],"split_conditions":[6.268173E-1,2.709387E-1,8.584858E-1,1.8417537E-1,3.922005E-1,6.650662E-1,9.236235E-1,1.2025378E-1,2.2900164E-1,3.3094192E-1,4.5447233E-1,6.471688E-1,8.593823E-1,8.886565E-1,9.599375E-1,7.046108E-2,1.5370099E-1,2.0644681E-1,2.5065657E-1,3.043682E-1,3.5996422E-1,4.2200118E-1,5.1112586E-1,1.0819973E-2,1.1580741E-2,6.793709E-1,1.8630711E-2,2.0578902E-2,2.1624677E-2,2.3033014E-2,2.458666E-2,2.883292E-2,1.0480213E-1,1.3978998E-1,1.7040156E-1,1.9534397E-1,2.1840407E-1,2.4174063E-1,2.6132846E-1,2.9009274E-1,3.1725025E-1,3.441442E-1,3.782466E-1,4.0923995E-1,4.3787327E-1,4.8588827E-1,5.124557E-1,1.2214844E-2,1.29171E-2,-1.4514844E-2,-1.302761E-2,-1.1281661E-2,-1.0545062E-2,-9.8269945E-3,-9.148499E-3,-8.536886E-3,-7.941554E-3,-7.406745E-3,-6.932544E-3,-6.4812317E-3,-6.0246503E-3,-5.558582E-3,-5.103815E-3,-4.7181887E-3,-4.3058395E-3,-3.7040336E-3,-3.0097465E-3,-2.482075E-3,-1.9707147E-3,-1.3683819E-3,-7.8115513E-4,-1.2397357E-4,5.8218086E-4,1.1829268E-3,1.7476311E-3,2.382932E-3,2.9594835E-3,4.060356E-3,5.0703683E-3,4.313157E-3,1.0388041E-2],"split_indices":[475,475,478,475,475,475,473,478,475,478,475,473,1,478,449,465,478,478,478,475,478,475,11,0,0,473,0,0,0,0,0,467,473,475,473,478,475,475,473,478,475,473,478,475,475,475,33,0,0,0,0,0,0,0,0,0,0,0,0,0,0,0,0,0,0,0,0,0,0,0,0,0,0,0,0,0,0,0,0,0,0],"split_type":[0,0,0,0,0,0,0,0,0,0,0,0,0,0,0,0,0,0,0,0,0,0,0,0,0,0,0,0,0,0,0,0,0,0,0,0,0,0,0,0,0,0,0,0,0,0,0,0,0,0,0,0,0,0,0,0,0,0,0,0,0,0,0,0,0,0,0,0,0,0,0,0,0,0,0,0,0,0,0,0,0],"sum_hessian":[4.3228E4,3.4593E4,8.635E3,1.9559E4,1.5034E4,2.873E3,5.762E3,1.2199E4,7.36E3,9.631E3,5.403E3,1.168E3,1.705E3,3.883E3,1.879E3,3.017E3,9.182E3,3.362E3,3.998E3,7.59E3,2.041E3,1.85E3,3.553E3,3.29E2,8.39E2,1.686E3,1.9E1,1.177E3,2.706E3,8.42E2,1.037E3,8.48E2,2.169E3,4.917E3,4.265E3,1.674E3,1.688E3,1.992E3,2.006E3,4.217E3,3.373E3,1.178E3,8.63E2,1.004E3,8.46E2,3.514E3,3.9E1,1.026E3,6.6E2,3.39E2,5.09E2,8.38E2,1.331E3,2.739E3,2.178E3,2.525E3,1.74E3,1.002E3,6.72E2,8.46E2,8.42E2,1.171E3,8.21E2,1.027E3,9.79E2,1.541E3,2.676E3,1.842E3,1.531E3,5.11E2,6.67E2,5.23E2,3.4E2,4.98E2,5.06E2,3.44E2,5.02E2,1.816E3,1.698E3,3E0,3.6E1],"tree_param":{"num_deleted":"0","num_feature":"480","num_nodes":"81","size_leaf_vector":"1"}},{"base_weights":[-2.7498047E-4,-8.9094006E-2,3.5724252E-1,-1.5485455E-1,-2.7344753E-3,2.3009145E-1,4.206671E-1,-1.8439858E-1,-1.1204318E-1,-4.530409E-2,6.884338E-2,2.203955E-1,2.4376176E-1,4.038112E-1,4.52097E-1,-2.4916619E-1,-1.7715427E-1,-1.3329309E-1,-9.596039E-2,-5.5171534E-2,-1.793228E-2,3.6849152E-2,8.760916E-2,1.0543839E-2,1.1320196E-2,1.2053529E-2,1.7917233E-2,1.9376276E-2,2.0418784E-2,2.1815365E-2,2.3353932E-2,-2.6572594E-1,-1.1338888E-2,-1.9218934E-1,-1.6394322E-1,-1.4214566E-1,-1.242599E-1,-1.0630471E-1,-8.773084E-2,-6.478681E-2,-4.759848E-2,-2.9338034E-2,-5.4265414E-3,2.5833547E-2,5.198014E-2,8.635245E-2,9.476528E-3,-1.38065815E-2,-1.2696101E-2,-1.0066933E-2,-9.238123E-3,-8.555546E-3,-7.847143E-3,-7.285384E-3,-6.9309934E-3,-6.4388216E-3,-5.9839087E-3,-5.529684E-3,-5.0925035E-3,-4.654147E-3,-4.1551758E-3,-3.595771E-3,-3.0170293E-3,-2.6453114E-3,-2.1460059E-3,-1.6635066E-3,-1.1434128E-3,-5.82733E-4,1.6733375E-4,8.956926E-4,1.601809E-3,2.3818999E-3,2.9281883E-3,3.8632439E-3,4.8268875E-3],"categories":[],"categories_nodes":[],"categories_segments":[],"categories_sizes":[],"default_left":[0,0,0,0,0,0,0,0,0,0,0,0,0,0,0,0,0,0,0,0,0,0,0,0,0,0,0,0,0,0,0,0,0,0,0,0,0,0,0,0,0,0,0,0,0,0,0,0,0,0,0,0,0,0,0,0,0,0,0,0,0,0,0,0,0,0,0,0,0,0,0,0,0,0,0],"id":5,"left_children":[1,3,5,7,9,11,13,15,17,19,21,23,25,27,29,31,33,35,37,39,41,43,45,-1,-1,-1,-1,-1,-1,-1,-1,47,-1,49,51,53,55,57,59,61,63,65,67,69,71,73,-1,-1,-1,-1,-1,-1,-1,-1,-1,-1,-1,-1,-1,-1,-1,-1,-1,-1,-1,-1,-1,-1,-1,-1,-1,-1,-1,-1,-1],"loss_changes":[1.3721693E3,1.9656851E2,6.924988E1,2.4833069E1,4.5599045E1,3.2588196E-1,2.8562622E0,5.4102783E0,2.730156E0,2.533533E0,3.3475876E0,4.8683167E-2,2.7718353E-1,1.1999512E-1,2.6794434E-1,3.7239838E-1,2.0459595E0,2.5862503E-1,3.798828E-1,4.9913597E-1,3.5472256E-1,3.4284496E-1,4.3410873E-1,0E0,0E0,0E0,0E0,0E0,0E0,0E0,0E0,1.1562347E-2,0E0,2.9481506E-1,2.5282288E-1,1.6288757E-3,2.0139694E-2,2.735138E-2,5.5467606E-2,9.188843E-2,9.362888E-2,3.2336235E-2,6.4952075E-2,5.8226347E-2,2.2052288E-2,3.1427765E-1,0E0,0E0,0E0,0E0,0E0,0E0,0E0,0E0,0E0,0E0,0E0,0E0,0E0,0E0,0E0,0E0,0E0,0E0,0E0,0E0,0E0,0E0,0E0,0E0,0E0,0E0,0E0,0E0,0E0],"parents":[2147483647,0,0,1,1,2,2,3,3,4,4,5,5,6,6,7,7,8,8,9,9,10,10,11,11,12,12,13,13,14,14,15,15,16,16,17,17,18,18,19,19,20,20,21,21,22,22,31,31,33,33,34,34,35,35,36,36,37,37,38,38,39,39,40,40,41,41,42,42,43,43,44,44,45,45],"right_children":[2,4,6,8,10,12,14,16,18,20,22,24,26,28,30,32,34,36,38,40,42,44,46,-1,-1,-1,-1,-1,-1,-1,-1,48,-1,50,52,54,56,58,60,62,64,66,68,70,72,74,-1,-1,-1,-1,-1,-1,-1,-1,-1,-1,-1,-1,-1,-1,-1,-1,-1,-1,-1,-1,-1,-1,-1,-1,-1,-1,-1,-1,-1],"split_conditions":[6.268173E-1,2.7114353E-1,8.586464E-1,1.7860149E-1,3.8552415E-1,6.7232066E-1,9.193609E-1,9.610435E-2,2.225145E-1,3.2385737E-1,4.5434627E-1,6.545263E-1,8.585337E-1,8.84381E-1,9.599375E-1,5.7118516E-2,1.4228752E-1,1.9811524E-1,2.4527471E-1,2.9864398E-1,3.4846607E-1,4.2200118E-1,6.177853E-1,1.0543839E-2,1.1320196E-2,1.2053529E-2,1.7917233E-2,1.9376276E-2,2.0418784E-2,2.1815365E-2,2.3353932E-2,2.8390652E-2,-1.1338888E-2,1.2302377E-1,1.59562E-1,1.8797283E-1,2.1123514E-1,2.3410235E-1,2.5739044E-1,2.8637198E-1,3.0980033E-1,3.3597228E-1,3.6510178E-1,4.0391147E-1,4.4197214E-1,4.866845E-1,9.476528E-3,-1.38065815E-2,-1.2696101E-2,-1.0066933E-2,-9.238123E-3,-8.555546E-3,-7.847143E-3,-7.285384E-3,-6.9309934E-3,-6.4388216E-3,-5.9839087E-3,-5.529684E-3,-5.0925035E-3,-4.654147E-3,-4.1551758E-3,-3.595771E-3,-3.0170293E-3,-2.6453114E-3,-2.1460059E-3,-1.6635066E-3,-1.1434128E-3,-5.82733E-4,1.6733375E-4,8.956926E-4,1.601809E-3,2.3818999E-3,2.9281883E-3,3.8632439E-3,4.8268875E-3],"split_indices":[475,473,473,473,473,473,473,473,473,473,473,475,6,473,473,473,473,473,473,473,475,475,121,0,0,0,0,0,0,0,0,473,0,475,475,473,475,475,473,473,473,473,473,475,475,473,0,0,0,0,0,0,0,0,0,0,0,0,0,0,0,0,0,0,0,0,0,0,0,0,0,0,0,0,0],"split_type":[0,0,0,0,0,0,0,0,0,0,0,0,0,0,0,0,0,0,0,0,0,0,0,0,0,0,0,0,0,0,0,0,0,0,0,0,0,0,0,0,0,0,0,0,0,0,0,0,0,0,0,0,0,0,0,0,0,0,0,0,0,0,0,0,0,0,0,0,0,0,0,0,0,0,0],"sum_hessian":[4.321E4,3.4612E4,8.598E3,1.9649E4,1.4963E4,2.863E3,5.735E3,1.1624E4,8.025E3,9.383E3,5.58E3,1.685E3,1.178E3,3.742E3,1.993E3,1.166E3,1.0458E4,3.454E3,4.571E3,6.896E3,2.487E3,2.064E3,3.516E3,6.66E2,1.019E3,1.154E3,2.4E1,8.38E2,2.904E3,9.85E2,1.008E3,6.64E2,5.02E2,4.885E3,5.573E3,1.737E3,1.717E3,2.02E3,2.551E3,3.035E3,3.861E3,1.3E3,1.187E3,1.196E3,8.68E2,3.475E3,4.1E1,3.41E2,3.23E2,2.177E3,2.708E3,2.742E3,2.831E3,8.44E2,8.93E2,8.51E2,8.66E2,1.017E3,1.003E3,1.174E3,1.377E3,1.16E3,1.875E3,1.804E3,2.057E3,8.06E2,4.94E2,6.94E2,4.93E2,5.27E2,6.69E2,5.28E2,3.4E2,1.841E3,1.634E3],"tree_param":{"num_deleted":"0","num_feature":"480","num_nodes":"75","size_leaf_vector":"1"}},{"base_weights":[4.916034E-4,-8.4366746E-2,3.3876586E-1,-1.4925438E-1,-4.93732E-3,2.1850051E-1,3.998472E-1,-1.7630121E-1,-1.1011356E-1,-4.481417E-2,6.583586E-2,2.0824261E-1,2.2986269E-1,3.8663417E-1,4.3633556E-1,-2.4195082E-1,-1.6978914E-1,-1.2901963E-1,-9.3885854E-2,-5.511454E-2,-1.9682301E-2,3.4880694E-2,8.329043E-2,9.926077E-3,1.064925E-2,1.1390936E-2,1.6992044E-2,1.892087E-2,1.9937104E-2,2.1174619E-2,2.2306245E-2,-1.28364805E-2,-1.1316589E-2,-1.8429229E-1,-1.5723674E-1,-1.3623169E-1,-1.1891271E-1,-1.0239421E-1,-8.59015E-2,-6.7825995E-2,-4.862406E-2,-2.9638188E-2,-5.1394287E-3,2.4445344E-2,4.9258992E-2,7.7983476E-2,1.0488392E-1,-9.687314E-3,-8.874393E-3,-8.198745E-3,-7.5388127E-3,-7.004672E-3,-6.6117616E-3,-6.16071E-3,-5.767272E-3,-5.325107E-3,-4.9042245E-3,-4.5204526E-3,-4.0941415E-3,-3.717744E-3,-3.1481662E-3,-2.648044E-3,-2.129691E-3,-1.6856529E-3,-1.1487096E-3,-5.606152E-4,1.4518898E-4,8.45895E-4,1.4945408E-3,2.128838E-3,2.6746157E-3,3.4753233E-3,4.190443E-3,4.9967077E-3,9.008433E-3],"categories":[],"categories_nodes":[],"categories_segments":[],"categories_sizes":[],"default_left":[0,0,0,0,0,0,0,0,0,0,0,0,0,0,0,0,0,0,0,0,0,0,0,0,0,0,0,0,0,0,0,0,0,0,0,0,0,0,0,0,0,0,0,0,0,0,0,0,0,0,0,0,0,0,0,0,0,0,0,0,0,0,0,0,0,0,0,0,0,0,0,0,0,0,0],"id":6,"left_children":[1,3,5,7,9,11,13,15,17,19,21,23,25,27,29,31,33,35,37,39,41,43,45,-1,-1,-1,-1,-1,-1,-1,-1,-1,-1,47,49,51,53,55,57,59,61,63,65,67,69,71,73,-1,-1,-1,-1,-1,-1,-1,-1,-1,-1,-1,-1,-1,-1,-1,-1,-1,-1,-1,-1,-1,-1,-1,-1,-1,-1,-1,-1],"loss_changes":[1.2365422E3,1.7749228E2,6.337451E1,2.004596E1,4.3704895E1,2.9151917E-1,2.5928345E0,4.750122E0,2.3649902E0,2.5629997E0,3.01256E0,2.8762817E-2,2.3099518E-1,2.6831055E-1,1.5258789E-3,1.7480469E-1,1.8277588E0,2.4445724E-1,2.7469254E-1,5.762882E-1,4.1697955E-1,3.0098176E-1,4.006977E-1,0E0,0E0,0E0,0E0,0E0,0E0,0E0,0E0,0E0,0E0,2.696228E-1,2.1356201E-1,1.3576508E-2,8.758545E-3,2.52285E-2,3.1705856E-2,7.062435E-2,1.1945534E-1,4.5660377E-2,5.7279363E-2,4.7412157E-2,2.1654129E-2,1.3580132E-1,2.4321651E-1,0E0,0E0,0E0,0E0,0E0,0E0,0E0,0E0,0E0,0E0,0E0,0E0,0E0,0E0,0E0,0E0,0E0,0E0,0E0,0E0,0E0,0E0,0E0,0E0,0E0,0E0,0E0,0E0],"parents":[2147483647,0,0,1,1,2,2,3,3,4,4,5,5,6,6,7,7,8,8,9,9,10,10,11,11,12,12,13,13,14,14,15,15,16,16,17,17,18,18,19,19,20,20,21,21,22,22,33,33,34,34,35,35,36,36,37,37,38,38,39,39,40,40,41,41,42,42,43,43,44,44,45,45,46,46],"right_children":[2,4,6,8,10,12,14,16,18,20,22,24,26,28,30,32,34,36,38,40,42,44,46,-1,-1,-1,-1,-1,-1,-1,-1,-1,-1,48,50,52,54,56,58,60,62,64,66,68,70,72,74,-1,-1,-1,-1,-1,-1,-1,-1,-1,-1,-1,-1,-1,-1,-1,-1,-1,-1,-1,-1,-1,-1,-1,-1,-1,-1,-1,-1],"split_conditions":[6.268173E-1,2.668931E-1,8.584858E-1,1.7625865E-1,3.8551548E-1,6.6990227E-1,9.353377E-1,8.9943E-2,2.2036509E-1,3.205466E-1,4.5447233E-1,6.507777E-1,8.593823E-1,9.019072E-1,9.6570104E-1,4.4970136E-2,1.3994469E-1,1.9811524E-1,2.4335396E-1,2.929654E-1,3.4846607E-1,4.2183998E-1,4.9605584E-1,9.926077E-3,1.064925E-2,1.1390936E-2,1.6992044E-2,1.892087E-2,1.9937104E-2,2.1174619E-2,2.2306245E-2,-1.28364805E-2,-1.1316589E-2,1.2003057E-1,1.5747988E-1,1.8609856E-1,2.0887814E-1,2.321422E-1,2.5378233E-1,2.7767956E-1,3.0649096E-1,3.3130342E-1,3.6510178E-1,4.035138E-1,4.3748492E-1,4.7450668E-1,5.1112586E-1,-9.687314E-3,-8.874393E-3,-8.198745E-3,-7.5388127E-3,-7.004672E-3,-6.6117616E-3,-6.16071E-3,-5.767272E-3,-5.325107E-3,-4.9042245E-3,-4.5204526E-3,-4.0941415E-3,-3.717744E-3,-3.1481662E-3,-2.648044E-3,-2.129691E-3,-1.6856529E-3,-1.1487096E-3,-5.606152E-4,1.4518898E-4,8.45895E-4,1.4945408E-3,2.128838E-3,2.6746157E-3,3.4753233E-3,4.190443E-3,4.9967077E-3,9.008433E-3],"split_indices":[475,475,478,473,475,473,473,475,473,478,475,478,1,473,475,475,473,473,478,475,475,473,473,0,0,0,0,0,0,0,0,0,0,473,478,473,473,473,478,478,478,475,473,473,473,475,11,0,0,0,0,0,0,0,0,0,0,0,0,0,0,0,0,0,0,0,0,0,0,0,0,0,0,0,0],"split_type":[0,0,0,0,0,0,0,0,0,0,0,0,0,0,0,0,0,0,0,0,0,0,0,0,0,0,0,0,0,0,0,0,0,0,0,0,0,0,0,0,0,0,0,0,0,0,0,0,0,0,0,0,0,0,0,0,0,0,0,0,0,0,0,0,0,0,0,0,0,0,0,0,0,0,0],"sum_hessian":[4.3075E4,3.4437E4,8.638E3,1.8953E4,1.5484E4,2.911E3,5.727E3,1.1206E4,7.747E3,9.904E3,5.58E3,1.54E3,1.371E3,4.213E3,1.514E3,1.008E3,1.0198E4,3.575E3,4.172E3,7.024E3,2.88E3,2.013E3,3.567E3,5.19E2,1.021E3,1.349E3,2.2E1,2.529E3,1.684E3,6.74E2,8.4E2,5.1E2,4.98E2,4.725E3,5.473E3,2.079E3,1.496E3,2.014E3,2.158E3,2.371E3,4.653E3,1.709E3,1.171E3,1.168E3,8.45E2,2.867E3,7E2,1.966E3,2.759E3,2.667E3,2.806E3,1.04E3,1.039E3,6.63E2,8.33E2,1.019E3,9.95E2,1.007E3,1.151E3,1.006E3,1.365E3,2.702E3,1.951E3,1.058E3,6.51E2,6.67E2,5.04E2,4.92E2,6.76E2,3.32E2,5.13E2,1.173E3,1.694E3,6.59E2,4.1E1],"tree_param":{"num_deleted":"0","num_feature":"480","num_nodes":"75","size_leaf_vector":"1"}},{"base_weights":[7.353092E-5,-7.998572E-2,3.2266083E-1,-1.390678E-1,-1.8442776E-3,2.0727229E-1,3.8000697E-1,-1.6488269E-1,-9.8310046E-2,-3.9564457E-2,6.403248E-2,9.670514E-3,2.1484956E-1,3.6447787E-1,4.0787676E-1,-2.0521215E-1,-1.5520109E-1,-1.14992894E-1,-8.36176E-2,-4.7698844E-2,-9.2315385E-3,3.72704E-2,8.0083475E-2,2.1356075E-1,1.6056601E-2,1.7556278E-2,1.8465461E-2,1.969786E-2,2.1087538E-2,-2.3928562E-1,-1.9163935E-1,-1.66566E-1,-1.4379023E-1,-1.2397352E-1,-1.0670144E-1,-9.0912245E-2,-7.624215E-2,-5.4979376E-2,-3.8124006E-2,-1.7902758E-2,2.8302898E-3,2.6930189E-2,5.1058087E-2,7.891657E-2,1.7344618E-1,1.0479701E-2,1.1212824E-2,-1.2488311E-2,-1.1446602E-2,-1.0498909E-2,-9.3478095E-3,-8.7067215E-3,-8.068184E-3,-7.4370666E-3,-6.838549E-3,-6.3547897E-3,-5.9540425E-3,-5.5608978E-3,-5.1414957E-3,-4.731453E-3,-4.3549463E-3,-3.9838837E-3,-3.6418007E-3,-3.1002199E-3,-2.5484993E-3,-2.0832883E-3,-1.6524325E-3,-1.1782335E-3,-6.6384266E-4,-1.10369634E-4,5.0787936E-4,1.088889E-3,1.705464E-3,2.3698672E-3,2.8237847E-3,3.5962786E-3,4.4275085E-3,3.3660212E-3,9.002647E-3],"categories":[],"categories_nodes":[],"categories_segments":[],"categories_sizes":[],"default_left":[0,0,0,0,0,0,0,0,0,0,0,0,0,0,0,0,0,0,0,0,0,0,0,0,0,0,0,0,0,0,0,0,0,0,0,0,0,0,0,0,0,0,0,0,0,0,0,0,0,0,0,0,0,0,0,0,0,0,0,0,0,0,0,0,0,0,0,0,0,0,0,0,0,0,0,0,0,0,0],"id":7,"left_children":[1,3,5,7,9,11,13,15,17,19,21,-1,23,25,27,29,31,33,35,37,39,41,43,45,-1,-1,-1,-1,-1,47,49,51,53,55,57,59,61,63,65,67,69,71,73,75,77,-1,-1,-1,-1,-1,-1,-1,-1,-1,-1,-1,-1,-1,-1,-1,-1,-1,-1,-1,-1,-1,-1,-1,-1,-1,-1,-1,-1,-1,-1,-1,-1,-1,-1],"loss_changes":[1.1149644E3,1.5968419E2,5.672223E1,2.0707062E1,3.70099E1,2.580185E-1,2.3325806E0,4.675873E0,1.8630371E0,2.3364325E0,2.3265076E0,0E0,1.827774E-1,1.08428955E-1,2.2839355E-1,1.0321655E0,1.2374725E0,2.5297928E-1,2.1182251E-1,5.1849747E-1,2.0965056E-1,2.8875017E-1,3.555298E-1,3.0044556E-2,0E0,0E0,0E0,0E0,0E0,1.4438629E-2,1.043396E-1,1.6352844E-1,1.4859009E-1,1.0986328E-2,2.1190643E-2,2.0656586E-2,1.7928123E-2,1.1626339E-1,5.666685E-2,3.022638E-2,3.099209E-2,4.2350054E-2,1.45971775E-2,2.1917915E-1,1.6625762E-2,0E0,0E0,0E0,0E0,0E0,0E0,0E0,0E0,0E0,0E0,0E0,0E0,0E0,0E0,0E0,0E0,0E0,0E0,0E0,0E0,0E0,0E0,0E0,0E0,0E0,0E0,0E0,0E0,0E0,0E0,0E0,0E0,0E0,0E0],"parents":[2147483647,0,0,1,1,2,2,3,3,4,4,5,5,6,6,7,7,8,8,9,9,10,10,12,12,13,13,14,14,15,15,16,16,17,17,18,18,19,19,20,20,21,21,22,22,23,23,29,29,30,30,31,31,32,32,33,33,34,34,35,35,36,36,37,37,38,38,39,39,40,40,41,41,42,42,43,43,44,44],"right_children":[2,4,6,8,10,12,14,16,18,20,22,-1,24,26,28,30,32,34,36,38,40,42,44,46,-1,-1,-1,-1,-1,48,50,52,54,56,58,60,62,64,66,68,70,72,74,76,78,-1,-1,-1,-1,-1,-1,-1,-1,-1,-1,-1,-1,-1,-1,-1,-1,-1,-1,-1,-1,-1,-1,-1,-1,-1,-1,-1,-1,-1,-1,-1,-1,-1,-1],"split_conditions":[6.268173E-1,2.729397E-1,8.586464E-1,1.8400803E-1,3.922005E-1,6.6214985E-1,9.191943E-1,1.12828724E-1,2.3058906E-1,3.3088586E-1,4.615441E-1,9.670514E-3,8.593823E-1,8.865477E-1,9.599375E-1,5.726666E-2,1.4954664E-1,2.0627452E-1,2.5209007E-1,3.0518502E-1,3.6005977E-1,4.3139356E-1,5.1112586E-1,6.8348277E-1,1.6056601E-2,1.7556278E-2,1.8465461E-2,1.969786E-2,2.1087538E-2,2.8488245E-2,8.9508615E-2,1.3104579E-1,1.676888E-1,1.9500135E-1,2.1840407E-1,2.4168813E-1,2.6279423E-1,2.9153687E-1,3.1842136E-1,3.441442E-1,3.78705E-1,4.1253275E-1,4.4770038E-1,4.8902732E-1,5.124557E-1,1.0479701E-2,1.1212824E-2,-1.2488311E-2,-1.1446602E-2,-1.0498909E-2,-9.3478095E-3,-8.7067215E-3,-8.068184E-3,-7.4370666E-3,-6.838549E-3,-6.3547897E-3,-5.9540425E-3,-5.5608978E-3,-5.1414957E-3,-4.731453E-3,-4.3549463E-3,-3.9838837E-3,-3.6418007E-3,-3.1002199E-3,-2.5484993E-3,-2.0832883E-3,-1.6524325E-3,-1.1782335E-3,-6.6384266E-4,-1.10369634E-4,5.0787936E-4,1.088889E-3,1.705464E-3,2.3698672E-3,2.8237847E-3,3.5962786E-3,4.4275085E-3,3.3660212E-3,9.002647E-3],"split_indices":[475,473,473,473,475,473,475,475,475,473,475,0,1,475,361,475,475,473,473,475,473,473,11,473,0,0,0,0,0,462,473,475,473,473,475,473,475,473,475,473,475,475,473,473,41,0,0,0,0,0,0,0,0,0,0,0,0,0,0,0,0,0,0,0,0,0,0,0,0,0,0,0,0,0,0,0,0,0,0],"split_type":[0,0,0,0,0,0,0,0,0,0,0,0,0,0,0,0,0,0,0,0,0,0,0,0,0,0,0,0,0,0,0,0,0,0,0,0,0,0,0,0,0,0,0,0,0,0,0,0,0,0,0,0,0,0,0,0,0,0,0,0,0,0,0,0,0,0,0,0,0,0,0,0,0,0,0,0,0,0,0],"sum_hessian":[4.317E4,3.4587E4,8.583E3,1.9695E4,1.4892E4,2.851E3,5.732E3,1.2056E4,7.639E3,9.47E3,5.422E3,1.017E3,1.834E3,3.69E3,2.042E3,2.33E3,9.726E3,3.574E3,4.065E3,7.467E3,2.003E3,2.034E3,3.388E3,1.815E3,1.9E1,1E3,2.69E3,1.034E3,1.008E3,6.59E2,1.671E3,4.866E3,4.86E3,1.709E3,1.865E3,2.038E3,2.027E3,4.239E3,3.228E3,1.165E3,8.38E2,1.164E3,8.7E2,3.348E3,4E1,1.339E3,4.76E2,3.16E2,3.43E2,3.31E2,1.34E3,1.969E3,2.897E3,2.838E3,2.022E3,1.028E3,6.81E2,8.48E2,1.017E3,1.02E3,1.018E3,9.98E2,1.029E3,1.535E3,2.704E3,1.897E3,1.331E3,5.22E2,6.43E2,4.97E2,3.41E2,6.8E2,4.84E2,5.25E2,3.45E2,1.945E3,1.403E3,3E0,3.7E1],"tree_param":{"num_deleted":"0","num_feature":"480","num_nodes":"79","size_leaf_vector":"1"}},{"base_weights":[3.4382833E-6,-7.620282E-2,3.0611244E-1,-1.3451768E-1,-4.6026837E-3,1.9700785E-1,3.6095425E-1,-1.5895571E-1,-9.8959275E-2,-4.1125663E-2,5.772413E-2,1.8966441E-1,2.1058938E-1,3.471379E-1,3.896448E-1,-2.016688E-1,-1.5076318E-1,-1.1629422E-1,-8.467744E-2,-5.0889842E-2,-2.207061E-2,2.7842939E-2,7.396865E-2,9.102163E-3,9.79558E-3,1.0402693E-2,1.547343E-2,1.6845617E-2,1.7680585E-2,1.8647777E-2,1.9932566E-2,-2.2784445E-1,-1.8602984E-1,-1.6234954E-1,-1.4095117E-1,-1.2284993E-1,-1.072353E-1,-9.236778E-2,-7.7488616E-2,-6.1723713E-2,-4.541068E-2,-2.9769724E-2,-8.028459E-3,1.8458758E-2,4.0670916E-2,6.857115E-2,9.13768E-2,-1.1861564E-2,-1.0864004E-2,-9.988992E-3,-9.020179E-3,-8.452378E-3,-7.862076E-3,-7.3204525E-3,-6.7601497E-3,-6.311569E-3,-5.9682103E-3,-5.5107395E-3,-5.163821E-3,-4.802901E-3,-4.426448E-3,-4.081499E-3,-3.6915687E-3,-3.3155978E-3,-2.8109252E-3,-2.4410023E-3,-2.044317E-3,-1.632633E-3,-1.1801621E-3,-6.31002E-4,-1.055341E-4,5.823517E-4,1.181994E-3,1.6954473E-3,2.2510726E-3,3.019679E-3,3.717982E-3,4.4302777E-3,8.084967E-3],"categories":[],"categories_nodes":[],"categories_segments":[],"categories_sizes":[],"default_left":[0,0,0,0,0,0,0,0,0,0,0,0,0,0,0,0,0,0,0,0,0,0,0,0,0,0,0,0,0,0,0,0,0,0,0,0,0,0,0,0,0,0,0,0,0,0,0,0,0,0,0,0,0,0,0,0,0,0,0,0,0,0,0,0,0,0,0,0,0,0,0,0,0,0,0,0,0,0,0],"id":8,"left_children":[1,3,5,7,9,11,13,15,17,19,21,23,25,27,29,31,33,35,37,39,41,43,45,-1,-1,-1,-1,-1,-1,-1,-1,47,49,51,53,55,57,59,61,63,65,67,69,71,73,75,77,-1,-1,-1,-1,-1,-1,-1,-1,-1,-1,-1,-1,-1,-1,-1,-1,-1,-1,-1,-1,-1,-1,-1,-1,-1,-1,-1,-1,-1,-1,-1,-1],"loss_changes":[1.0071614E3,1.443371E2,5.142285E1,1.654004E1,3.5326942E1,2.47406E-1,2.1345215E0,3.920288E0,1.9120789E0,1.8194408E0,2.7812576E0,5.3848267E-2,1.8682861E-1,1.373291E-1,1.298523E-1,7.001953E-1,1.0545197E0,1.9491959E-1,2.2835541E-1,3.812008E-1,3.5836887E-1,2.4253738E-1,3.4270287E-1,0E0,0E0,0E0,0E0,0E0,0E0,0E0,0E0,1.5293121E-2,5.222702E-2,1.2186432E-1,1.4142609E-1,8.813858E-3,6.0634613E-3,2.0578384E-2,2.741623E-2,5.1085472E-2,6.4331055E-2,3.730893E-2,3.1927593E-2,4.098144E-2,2.356708E-2,1.2989426E-1,1.563878E-1,0E0,0E0,0E0,0E0,0E0,0E0,0E0,0E0,0E0,0E0,0E0,0E0,0E0,0E0,0E0,0E0,0E0,0E0,0E0,0E0,0E0,0E0,0E0,0E0,0E0,0E0,0E0,0E0,0E0,0E0,0E0,0E0],"parents":[2147483647,0,0,1,1,2,2,3,3,4,4,5,5,6,6,7,7,8,8,9,9,10,10,11,11,12,12,13,13,14,14,15,15,16,16,17,17,18,18,19,19,20,20,21,21,22,22,31,31,32,32,33,33,34,34,35,35,36,36,37,37,38,38,39,39,40,40,41,41,42,42,43,43,44,44,45,45,46,46],"right_children":[2,4,6,8,10,12,14,16,18,20,22,24,26,28,30,32,34,36,38,40,42,44,46,-1,-1,-1,-1,-1,-1,-1,-1,48,50,52,54,56,58,60,62,64,66,68,70,72,74,76,78,-1,-1,-1,-1,-1,-1,-1,-1,-1,-1,-1,-1,-1,-1,-1,-1,-1,-1,-1,-1,-1,-1,-1,-1,-1,-1,-1,-1,-1,-1,-1,-1],"split_conditions":[6.272129E-1,2.669402E-1,8.586464E-1,1.7624283E-1,3.7885478E-1,6.747123E-1,9.2331403E-1,1.0714497E-1,2.2036509E-1,3.1682885E-1,4.4770038E-1,6.5806556E-1,8.593823E-1,8.921358E-1,9.447455E-1,5.7118516E-2,1.4345893E-1,1.985656E-1,2.4344516E-1,2.9153687E-1,3.441442E-1,4.163994E-1,4.9371302E-1,9.102163E-3,9.79558E-3,1.0402693E-2,1.547343E-2,1.6845617E-2,1.7680585E-2,1.8647777E-2,1.9932566E-2,2.8390652E-2,8.9508615E-2,1.2577586E-1,1.5956594E-1,1.8609856E-1,2.1123514E-1,2.321422E-1,2.537636E-1,2.8086457E-1,3.0394325E-1,3.2878107E-1,3.6005977E-1,3.971442E-1,4.3123707E-1,4.7248954E-1,6.177853E-1,-1.1861564E-2,-1.0864004E-2,-9.988992E-3,-9.020179E-3,-8.452378E-3,-7.862076E-3,-7.3204525E-3,-6.7601497E-3,-6.311569E-3,-5.9682103E-3,-5.5107395E-3,-5.163821E-3,-4.802901E-3,-4.426448E-3,-4.081499E-3,-3.6915687E-3,-3.3155978E-3,-2.8109252E-3,-2.4410023E-3,-2.044317E-3,-1.632633E-3,-1.1801621E-3,-6.31002E-4,-1.055341E-4,5.823517E-4,1.181994E-3,1.6954473E-3,2.2510726E-3,3.019679E-3,3.717982E-3,4.4302777E-3,8.084967E-3],"split_indices":[473,473,473,475,473,475,475,473,473,473,473,473,1,475,475,473,473,475,473,473,473,473,473,0,0,0,0,0,0,0,0,441,465,475,473,473,475,473,475,473,473,475,473,473,475,475,121,0,0,0,0,0,0,0,0,0,0,0,0,0,0,0,0,0,0,0,0,0,0,0,0,0,0,0,0,0,0,0,0],"split_type":[0,0,0,0,0,0,0,0,0,0,0,0,0,0,0,0,0,0,0,0,0,0,0,0,0,0,0,0,0,0,0,0,0,0,0,0,0,0,0,0,0,0,0,0,0,0,0,0,0,0,0,0,0,0,0,0,0,0,0,0,0,0,0,0,0,0,0,0,0,0,0,0,0,0,0,0,0,0,0],"sum_hessian":[4.3173E4,3.4568E4,8.605E3,1.9051E4,1.5517E4,2.88E3,5.725E3,1.1289E4,7.762E3,9.784E3,5.733E3,1.879E3,1.001E3,3.873E3,1.852E3,1.813E3,9.476E3,3.503E3,4.259E3,6.468E3,3.316E3,2.02E3,3.713E3,8.6E2,1.019E3,9.79E2,2.2E1,1.522E3,2.351E3,6.64E2,1.188E3,6.73E2,1.14E3,4.338E3,5.138E3,2.025E3,1.478E3,2.052E3,2.207E3,2.169E3,4.299E3,2.141E3,1.175E3,1.168E3,8.52E2,2.838E3,8.75E2,3.45E2,3.28E2,3.21E2,8.19E2,1.863E3,2.475E3,2.623E3,2.515E3,1.01E3,1.015E3,8.28E2,6.5E2,1.034E3,1.018E3,1.025E3,1.182E3,1.177E3,9.92E2,2.446E3,1.853E3,1.456E3,6.85E2,6.61E2,5.14E2,5.06E2,6.62E2,3.37E2,5.15E2,1.181E3,1.657E3,8.44E2,3.1E1],"tree_param":{"num_deleted":"0","num_feature":"480","num_nodes":"79","size_leaf_vector":"1"}},{"base_weights":[3.749698E-4,-7.2453946E-2,2.9133677E-1,-1.2839502E-1,-5.276567E-3,1.8732974E-1,3.4283113E-1,-1.5190381E-1,-9.6109375E-2,-3.9670087E-2,5.490097E-2,1.8122287E-1,2.0210941E-1,3.2873964E-1,3.6849177E-1,-2.076534E-1,-1.4623468E-1,-1.123479E-1,-8.166215E-2,-4.9399607E-2,-2.188245E-2,2.6404174E-2,7.035912E-2,8.657175E-3,9.342551E-3,9.963173E-3,1.4658876E-2,1.5735177E-2,1.663757E-2,1.7783556E-2,1.90513E-2,-1.1036079E-2,-9.691203E-3,-1.5981369E-1,-1.3701694E-1,-1.18375696E-1,-1.0343886E-1,-8.907377E-2,-7.474299E-2,-5.9950855E-2,-4.4008795E-2,-2.9846365E-2,-9.044035E-3,1.7562492E-2,3.8488645E-2,6.524108E-2,8.7680444E-2,-8.371492E-3,-7.72409E-3,-7.1358546E-3,-6.5402165E-3,-6.0453136E-3,-5.7001305E-3,-5.367478E-3,-5.014498E-3,-4.636186E-3,-4.2712972E-3,-3.9036684E-3,-3.5396956E-3,-3.2094095E-3,-2.7419936E-3,-2.3693636E-3,-2.0123746E-3,-1.6469437E-3,-1.3068529E-3,-7.428854E-4,-1.8036255E-4,5.4754334E-4,1.1322809E-3,1.6073788E-3,2.138699E-3,2.8125737E-3,3.5036844E-3,4.228661E-3,7.7406103E-3],"categories":[],"categories_nodes":[],"categories_segments":[],"categories_sizes":[],"default_left":[0,0,0,0,0,0,0,0,0,0,0,0,0,0,0,0,0,0,0,0,0,0,0,0,0,0,0,0,0,0,0,0,0,0,0,0,0,0,0,0,0,0,0,0,0,0,0,0,0,0,0,0,0,0,0,0,0,0,0,0,0,0,0,0,0,0,0,0,0,0,0,0,0,0,0],"id":9,"left_children":[1,3,5,7,9,11,13,15,17,19,21,23,25,27,29,31,33,35,37,39,41,43,45,-1,-1,-1,-1,-1,-1,-1,-1,-1,-1,47,49,51,53,55,57,59,61,63,65,67,69,71,73,-1,-1,-1,-1,-1,-1,-1,-1,-1,-1,-1,-1,-1,-1,-1,-1,-1,-1,-1,-1,-1,-1,-1,-1,-1,-1,-1,-1],"loss_changes":[9.1506647E2,1.2979224E2,4.623639E1,1.4288696E1,3.248432E1,2.219696E-1,1.9692993E0,3.4155579E0,1.8542709E0,1.7273226E0,2.51256E0,6.0272217E-2,1.5643692E-1,1.0595703E-1,1.9244385E-1,1.3866806E-1,1.2172546E0,1.884346E-1,2.0908546E-1,3.6452007E-1,3.609581E-1,2.1397984E-1,3.222885E-1,0E0,0E0,0E0,0E0,0E0,0E0,0E0,0E0,0E0,0E0,1.3645172E-1,1.904068E-1,1.0807037E-2,7.902145E-3,1.9054413E-2,2.3171425E-2,4.3692112E-2,5.2430153E-2,2.41462E-2,4.27432E-2,3.8804203E-2,2.1667957E-2,1.20306015E-1,1.6233444E-1,0E0,0E0,0E0,0E0,0E0,0E0,0E0,0E0,0E0,0E0,0E0,0E0,0E0,0E0,0E0,0E0,0E0,0E0,0E0,0E0,0E0,0E0,0E0,0E0,0E0,0E0,0E0,0E0],"parents":[2147483647,0,0,1,1,2,2,3,3,4,4,5,5,6,6,7,7,8,8,9,9,10,10,11,11,12,12,13,13,14,14,15,15,16,16,17,17,18,18,19,19,20,20,21,21,22,22,33,33,34,34,35,35,36,36,37,37,38,38,39,39,40,40,41,41,42,42,43,43,44,44,45,45,46,46],"right_children":[2,4,6,8,10,12,14,16,18,20,22,24,26,28,30,32,34,36,38,40,42,44,46,-1,-1,-1,-1,-1,-1,-1,-1,-1,-1,48,50,52,54,56,58,60,62,64,66,68,70,72,74,-1,-1,-1,-1,-1,-1,-1,-1,-1,-1,-1,-1,-1,-1,-1,-1,-1,-1,-1,-1,-1,-1,-1,-1,-1,-1,-1,-1],"split_conditions":[6.272129E-1,2.649097E-1,8.584858E-1,1.7391582E-1,3.78705E-1,6.7687565E-1,9.193609E-1,8.9943E-2,2.1832322E-1,3.1501547E-1,4.4770038E-1,6.5806556E-1,8.593823E-1,8.8406134E-1,9.598866E-1,4.440901E-2,1.35259E-1,1.9534397E-1,2.4168813E-1,2.8988624E-1,3.4047937E-1,4.163994E-1,4.9389076E-1,8.657175E-3,9.342551E-3,9.963173E-3,1.4658876E-2,1.5735177E-2,1.663757E-2,1.7783556E-2,1.90513E-2,-1.1036079E-2,-9.691203E-3,1.16516314E-1,1.5517312E-1,1.8618463E-1,2.0644681E-1,2.3058906E-1,2.537636E-1,2.7767956E-1,3.0180576E-1,3.2385737E-1,3.5665706E-1,3.971442E-1,4.3139356E-1,4.7042245E-1,5.118641E-1,-8.371492E-3,-7.72409E-3,-7.1358546E-3,-6.5402165E-3,-6.0453136E-3,-5.7001305E-3,-5.367478E-3,-5.014498E-3,-4.636186E-3,-4.2712972E-3,-3.9036684E-3,-3.5396956E-3,-3.2094095E-3,-2.7419936E-3,-2.3693636E-3,-2.0123746E-3,-1.6469437E-3,-1.3068529E-3,-7.428854E-4,-1.8036255E-4,5.4754334E-4,1.1322809E-3,1.6073788E-3,2.138699E-3,2.8125737E-3,3.5036844E-3,4.228661E-3,7.7406103E-3],"split_indices":[473,478,478,473,475,478,473,475,473,478,473,473,1,475,478,465,473,478,473,473,473,473,475,0,0,0,0,0,0,0,0,0,0,473,473,478,478,475,475,478,478,473,473,473,473,473,17,0,0,0,0,0,0,0,0,0,0,0,0,0,0,0,0,0,0,0,0,0,0,0,0,0,0,0,0],"split_type":[0,0,0,0,0,0,0,0,0,0,0,0,0,0,0,0,0,0,0,0,0,0,0,0,0,0,0,0,0,0,0,0,0,0,0,0,0,0,0,0,0,0,0,0,0,0,0,0,0,0,0,0,0,0,0,0,0,0,0,0,0,0,0,0,0,0,0,0,0,0,0,0,0,0,0],"sum_hessian":[4.3181E4,3.4537E4,8.644E3,1.8844E4,1.5693E4,2.864E3,5.78E3,1.0902E4,7.942E3,9.986E3,5.707E3,2.036E3,8.28E2,3.74E3,2.04E3,1.003E3,9.899E3,3.736E3,4.206E3,6.454E3,3.532E3,2.008E3,3.699E3,8.49E2,1.187E3,8.06E2,2.2E1,8.49E2,2.891E3,1.023E3,1.017E3,5.08E2,4.95E2,3.996E3,5.903E3,2.221E3,1.515E3,2.025E3,2.181E3,2.179E3,4.275E3,2.179E3,1.353E3,1.161E3,8.47E2,2.859E3,8.4E2,1.633E3,2.363E3,3.067E3,2.836E3,1.39E3,8.31E2,6.61E2,8.54E2,1E3,1.025E3,1.173E3,1.008E3,1.185E3,9.94E2,2.246E3,2.029E3,1.184E3,9.95E2,6.53E2,7E2,5.06E2,6.55E2,3.45E2,5.02E2,1.004E3,1.855E3,8.05E2,3.5E1],"tree_param":{"num_deleted":"0","num_feature":"480","num_nodes":"75","size_leaf_vector":"1"}},{"base_weights":[-2.7313555E-4,-6.867614E-2,2.759627E-1,-1.2216191E-1,-4.9457196E-3,1.7817031E-1,3.255429E-1,-1.4473888E-1,-9.178179E-2,-3.7594244E-2,5.2042175E-2,1.7124788E-1,1.9041221E-1,3.1161797E-1,3.4843808E-1,-1.9261248E-1,-1.3888921E-1,-1.0781367E-1,-7.8108445E-2,-4.6962015E-2,-2.0870699E-2,2.664761E-2,6.7898154E-2,8.045592E-3,8.751119E-3,9.388228E-3,1.4095589E-2,1.4865585E-2,1.574564E-2,1.6745213E-2,1.8001227E-2,-2.055102E-1,-8.781777E-3,-1.5003642E-1,-1.294558E-1,-1.1324382E-1,-9.985336E-2,-8.593211E-2,-7.167862E-2,-5.762038E-2,-4.2162247E-2,-2.8377585E-2,-8.679362E-3,1.6710931E-2,3.8417347E-2,6.3508525E-2,8.6122036E-2,-1.07171675E-2,-9.805477E-3,-7.822414E-3,-7.2193886E-3,-6.7145564E-3,-6.2115393E-3,-5.772727E-3,-5.4762536E-3,-5.138072E-3,-4.803939E-3,-4.469884E-3,-4.1124895E-3,-3.763425E-3,-3.3941374E-3,-3.051817E-3,-2.6313385E-3,-2.297108E-3,-1.9363965E-3,-1.5322249E-3,-1.1871802E-3,-7.052899E-4,-1.6515945E-4,5.1825837E-4,1.0712574E-3,1.5396868E-3,2.1094528E-3,2.8276748E-3,3.4189501E-3,4.105048E-3,7.5208144E-3],"categories":[],"categories_nodes":[],"categories_segments":[],"categories_sizes":[],"default_left":[0,0,0,0,0,0,0,0,0,0,0,0,0,0,0,0,0,0,0,0,0,0,0,0,0,0,0,0,0,0,0,0,0,0,0,0,0,0,0,0,0,0,0,0,0,0,0,0,0,0,0,0,0,0,0,0,0,0,0,0,0,0,0,0,0,0,0,0,0,0,0,0,0,0,0,0,0],"id":10,"left_children":[1,3,5,7,9,11,13,15,17,19,21,23,25,27,29,31,33,35,37,39,41,43,45,-1,-1,-1,-1,-1,-1,-1,-1,47,-1,49,51,53,55,57,59,61,63,65,67,69,71,73,75,-1,-1,-1,-1,-1,-1,-1,-1,-1,-1,-1,-1,-1,-1,-1,-1,-1,-1,-1,-1,-1,-1,-1,-1,-1,-1,-1,-1,-1,-1],"loss_changes":[8.140689E2,1.1770758E2,4.14021E1,1.2864319E1,2.9320831E1,2.1137238E-1,1.7000732E0,2.9890442E0,1.7467957E0,1.5686207E0,2.309433E0,4.3972015E-2,1.9683838E-1,7.312012E-2,2.1453857E-1,2.2009277E-1,9.900818E-1,1.4788818E-1,2.1140862E-1,3.2605362E-1,3.291304E-1,2.5758815E-1,2.7715683E-1,0E0,0E0,0E0,0E0,0E0,0E0,0E0,0E0,1.2685776E-2,0E0,1.3654327E-1,1.1487579E-1,5.2928925E-3,6.614685E-3,1.7479897E-2,2.7321815E-2,3.0750275E-2,5.5741787E-2,2.2666693E-2,4.0008575E-2,3.564638E-2,2.7742505E-2,9.270859E-2,1.6422844E-1,0E0,0E0,0E0,0E0,0E0,0E0,0E0,0E0,0E0,0E0,0E0,0E0,0E0,0E0,0E0,0E0,0E0,0E0,0E0,0E0,0E0,0E0,0E0,0E0,0E0,0E0,0E0,0E0,0E0,0E0],"parents":[2147483647,0,0,1,1,2,2,3,3,4,4,5,5,6,6,7,7,8,8,9,9,10,10,11,11,12,12,13,13,14,14,15,15,16,16,17,17,18,18,19,19,20,20,21,21,22,22,31,31,33,33,34,34,35,35,36,36,37,37,38,38,39,39,40,40,41,41,42,42,43,43,44,44,45,45,46,46],"right_children":[2,4,6,8,10,12,14,16,18,20,22,24,26,28,30,32,34,36,38,40,42,44,46,-1,-1,-1,-1,-1,-1,-1,-1,48,-1,50,52,54,56,58,60,62,64,66,68,70,72,74,76,-1,-1,-1,-1,-1,-1,-1,-1,-1,-1,-1,-1,-1,-1,-1,-1,-1,-1,-1,-1,-1,-1,-1,-1,-1,-1,-1,-1,-1,-1],"split_conditions":[6.268173E-1,2.646595E-1,8.584858E-1,1.7297512E-1,3.78705E-1,6.747123E-1,9.147505E-1,9.6269295E-2,2.1571301E-1,3.1507173E-1,4.54368E-1,6.508359E-1,8.589731E-1,8.816704E-1,9.447455E-1,5.726666E-2,1.3840897E-1,1.9301932E-1,2.3995784E-1,2.8797284E-1,3.40447E-1,4.16493E-1,4.9642816E-1,8.045592E-3,8.751119E-3,9.388228E-3,1.4095589E-2,1.4865585E-2,1.574564E-2,1.6745213E-2,1.8001227E-2,2.8390652E-2,-8.781777E-3,1.2166624E-1,1.5642281E-1,1.8400803E-1,2.0658156E-1,2.2900164E-1,2.5209007E-1,2.7767956E-1,2.9986596E-1,3.2661903E-1,3.56857E-1,3.9722598E-1,4.3125334E-1,4.749703E-1,5.118641E-1,-1.07171675E-2,-9.805477E-3,-7.822414E-3,-7.2193886E-3,-6.7145564E-3,-6.2115393E-3,-5.772727E-3,-5.4762536E-3,-5.138072E-3,-4.803939E-3,-4.469884E-3,-4.1124895E-3,-3.763425E-3,-3.3941374E-3,-3.051817E-3,-2.6313385E-3,-2.297108E-3,-1.9363965E-3,-1.5322249E-3,-1.1871802E-3,-7.052899E-4,-1.6515945E-4,5.1825837E-4,1.0712574E-3,1.5396868E-3,2.1094528E-3,2.8276748E-3,3.4189501E-3,4.105048E-3,7.5208144E-3],"split_indices":[475,473,478,473,475,475,478,475,473,473,470,473,3,473,475,475,478,475,475,475,475,475,475,0,0,0,0,0,0,0,0,473,0,478,478,473,475,475,473,478,475,475,478,470,478,473,17,0,0,0,0,0,0,0,0,0,0,0,0,0,0,0,0,0,0,0,0,0,0,0,0,0,0,0,0,0,0],"split_type":[0,0,0,0,0,0,0,0,0,0,0,0,0,0,0,0,0,0,0,0,0,0,0,0,0,0,0,0,0,0,0,0,0,0,0,0,0,0,0,0,0,0,0,0,0,0,0,0,0,0,0,0,0,0,0,0,0,0,0,0,0,0,0,0,0,0,0,0,0,0,0,0,0,0,0,0,0],"sum_hessian":[4.3081E4,3.4531E4,8.55E3,1.8774E4,1.5757E4,2.878E3,5.672E3,1.0768E4,8.006E3,1.0018E4,5.739E3,1.848E3,1.03E3,3.536E3,2.136E3,1.169E3,9.599E3,3.682E3,4.324E3,6.42E3,3.598E3,2.207E3,3.532E3,5.06E2,1.342E3,1.004E3,2.6E1,6.79E2,2.857E3,9.99E2,1.137E3,6.58E2,5.11E2,4.393E3,5.206E3,2.181E3,1.501E3,1.945E3,2.379E3,1.99E3,4.43E3,2.226E3,1.372E3,1.198E3,1.009E3,2.85E3,6.82E2,3.28E2,3.3E2,2.045E3,2.348E3,2.691E3,2.515E3,1.349E3,8.32E2,8.33E2,6.68E2,9.9E2,9.55E2,1.213E3,1.166E3,1.175E3,8.15E2,2.103E3,2.327E3,1.491E3,7.35E2,6.82E2,6.9E2,5.12E2,6.86E2,3.37E2,6.72E2,1.179E3,1.671E3,6.44E2,3.8E1],"tree_param":{"num_deleted":"0","num_feature":"480","num_nodes":"77","size_leaf_vector":"1"}},{"base_weights":[3.1706833E-4,-6.5418795E-2,2.6328343E-1,-1.1342002E-1,-1.4105412E-3,1.6918303E-1,3.0956027E-1,-1.3557236E-1,-8.1730805E-2,-3.2075007E-2,5.207678E-2,1.5880327E-1,1.7623298E-1,2.992362E-1,3.379499E-1,-1.7241934E-1,-1.285737E-1,-9.732889E-2,-6.97086E-2,-3.8780563E-2,-7.417242E-3,3.013229E-2,6.529872E-2,7.2713546E-3,8.048101E-3,1.7499155E-1,1.3292769E-2,2.922528E-1,1.5460193E-2,1.646297E-2,1.7424421E-2,-1.9508342E-1,-1.5967831E-1,-1.386748E-1,-1.1970212E-1,-1.0382617E-1,-9.005949E-2,-7.6572746E-2,-6.3220315E-2,-4.4468444E-2,-3.055605E-2,-1.3129327E-2,3.9838618E-3,2.2098701E-2,4.1199785E-2,6.1848313E-2,8.454927E-2,8.606336E-3,9.314969E-3,1.3997762E-2,1.4756724E-2,-1.018099E-2,-9.317406E-3,-8.564929E-3,-7.743602E-3,-7.2178836E-3,-6.699353E-3,-6.2239603E-3,-5.7237553E-3,-5.3295516E-3,-5.029275E-3,-4.6631107E-3,-4.3340805E-3,-3.99124E-3,-3.6432536E-3,-3.3285208E-3,-2.989962E-3,-2.4841146E-3,-2.0449369E-3,-1.6585769E-3,-1.3203216E-3,-8.8226434E-4,-4.366939E-4,-2.4398066E-6,4.0264984E-4,8.0587197E-4,1.3285867E-3,1.8378098E-3,2.2102057E-3,2.7802563E-3,3.3095062E-3,3.9996556E-3,7.1788304E-3],"categories":[],"categories_nodes":[],"categories_segments":[],"categories_sizes":[],"default_left":[0,0,0,0,0,0,0,0,0,0,0,0,0,0,0,0,0,0,0,0,0,0,0,0,0,0,0,0,0,0,0,0,0,0,0,0,0,0,0,0,0,0,0,0,0,0,0,0,0,0,0,0,0,0,0,0,0,0,0,0,0,0,0,0,0,0,0,0,0,0,0,0,0,0,0,0,0,0,0,0,0,0,0],"id":11,"left_children":[1,3,5,7,9,11,13,15,17,19,21,23,25,27,29,31,33,35,37,39,41,43,45,-1,-1,47,-1,49,-1,-1,-1,51,53,55,57,59,61,63,65,67,69,71,73,75,77,79,81,-1,-1,-1,-1,-1,-1,-1,-1,-1,-1,-1,-1,-1,-1,-1,-1,-1,-1,-1,-1,-1,-1,-1,-1,-1,-1,-1,-1,-1,-1,-1,-1,-1,-1,-1,-1],"loss_changes":[7.422399E2,1.0554242E2,3.7341248E1,1.3768982E1,2.4148108E1,1.7932892E-1,1.5856323E0,2.9568481E0,1.5082169E0,1.5470009E0,1.5546808E0,9.971619E-3,1.4017487E-1,2.0401001E-1,2.5100708E-2,5.004654E-1,8.5372925E-1,1.5662384E-1,1.9851112E-1,3.42803E-1,1.3043073E-1,1.7860234E-1,2.1708679E-1,0E0,0E0,2.1640778E-2,0E0,6.149292E-3,0E0,0E0,0E0,1.11198425E-2,3.9596558E-2,1.0147095E-1,1.1504364E-1,5.8460236E-3,9.939194E-3,2.0878792E-2,2.2987366E-2,7.8873634E-2,3.180337E-2,2.6325345E-2,1.0978301E-2,3.0927896E-2,9.696007E-3,7.335663E-2,1.2459731E-1,0E0,0E0,0E0,0E0,0E0,0E0,0E0,0E0,0E0,0E0,0E0,0E0,0E0,0E0,0E0,0E0,0E0,0E0,0E0,0E0,0E0,0E0,0E0,0E0,0E0,0E0,0E0,0E0,0E0,0E0,0E0,0E0,0E0,0E0,0E0,0E0],"parents":[2147483647,0,0,1,1,2,2,3,3,4,4,5,5,6,6,7,7,8,8,9,9,10,10,11,11,12,12,13,13,14,14,15,15,16,16,17,17,18,18,19,19,20,20,21,21,22,22,25,25,27,27,31,31,32,32,33,33,34,34,35,35,36,36,37,37,38,38,39,39,40,40,41,41,42,42,43,43,44,44,45,45,46,46],"right_children":[2,4,6,8,10,12,14,16,18,20,22,24,26,28,30,32,34,36,38,40,42,44,46,-1,-1,48,-1,50,-1,-1,-1,52,54,56,58,60,62,64,66,68,70,72,74,76,78,80,82,-1,-1,-1,-1,-1,-1,-1,-1,-1,-1,-1,-1,-1,-1,-1,-1,-1,-1,-1,-1,-1,-1,-1,-1,-1,-1,-1,-1,-1,-1,-1,-1,-1,-1,-1,-1],"split_conditions":[6.268173E-1,2.7310884E-1,8.584858E-1,1.7881894E-1,3.922005E-1,6.6530013E-1,9.3508774E-1,1.0731713E-1,2.2490925E-1,3.3130342E-1,4.615441E-1,6.411187E-1,8.593823E-1,9.0162784E-1,9.702294E-1,5.7127867E-2,1.4472254E-1,2.018151E-1,2.4913144E-1,3.0649096E-1,3.6505613E-1,4.3125334E-1,5.0151294E-1,7.2713546E-3,8.048101E-3,6.87317E-1,1.3292769E-2,8.7718177E-1,1.5460193E-2,1.646297E-2,1.7424421E-2,2.8488245E-2,8.9508615E-2,1.27227E-1,1.6141942E-1,1.8936066E-1,2.1328227E-1,2.3796974E-1,2.611502E-1,2.938283E-1,3.193753E-1,3.485269E-1,3.782466E-1,4.0928367E-1,4.4181007E-1,4.776906E-1,5.1235586E-1,8.606336E-3,9.314969E-3,1.3997762E-2,1.4756724E-2,-1.018099E-2,-9.317406E-3,-8.564929E-3,-7.743602E-3,-7.2178836E-3,-6.699353E-3,-6.2239603E-3,-5.7237553E-3,-5.3295516E-3,-5.029275E-3,-4.6631107E-3,-4.3340805E-3,-3.99124E-3,-3.6432536E-3,-3.3285208E-3,-2.989962E-3,-2.4841146E-3,-2.0449369E-3,-1.6585769E-3,-1.3203216E-3,-8.8226434E-4,-4.366939E-4,-2.4398066E-6,4.0264984E-4,8.0587197E-4,1.3285867E-3,1.8378098E-3,2.2102057E-3,2.7802563E-3,3.3095062E-3,3.9996556E-3,7.1788304E-3],"split_indices":[475,478,478,478,475,478,475,475,475,475,475,478,1,475,478,478,475,478,475,478,478,470,478,0,0,475,0,478,0,0,0,470,441,475,478,478,478,478,478,475,478,478,478,478,478,475,54,0,0,0,0,0,0,0,0,0,0,0,0,0,0,0,0,0,0,0,0,0,0,0,0,0,0,0,0,0,0,0,0,0,0,0,0],"split_type":[0,0,0,0,0,0,0,0,0,0,0,0,0,0,0,0,0,0,0,0,0,0,0,0,0,0,0,0,0,0,0,0,0,0,0,0,0,0,0,0,0,0,0,0,0,0,0,0,0,0,0,0,0,0,0,0,0,0,0,0,0,0,0,0,0,0,0,0,0,0,0,0,0,0,0,0,0,0,0,0,0,0,0],"sum_hessian":[4.2936E4,3.435E4,8.586E3,1.9629E4,1.4721E4,2.832E3,5.754E3,1.1551E4,8.078E3,9.357E3,5.364E3,1.155E3,1.677E3,4.228E3,1.526E3,1.84E3,9.711E3,3.513E3,4.565E3,7.356E3,2.001E3,2.018E3,3.346E3,1.7E2,9.85E2,1.657E3,2E1,2.504E3,1.724E3,8.54E2,6.72E2,6.57E2,1.183E3,4.534E3,5.177E3,1.848E3,1.665E3,2.213E3,2.352E3,4.346E3,3.01E3,1.333E3,6.68E2,1.171E3,8.47E2,2.841E3,5.05E2,1.335E3,3.22E2,4.94E2,2.01E3,3.21E2,3.36E2,3.36E2,8.47E2,2.036E3,2.498E3,2.693E3,2.484E3,9.8E2,8.68E2,8.41E2,8.24E2,1.168E3,1.045E3,1.179E3,1.173E3,1.761E3,2.585E3,1.842E3,1.168E3,6.56E2,6.77E2,3.36E2,3.32E2,5.03E2,6.68E2,3.47E2,5E2,1.171E3,1.67E3,4.71E2,3.4E1],"tree_param":{"num_deleted":"0","num_feature":"480","num_nodes":"83","size_leaf_vector":"1"}},{"base_weights":[3.595352E-5,-6.2250473E-2,2.496509E-1,-1.07797466E-1,-1.5159271E-3,1.6081493E-1,2.9397148E-1,-1.2843771E-1,-7.711564E-2,-3.0545555E-2,4.9584936E-2,1.5597562E-1,1.7562158E-1,2.8104421E-1,3.1474835E-1,-1.6132751E-1,-1.21147335E-1,-9.133002E-2,-6.57228E-2,-3.6873348E-2,-6.9977343E-3,2.8564395E-2,6.220504E-2,7.406669E-3,8.036653E-3,8.623312E-3,1.2695856E-2,1.3410731E-2,1.4199716E-2,1.5114764E-2,1.625554E-2,-1.855623E-1,-1.4983957E-1,-1.3039878E-1,-1.1274851E-1,-9.820285E-2,-8.497074E-2,-7.1936555E-2,-5.9643496E-2,-4.2253062E-2,-2.8996047E-2,-1.3728465E-2,2.1297983E-3,1.9354148E-2,3.768271E-2,6.128835E-2,1.347832E-1,-9.670186E-3,-8.852989E-3,-8.139318E-3,-7.2944574E-3,-6.7827883E-3,-6.3033737E-3,-5.8396496E-3,-5.367959E-3,-5.044737E-3,-4.7784E-3,-4.3976423E-3,-4.0600384E-3,-3.7643835E-3,-3.4436285E-3,-3.1179362E-3,-2.8181784E-3,-2.3775564E-3,-1.9511547E-3,-1.5756136E-3,-1.2551773E-3,-9.014912E-4,-5.2210886E-4,-1.8853977E-4,3.0220006E-4,7.6494925E-4,1.1677408E-3,1.6645415E-3,2.0995801E-3,2.8227034E-3,3.5084572E-3,2.7273581E-3,7.0991553E-3],"categories":[],"categories_nodes":[],"categories_segments":[],"categories_sizes":[],"default_left":[0,0,0,0,0,0,0,0,0,0,0,0,0,0,0,0,0,0,0,0,0,0,0,0,0,0,0,0,0,0,0,0,0,0,0,0,0,0,0,0,0,0,0,0,0,0,0,0,0,0,0,0,0,0,0,0,0,0,0,0,0,0,0,0,0,0,0,0,0,0,0,0,0,0,0,0,0,0,0],"id":12,"left_children":[1,3,5,7,9,11,13,15,17,19,21,23,25,27,29,31,33,35,37,39,41,43,45,-1,-1,-1,-1,-1,-1,-1,-1,47,49,51,53,55,57,59,61,63,65,67,69,71,73,75,77,-1,-1,-1,-1,-1,-1,-1,-1,-1,-1,-1,-1,-1,-1,-1,-1,-1,-1,-1,-1,-1,-1,-1,-1,-1,-1,-1,-1,-1,-1,-1,-1],"loss_changes":[6.7173505E2,9.564935E1,3.3923462E1,1.2503098E1,2.1984598E1,1.7854309E-1,1.4572754E0,2.8124847E0,1.2812729E0,1.4079952E0,1.4225187E0,5.73349E-2,1.2914276E-1,5.847168E-2,1.855011E-1,5.6798553E-1,7.368164E-1,1.4611244E-1,1.6252708E-1,3.1444645E-1,1.2308348E-1,1.6857815E-1,2.1488667E-1,0E0,0E0,0E0,0E0,0E0,0E0,0E0,0E0,1.1360168E-2,5.0769806E-2,8.755493E-2,9.812927E-2,2.3593903E-3,1.3578415E-2,1.7187119E-2,1.6416073E-2,7.385063E-2,2.884674E-2,1.6109958E-2,1.967759E-2,1.5947223E-2,1.7753363E-2,1.3831615E-1,1.5940666E-2,0E0,0E0,0E0,0E0,0E0,0E0,0E0,0E0,0E0,0E0,0E0,0E0,0E0,0E0,0E0,0E0,0E0,0E0,0E0,0E0,0E0,0E0,0E0,0E0,0E0,0E0,0E0,0E0,0E0,0E0,0E0,0E0],"parents":[2147483647,0,0,1,1,2,2,3,3,4,4,5,5,6,6,7,7,8,8,9,9,10,10,11,11,12,12,13,13,14,14,15,15,16,16,17,17,18,18,19,19,20,20,21,21,22,22,31,31,32,32,33,33,34,34,35,35,36,36,37,37,38,38,39,39,40,40,41,41,42,42,43,43,44,44,45,45,46,46],"right_children":[2,4,6,8,10,12,14,16,18,20,22,24,26,28,30,32,34,36,38,40,42,44,46,-1,-1,-1,-1,-1,-1,-1,-1,48,50,52,54,56,58,60,62,64,66,68,70,72,74,76,78,-1,-1,-1,-1,-1,-1,-1,-1,-1,-1,-1,-1,-1,-1,-1,-1,-1,-1,-1,-1,-1,-1,-1,-1,-1,-1,-1,-1,-1,-1,-1,-1],"split_conditions":[6.268173E-1,2.728924E-1,8.584858E-1,1.801994E-1,3.922005E-1,6.7911935E-1,9.145099E-1,1.1113714E-1,2.2684236E-1,3.3130342E-1,4.616599E-1,6.5800166E-1,8.593823E-1,8.8152397E-1,9.447455E-1,5.726666E-2,1.4669022E-1,2.0183411E-1,2.5049773E-1,3.0649096E-1,3.5991168E-1,4.2200118E-1,5.122547E-1,7.406669E-3,8.036653E-3,8.623312E-3,1.2695856E-2,1.3410731E-2,1.4199716E-2,1.5114764E-2,1.625554E-2,2.8390652E-2,8.967388E-2,1.2987469E-1,1.6402139E-1,1.8936066E-1,2.158299E-1,2.3821267E-1,2.6279423E-1,2.93021E-1,3.193753E-1,3.4411907E-1,3.7215576E-1,4.0923995E-1,4.4197214E-1,4.9038556E-1,5.076674E-1,-9.670186E-3,-8.852989E-3,-8.139318E-3,-7.2944574E-3,-6.7827883E-3,-6.3033737E-3,-5.8396496E-3,-5.367959E-3,-5.044737E-3,-4.7784E-3,-4.3976423E-3,-4.0600384E-3,-3.7643835E-3,-3.4436285E-3,-3.1179362E-3,-2.8181784E-3,-2.3775564E-3,-1.9511547E-3,-1.5756136E-3,-1.2551773E-3,-9.014912E-4,-5.2210886E-4,-1.8853977E-4,3.0220006E-4,7.6494925E-4,1.1677408E-3,1.6645415E-3,2.0995801E-3,2.8227034E-3,3.5084572E-3,2.7273581E-3,7.0991553E-3],"split_indices":[475,475,478,478,475,475,475,475,478,475,478,478,1,475,475,475,475,475,475,478,475,467,51,0,0,0,0,0,0,0,0,433,462,475,478,478,478,475,475,478,478,478,478,475,475,478,3,0,0,0,0,0,0,0,0,0,0,0,0,0,0,0,0,0,0,0,0,0,0,0,0,0,0,0,0,0,0,0,0],"split_type":[0,0,0,0,0,0,0,0,0,0,0,0,0,0,0,0,0,0,0,0,0,0,0,0,0,0,0,0,0,0,0,0,0,0,0,0,0,0,0,0,0,0,0,0,0,0,0,0,0,0,0,0,0,0,0,0,0,0,0,0,0,0,0,0,0,0,0,0,0,0,0,0,0,0,0,0,0,0,0],"sum_hessian":[4.3203E4,3.4576E4,8.627E3,1.9758E4,1.4818E4,2.873E3,5.754E3,1.181E4,7.948E3,9.45E3,5.368E3,2.174E3,6.99E2,3.556E3,2.198E3,2.139E3,9.671E3,3.533E3,4.415E3,7.448E3,2.002E3,2.015E3,3.353E3,8.33E2,1.341E3,6.75E2,2.4E1,6.82E2,2.874E3,1.012E3,1.186E3,6.83E2,1.456E3,4.595E3,5.076E3,1.691E3,1.842E3,2.178E3,2.237E3,4.423E3,3.025E3,1.152E3,8.5E2,1.004E3,1.011E3,3.313E3,4E1,3.44E2,3.39E2,3.31E2,1.125E3,2.062E3,2.533E3,2.888E3,2.188E3,8.18E2,8.73E2,1.016E3,8.26E2,1.029E3,1.149E3,1.214E3,1.023E3,1.67E3,2.753E3,1.833E3,1.192E3,4.97E2,6.55E2,3.39E2,5.11E2,5.01E2,5.03E2,5.05E2,5.06E2,2.15E3,1.163E3,4E0,3.6E1],"tree_param":{"num_deleted":"0","num_feature":"480","num_nodes":"79","size_leaf_vector":"1"}},{"base_weights":[-2.8915604E-4,-5.9566397E-2,2.3722698E-1,-1.0458813E-1,-4.458415E-3,1.5253752E-1,2.7933842E-1,-1.2411931E-1,-7.8579344E-2,-3.230226E-2,4.5002043E-2,1.475359E-1,1.6483347E-1,2.669588E-1,2.9891118E-1,-1.6030991E-1,-1.181534E-1,-9.175192E-2,-6.6511564E-2,-4.0566467E-2,-1.8400516E-2,2.1597965E-2,5.736877E-2,6.8951375E-3,7.5346157E-3,8.119612E-3,1.2102416E-2,1.2871656E-2,1.3537154E-2,1.44411E-2,1.5524039E-2,-1.7616157E-1,-1.4680237E-1,-1.2698832E-1,-1.1045506E-1,-9.647978E-2,-8.4306456E-2,-7.2114885E-2,-6.040821E-2,-4.988325E-2,-3.6580447E-2,-2.4645083E-2,-7.347653E-3,1.4296066E-2,3.1331256E-2,5.3524505E-2,7.394338E-2,-9.207205E-3,-8.40105E-3,-7.737285E-3,-7.06973E-3,-6.609486E-3,-6.126437E-3,-5.7306467E-3,-5.3284103E-3,-4.9245614E-3,-4.64191E-3,-4.3419376E-3,-4.0507065E-3,-3.7507575E-3,-3.4316052E-3,-3.1584755E-3,-2.8797926E-3,-2.6204383E-3,-2.273087E-3,-2.0009032E-3,-1.6901335E-3,-1.3787458E-3,-1.0838442E-3,-6.0281786E-4,-1.5101182E-4,4.4530616E-4,9.1911724E-4,1.3161638E-3,1.739031E-3,2.3174076E-3,2.9040403E-3,3.529199E-3,6.459785E-3],"categories":[],"categories_nodes":[],"categories_segments":[],"categories_sizes":[],"default_left":[0,0,0,0,0,0,0,0,0,0,0,0,0,0,0,0,0,0,0,0,0,0,0,0,0,0,0,0,0,0,0,0,0,0,0,0,0,0,0,0,0,0,0,0,0,0,0,0,0,0,0,0,0,0,0,0,0,0,0,0,0,0,0,0,0,0,0,0,0,0,0,0,0,0,0,0,0,0,0],"id":13,"left_children":[1,3,5,7,9,11,13,15,17,19,21,23,25,27,29,31,33,35,37,39,41,43,45,-1,-1,-1,-1,-1,-1,-1,-1,47,49,51,53,55,57,59,61,63,65,67,69,71,73,75,77,-1,-1,-1,-1,-1,-1,-1,-1,-1,-1,-1,-1,-1,-1,-1,-1,-1,-1,-1,-1,-1,-1,-1,-1,-1,-1,-1,-1,-1,-1,-1,-1],"loss_changes":[6.0553674E2,8.539504E1,3.0592743E1,9.612946E0,2.1315903E1,1.5125275E-1,1.3100281E0,2.3165588E0,1.2857971E0,1.1369781E0,1.6123438E0,4.1217804E-2,1.146965E-1,5.7296753E-2,1.687622E-1,3.013115E-1,6.178131E-1,1.285553E-1,1.4082146E-1,2.28796E-1,2.5478005E-1,1.3664907E-1,2.2841835E-1,0E0,0E0,0E0,0E0,0E0,0E0,0E0,0E0,1.4417648E-2,1.3814926E-2,8.3992004E-2,6.813812E-2,8.199692E-3,5.6028366E-3,1.7154694E-2,1.2187481E-2,1.8364906E-2,4.0213108E-2,1.9925475E-2,2.7166247E-2,2.4151683E-2,1.3353109E-2,9.4223976E-2,1.17841005E-1,0E0,0E0,0E0,0E0,0E0,0E0,0E0,0E0,0E0,0E0,0E0,0E0,0E0,0E0,0E0,0E0,0E0,0E0,0E0,0E0,0E0,0E0,0E0,0E0,0E0,0E0,0E0,0E0,0E0,0E0,0E0,0E0],"parents":[2147483647,0,0,1,1,2,2,3,3,4,4,5,5,6,6,7,7,8,8,9,9,10,10,11,11,12,12,13,13,14,14,15,15,16,16,17,17,18,18,19,19,20,20,21,21,22,22,31,31,32,32,33,33,34,34,35,35,36,36,37,37,38,38,39,39,40,40,41,41,42,42,43,43,44,44,45,45,46,46],"right_children":[2,4,6,8,10,12,14,16,18,20,22,24,26,28,30,32,34,36,38,40,42,44,46,-1,-1,-1,-1,-1,-1,-1,-1,48,50,52,54,56,58,60,62,64,66,68,70,72,74,76,78,-1,-1,-1,-1,-1,-1,-1,-1,-1,-1,-1,-1,-1,-1,-1,-1,-1,-1,-1,-1,-1,-1,-1,-1,-1,-1,-1,-1,-1,-1,-1,-1],"split_conditions":[6.2707376E-1,2.649097E-1,8.584858E-1,1.7297512E-1,3.7885478E-1,6.769786E-1,9.147647E-1,1.0205028E-1,2.1842362E-1,3.1382105E-1,4.4766226E-1,6.508359E-1,8.593823E-1,8.8687027E-1,9.599375E-1,5.726666E-2,1.411161E-1,1.9534397E-1,2.4335396E-1,2.8637198E-1,3.4047937E-1,4.163994E-1,4.9624208E-1,6.8951375E-3,7.5346157E-3,8.119612E-3,1.2102416E-2,1.2871656E-2,1.3537154E-2,1.44411E-2,1.5524039E-2,2.8390652E-2,8.9943E-2,1.2435334E-1,1.5634453E-1,1.8618463E-1,2.089244E-1,2.321422E-1,2.5378233E-1,2.7767506E-1,2.9925758E-1,3.2185307E-1,3.5665706E-1,3.971442E-1,4.3125334E-1,4.726275E-1,5.118641E-1,-9.207205E-3,-8.40105E-3,-7.737285E-3,-7.06973E-3,-6.609486E-3,-6.126437E-3,-5.7306467E-3,-5.3284103E-3,-4.9245614E-3,-4.64191E-3,-4.3419376E-3,-4.0507065E-3,-3.7507575E-3,-3.4316052E-3,-3.1584755E-3,-2.8797926E-3,-2.6204383E-3,-2.273087E-3,-2.0009032E-3,-1.6901335E-3,-1.3787458E-3,-1.0838442E-3,-6.0281786E-4,-1.5101182E-4,4.4530616E-4,9.1911724E-4,1.3161638E-3,1.739031E-3,2.3174076E-3,2.9040403E-3,3.529199E-3,6.459785E-3],"split_indices":[478,478,478,473,473,473,473,478,478,478,478,473,1,473,377,467,473,478,478,473,473,473,478,0,0,0,0,0,0,0,0,401,411,478,473,478,478,473,478,473,473,478,473,473,478,473,17,0,0,0,0,0,0,0,0,0,0,0,0,0,0,0,0,0,0,0,0,0,0,0,0,0,0,0,0,0,0,0,0],"split_type":[0,0,0,0,0,0,0,0,0,0,0,0,0,0,0,0,0,0,0,0,0,0,0,0,0,0,0,0,0,0,0,0,0,0,0,0,0,0,0,0,0,0,0,0,0,0,0,0,0,0,0,0,0,0,0,0,0,0,0,0,0,0,0,0,0,0,0,0,0,0,0,0,0,0,0,0,0,0,0],"sum_hessian":[4.3007E4,3.4418E4,8.589E3,1.8942E4,1.5476E4,2.854E3,5.735E3,1.0816E4,8.126E3,9.902E3,5.574E3,2.038E3,8.16E2,3.522E3,2.213E3,1.527E3,9.289E3,3.882E3,4.244E3,6.209E3,3.693E3,1.928E3,3.646E3,5.14E2,1.524E3,7.94E2,2.2E1,1.021E3,2.501E3,1.196E3,1.017E3,6.97E2,8.3E2,4.318E3,4.971E3,2.367E3,1.515E3,2.207E3,2.037E3,1.857E3,4.352E3,2.359E3,1.334E3,1.103E3,8.25E2,2.963E3,6.83E2,3.41E2,3.56E2,3.25E2,5.05E2,1.98E3,2.338E3,2.388E3,2.583E3,1.508E3,8.59E2,8.42E2,6.73E2,1.193E3,1.014E3,1.017E3,1.02E3,1.175E3,6.82E2,1.939E3,2.413E3,1.183E3,1.176E3,6.38E2,6.96E2,4.77E2,6.26E2,3.4E2,4.85E2,1.155E3,1.808E3,6.46E2,3.7E1],"tree_param":{"num_deleted":"0","num_feature":"480","num_nodes":"79","size_leaf_vector":"1"}},{"base_weights":[-1.4515422E-4,-5.6043245E-2,2.2547384E-1,-9.692314E-2,-4.4153916E-4,1.450646E-1,2.6547763E-1,-1.1538274E-1,-6.802545E-2,-2.714947E-2,4.481733E-2,1.4219806E-1,1.6575584E-1,2.5575262E-1,2.8823024E-1,-1.4543097E-1,-1.0868505E-1,-8.039564E-2,-5.800594E-2,-3.2888755E-2,-6.3808695E-3,2.594458E-2,5.6161102E-2,1.3368718E-1,7.321601E-3,8.016663E-3,1.153493E-2,1.2472159E-2,1.315777E-2,1.4024843E-2,1.495705E-2,-1.6369784E-1,-1.3338979E-1,-1.173157E-1,-1.00846134E-1,-8.597161E-2,-7.4039735E-2,-6.300597E-2,-5.2548803E-2,-3.763894E-2,-2.5954127E-2,-1.1274843E-2,3.4313546E-3,1.7736243E-2,3.399256E-2,5.53391E-2,1.2215511E-1,6.217423E-3,6.796011E-3,-8.736932E-3,-7.816701E-3,-7.1916403E-3,-6.58339E-3,-6.099846E-3,-5.659472E-3,-5.247529E-3,-4.7952677E-3,-4.4134306E-3,-4.0916745E-3,-3.8034064E-3,-3.5261202E-3,-3.2825128E-3,-2.9967853E-3,-2.7412164E-3,-2.515707E-3,-2.085356E-3,-1.7354947E-3,-1.4017342E-3,-1.113318E-3,-7.599459E-4,-3.7505475E-4,4.0009577E-6,3.4631835E-4,6.9713214E-4,1.0800225E-3,1.4983368E-3,1.8987915E-3,2.4877363E-3,3.0879208E-3,1.1726414E-2,5.674129E-3],"categories":[],"categories_nodes":[],"categories_segments":[],"categories_sizes":[],"default_left":[0,0,0,0,0,0,0,0,0,0,0,0,0,0,0,0,0,0,0,0,0,0,0,0,0,0,0,0,0,0,0,0,0,0,0,0,0,0,0,0,0,0,0,0,0,0,0,0,0,0,0,0,0,0,0,0,0,0,0,0,0,0,0,0,0,0,0,0,0,0,0,0,0,0,0,0,0,0,0,0,0],"id":14,"left_children":[1,3,5,7,9,11,13,15,17,19,21,23,25,27,29,31,33,35,37,39,41,43,45,47,-1,-1,-1,-1,-1,-1,-1,49,51,53,55,57,59,61,63,65,67,69,71,73,75,77,79,-1,-1,-1,-1,-1,-1,-1,-1,-1,-1,-1,-1,-1,-1,-1,-1,-1,-1,-1,-1,-1,-1,-1,-1,-1,-1,-1,-1,-1,-1,-1,-1,-1,-1],"loss_changes":[5.4483685E2,7.8697754E1,2.7554108E1,1.0635864E1,1.7735092E1,1.4558792E-1,1.193512E0,2.4342499E0,9.596138E-1,1.0996203E0,1.1642523E0,7.0941925E-2,8.309841E-2,1.2213135E-1,6.011963E-2,4.655838E-1,6.6194916E-1,1.16931915E-1,1.140728E-1,2.371521E-1,9.603219E-2,1.3455689E-1,1.7768002E-1,7.4100494E-4,0E0,0E0,0E0,0E0,0E0,0E0,0E0,4.3901443E-2,5.176544E-3,7.763672E-2,9.591675E-2,1.0333061E-2,6.2856674E-3,1.4250755E-2,7.7323914E-3,4.9647808E-2,2.1948576E-2,1.964049E-2,7.8002773E-3,1.4577985E-2,1.5411139E-2,1.1737633E-1,1.3342142E-2,0E0,0E0,0E0,0E0,0E0,0E0,0E0,0E0,0E0,0E0,0E0,0E0,0E0,0E0,0E0,0E0,0E0,0E0,0E0,0E0,0E0,0E0,0E0,0E0,0E0,0E0,0E0,0E0,0E0,0E0,0E0,0E0,0E0,0E0],"parents":[2147483647,0,0,1,1,2,2,3,3,4,4,5,5,6,6,7,7,8,8,9,9,10,10,11,11,12,12,13,13,14,14,15,15,16,16,17,17,18,18,19,19,20,20,21,21,22,22,23,23,31,31,32,32,33,33,34,34,35,35,36,36,37,37,38,38,39,39,40,40,41,41,42,42,43,43,44,44,45,45,46,46],"right_children":[2,4,6,8,10,12,14,16,18,20,22,24,26,28,30,32,34,36,38,40,42,44,46,48,-1,-1,-1,-1,-1,-1,-1,50,52,54,56,58,60,62,64,66,68,70,72,74,76,78,80,-1,-1,-1,-1,-1,-1,-1,-1,-1,-1,-1,-1,-1,-1,-1,-1,-1,-1,-1,-1,-1,-1,-1,-1,-1,-1,-1,-1,-1,-1,-1,-1,-1,-1],"split_conditions":[6.268173E-1,2.7504244E-1,8.584858E-1,1.8417537E-1,3.921901E-1,6.8766314E-1,9.268476E-1,1.1161371E-1,2.3058906E-1,3.3130342E-1,4.615771E-1,6.5793574E-1,8.593823E-1,8.982521E-1,9.7048026E-1,7.051625E-2,1.477794E-1,2.0908345E-1,2.5378233E-1,3.074575E-1,3.6505613E-1,4.2183998E-1,5.1112586E-1,6.410136E-1,7.321601E-3,8.016663E-3,1.153493E-2,1.2472159E-2,1.315777E-2,1.4024843E-2,1.495705E-2,2.8390652E-2,8.9508615E-2,1.3078484E-1,1.6500375E-1,1.985656E-1,2.225145E-1,2.4347113E-1,2.645509E-1,2.9499942E-1,3.205466E-1,3.485647E-1,3.782466E-1,4.0923995E-1,4.4197214E-1,4.878559E-1,5.0813913E-1,6.217423E-3,6.796011E-3,-8.736932E-3,-7.816701E-3,-7.1916403E-3,-6.58339E-3,-6.099846E-3,-5.659472E-3,-5.247529E-3,-4.7952677E-3,-4.4134306E-3,-4.0916745E-3,-3.8034064E-3,-3.5261202E-3,-3.2825128E-3,-2.9967853E-3,-2.7412164E-3,-2.515707E-3,-2.085356E-3,-1.7354947E-3,-1.4017342E-3,-1.113318E-3,-7.599459E-4,-3.7505475E-4,4.0009577E-6,3.4631835E-4,6.9713214E-4,1.0800225E-3,1.4983368E-3,1.8987915E-3,2.4877363E-3,3.0879208E-3,1.1726414E-2,5.674129E-3],"split_indices":[475,473,478,475,473,473,475,473,475,475,473,475,1,478,473,462,478,475,478,473,478,473,11,475,0,0,0,0,0,0,0,473,473,473,478,475,473,475,475,475,478,473,478,475,475,473,83,0,0,0,0,0,0,0,0,0,0,0,0,0,0,0,0,0,0,0,0,0,0,0,0,0,0,0,0,0,0,0,0,0,0],"split_type":[0,0,0,0,0,0,0,0,0,0,0,0,0,0,0,0,0,0,0,0,0,0,0,0,0,0,0,0,0,0,0,0,0,0,0,0,0,0,0,0,0,0,0,0,0,0,0,0,0,0,0,0,0,0,0,0,0,0,0,0,0,0,0,0,0,0,0,0,0,0,0,0,0,0,0,0,0,0,0,0,0],"sum_hessian":[4.3199E4,3.4622E4,8.577E3,1.9952E4,1.467E4,2.851E3,5.726E3,1.2173E4,7.779E3,9.226E3,5.444E3,2.511E3,3.4E2,4.02E3,1.706E3,2.215E3,9.958E3,3.478E3,4.301E3,7.228E3,1.998E3,2.045E3,3.399E3,8.45E2,1.666E3,3.17E2,2.3E1,2.189E3,1.831E3,1.014E3,6.92E2,8.75E2,1.34E3,4.733E3,5.225E3,1.846E3,1.632E3,2.239E3,2.062E3,4.287E3,2.941E3,1.333E3,6.65E2,1.014E3,1.031E3,3.359E3,4E1,1.74E2,6.71E2,3.41E2,5.34E2,1.78E2,1.162E3,2.204E3,2.529E3,2.843E3,2.382E3,1.174E3,6.72E2,1.022E3,6.1E2,1.192E3,1.047E3,1.01E3,1.052E3,1.789E3,2.498E3,1.876E3,1.065E3,6.52E2,6.81E2,3.4E2,3.25E2,5.14E2,5E2,5.17E2,5.14E2,1.801E3,1.558E3,1E0,3.9E1],"tree_param":{"num_deleted":"0","num_feature":"480","num_nodes":"81","size_leaf_vector":"1"}},{"base_weights":[8.736627E-8,-5.3337947E-2,2.1426982E-1,-9.328542E-2,-2.2356983E-3,1.3767256E-1,2.521917E-1,-1.1084252E-1,-6.791587E-2,-2.6845708E-2,4.2640988E-2,1.3007714E-1,1.4431292E-1,2.409256E-1,2.6979142E-1,-1.4120968E-1,-1.0501326E-1,-8.021018E-2,-5.7905965E-2,-3.2584444E-2,-7.160506E-3,2.4538834E-2,5.3365085E-2,6.0824007E-3,6.6360864E-3,1.4323013E-1,1.0896362E-2,1.146932E-2,1.2178778E-2,1.3095878E-2,1.4105885E-2,-1.5925439E-1,-1.3039802E-1,-1.13421336E-1,-9.8028116E-2,-8.538292E-2,-7.4451976E-2,-6.332596E-2,-5.2550573E-2,-3.9657477E-2,-2.7879009E-2,-1.2859713E-2,1.9693184E-3,1.816493E-2,3.3632297E-2,5.253972E-2,1.175539E-1,7.0366147E-3,7.6172845E-3,-8.577908E-3,-7.7368976E-3,-6.974771E-3,-6.326273E-3,-5.90296E-3,-5.489489E-3,-5.097587E-3,-4.6913996E-3,-4.35081E-3,-4.124405E-3,-3.8568396E-3,-3.5818485E-3,-3.297494E-3,-3.0136274E-3,-2.7719385E-3,-2.502793E-3,-2.2587618E-3,-1.8474791E-3,-1.5671963E-3,-1.2051605E-3,-8.273595E-4,-4.4329767E-4,-1.5266512E-4,2.650403E-4,7.2504836E-4,1.1459533E-3,1.5060314E-3,1.7943362E-3,2.4360383E-3,3.0609013E-3,1.1433253E-2,5.463334E-3],"categories":[],"categories_nodes":[],"categories_segments":[],"categories_sizes":[],"default_left":[0,0,0,0,0,0,0,0,0,0,0,0,0,0,0,0,0,0,0,0,0,0,0,0,0,0,0,0,0,0,0,0,0,0,0,0,0,0,0,0,0,0,0,0,0,0,0,0,0,0,0,0,0,0,0,0,0,0,0,0,0,0,0,0,0,0,0,0,0,0,0,0,0,0,0,0,0,0,0,0,0],"id":15,"left_children":[1,3,5,7,9,11,13,15,17,19,21,23,25,27,29,31,33,35,37,39,41,43,45,-1,-1,47,-1,-1,-1,-1,-1,49,51,53,55,57,59,61,63,65,67,69,71,73,75,77,79,-1,-1,-1,-1,-1,-1,-1,-1,-1,-1,-1,-1,-1,-1,-1,-1,-1,-1,-1,-1,-1,-1,-1,-1,-1,-1,-1,-1,-1,-1,-1,-1,-1,-1],"loss_changes":[4.9329813E2,7.055077E1,2.4954498E1,8.632202E0,1.6748505E1,1.250267E-1,1.0757141E0,2.014145E0,9.719963E-1,1.1061764E0,1.041359E0,1.3725281E-2,8.930588E-2,5.166626E-2,1.4320374E-1,3.3878708E-1,5.538788E-1,9.964943E-2,1.2374878E-1,2.512703E-1,1.1512177E-1,1.1531079E-1,1.724701E-1,0E0,0E0,1.2552261E-2,0E0,0E0,0E0,0E0,0E0,1.1571884E-2,2.3147583E-2,6.0459137E-2,7.715225E-2,1.6555786E-3,7.26223E-3,1.3419151E-2,1.3134003E-2,4.3558598E-2,5.8862925E-2,1.9911349E-2,1.4255796E-2,2.01872E-2,5.4345727E-3,1.0741329E-1,1.3688207E-2,0E0,0E0,0E0,0E0,0E0,0E0,0E0,0E0,0E0,0E0,0E0,0E0,0E0,0E0,0E0,0E0,0E0,0E0,0E0,0E0,0E0,0E0,0E0,0E0,0E0,0E0,0E0,0E0,0E0,0E0,0E0,0E0,0E0,0E0],"parents":[2147483647,0,0,1,1,2,2,3,3,4,4,5,5,6,6,7,7,8,8,9,9,10,10,11,11,12,12,13,13,14,14,15,15,16,16,17,17,18,18,19,19,20,20,21,21,22,22,25,25,31,31,32,32,33,33,34,34,35,35,36,36,37,37,38,38,39,39,40,40,41,41,42,42,43,43,44,44,45,45,46,46],"right_children":[2,4,6,8,10,12,14,16,18,20,22,24,26,28,30,32,34,36,38,40,42,44,46,-1,-1,48,-1,-1,-1,-1,-1,50,52,54,56,58,60,62,64,66,68,70,72,74,76,78,80,-1,-1,-1,-1,-1,-1,-1,-1,-1,-1,-1,-1,-1,-1,-1,-1,-1,-1,-1,-1,-1,-1,-1,-1,-1,-1,-1,-1,-1,-1,-1,-1,-1,-1],"split_conditions":[6.272129E-1,2.682882E-1,8.584858E-1,1.773951E-1,3.921901E-1,6.675944E-1,9.145099E-1,1.0714497E-1,2.225145E-1,3.2854304E-1,4.615441E-1,6.471688E-1,8.593823E-1,8.816704E-1,9.6579456E-1,5.7118516E-2,1.4367984E-1,1.983939E-1,2.469512E-1,2.9799902E-1,3.5996422E-1,4.3139356E-1,5.129221E-1,6.0824007E-3,6.6360864E-3,6.875549E-1,1.0896362E-2,1.146932E-2,1.2178778E-2,1.3095878E-2,1.4105885E-2,1.3981146E-2,8.9508615E-2,1.2577586E-1,1.604508E-1,1.8936066E-1,2.1102977E-1,2.3600098E-1,2.5729623E-1,2.8250772E-1,3.1181064E-1,3.441442E-1,3.7253338E-1,4.1245207E-1,4.4197214E-1,4.9155685E-1,5.139557E-1,7.0366147E-3,7.6172845E-3,-8.577908E-3,-7.7368976E-3,-6.974771E-3,-6.326273E-3,-5.90296E-3,-5.489489E-3,-5.097587E-3,-4.6913996E-3,-4.35081E-3,-4.124405E-3,-3.8568396E-3,-3.5818485E-3,-3.297494E-3,-3.0136274E-3,-2.7719385E-3,-2.502793E-3,-2.2587618E-3,-1.8474791E-3,-1.5671963E-3,-1.2051605E-3,-8.273595E-4,-4.4329767E-4,-1.5266512E-4,2.650403E-4,7.2504836E-4,1.1459533E-3,1.5060314E-3,1.7943362E-3,2.4360383E-3,3.0609013E-3,1.1433253E-2,5.463334E-3],"split_indices":[473,473,478,473,473,473,475,473,473,473,475,473,1,473,473,473,478,478,473,478,478,473,57,0,0,478,0,0,0,0,0,478,465,475,473,478,478,473,478,475,478,473,473,478,475,478,73,0,0,0,0,0,0,0,0,0,0,0,0,0,0,0,0,0,0,0,0,0,0,0,0,0,0,0,0,0,0,0,0,0,0],"split_type":[0,0,0,0,0,0,0,0,0,0,0,0,0,0,0,0,0,0,0,0,0,0,0,0,0,0,0,0,0,0,0,0,0,0,0,0,0,0,0,0,0,0,0,0,0,0,0,0,0,0,0,0,0,0,0,0,0,0,0,0,0,0,0,0,0,0,0,0,0,0,0,0,0,0,0,0,0,0,0,0,0],"sum_hessian":[4.3161E4,3.4559E4,8.602E3,1.9396E4,1.5163E4,2.85E3,5.752E3,1.1461E4,7.935E3,9.793E3,5.37E3,1.339E3,1.511E3,3.516E3,2.236E3,1.842E3,9.619E3,3.558E3,4.377E3,7.582E3,2.211E3,1.999E3,3.371E3,3.31E2,1.008E3,1.492E3,1.9E1,6.73E2,2.843E3,1.378E3,8.58E2,6.85E2,1.157E3,4.358E3,5.261E3,1.867E3,1.691E3,2.17E3,2.207E3,3.026E3,4.556E3,1.361E3,8.5E2,1.177E3,8.22E2,3.33E3,4.1E1,1.184E3,3.08E2,1.74E2,5.11E2,3.35E2,8.22E2,1.9E3,2.458E3,2.708E3,2.553E3,1.175E3,6.92E2,8.52E2,8.39E2,1.156E3,1.014E3,1.013E3,1.194E3,9.91E2,2.035E3,2.372E3,2.184E3,7.06E2,6.55E2,3.39E2,5.11E2,6.67E2,5.1E2,3.27E2,4.95E2,2.317E3,1.013E3,1E0,4E1],"tree_param":{"num_deleted":"0","num_feature":"480","num_nodes":"81","size_leaf_vector":"1"}},{"base_weights":[-3.2798143E-6,-5.1154763E-2,2.0079915E-1,-8.983226E-2,-4.483214E-3,1.2789823E-1,2.3957476E-1,-1.0681326E-1,-6.7833066E-2,-2.7771829E-2,3.7136246E-2,3.2776464E-3,1.3072613E-1,2.313984E-1,2.618028E-1,-1.3746178E-1,-1.01678245E-1,-7.948597E-2,-5.7472434E-2,-3.491242E-2,-1.5975282E-2,1.8426333E-2,4.7918934E-2,1.24044575E-1,1.3830794E-1,2.262723E-1,1.20061E-2,1.2797405E-2,1.362244E-2,-1.514349E-1,-1.2610719E-1,-1.0917649E-1,-9.52146E-2,-8.341806E-2,-7.339184E-2,-6.307217E-2,-5.261261E-2,-4.2948492E-2,-3.1451397E-2,-2.1183733E-2,-6.266018E-3,1.2204059E-2,2.6883438E-2,4.0906638E-2,5.3229224E-2,5.7709645E-3,6.335236E-3,1.3688126E-1,1.0433763E-2,1.0807029E-2,1.1428498E-2,-7.906114E-3,-7.2014774E-3,-6.6388124E-3,-6.0706204E-3,-5.6667845E-3,-5.2635274E-3,-4.9388004E-3,-4.5913025E-3,-4.2728945E-3,-4.0632742E-3,-3.8137843E-3,-3.553455E-3,-3.2861538E-3,-3.0200442E-3,-2.743561E-3,-2.4734812E-3,-2.253969E-3,-1.9576575E-3,-1.7029472E-3,-1.4418898E-3,-1.1821709E-3,-9.2883233E-4,-5.129652E-4,-1.1376695E-4,3.7902847E-4,7.930207E-4,1.1228874E-3,1.4899579E-3,1.8331651E-3,2.1922833E-3,2.5681085E-3,3.1183888E-3,6.714725E-3,7.231304E-3],"categories":[],"categories_nodes":[],"categories_segments":[],"categories_sizes":[],"default_left":[0,0,0,0,0,0,0,0,0,0,0,0,0,0,0,0,0,0,0,0,0,0,0,0,0,0,0,0,0,0,0,0,0,0,0,0,0,0,0,0,0,0,0,0,0,0,0,0,0,0,0,0,0,0,0,0,0,0,0,0,0,0,0,0,0,0,0,0,0,0,0,0,0,0,0,0,0,0,0,0,0,0,0,0,0],"id":16,"left_children":[1,3,5,7,9,11,13,15,17,19,21,-1,23,25,27,29,31,33,35,37,39,41,43,45,47,49,-1,-1,-1,51,53,55,57,59,61,63,65,67,69,71,73,75,77,79,81,-1,-1,83,-1,-1,-1,-1,-1,-1,-1,-1,-1,-1,-1,-1,-1,-1,-1,-1,-1,-1,-1,-1,-1,-1,-1,-1,-1,-1,-1,-1,-1,-1,-1,-1,-1,-1,-1,-1,-1],"loss_changes":[4.4294135E2,6.2040405E1,2.4717773E1,7.0135956E0,1.5098217E1,5.2775574E-1,9.779358E-1,1.6550522E0,9.842186E-1,8.40775E-1,1.1266599E0,0E0,1.3021088E-1,1.3285828E-1,2.557373E-2,2.2190666E-1,4.3000793E-1,8.618355E-2,1.1476135E-1,1.7167377E-1,1.9041586E-1,1.07284784E-1,1.298294E-1,2.107811E-2,1.0736847E-1,1.2374878E-2,0E0,0E0,0E0,1.07040405E-2,1.0304451E-2,5.6297302E-2,4.9915314E-2,3.3035278E-3,4.75502E-3,1.0271072E-2,1.3818264E-2,1.3358355E-2,2.8676987E-2,1.5284538E-2,2.0964269E-2,1.9827813E-2,1.0505676E-2,1.7498493E-2,3.1159878E-2,0E0,0E0,7.221222E-3,0E0,0E0,0E0,0E0,0E0,0E0,0E0,0E0,0E0,0E0,0E0,0E0,0E0,0E0,0E0,0E0,0E0,0E0,0E0,0E0,0E0,0E0,0E0,0E0,0E0,0E0,0E0,0E0,0E0,0E0,0E0,0E0,0E0,0E0,0E0,0E0,0E0],"parents":[2147483647,0,0,1,1,2,2,3,3,4,4,5,5,6,6,7,7,8,8,9,9,10,10,12,12,13,13,14,14,15,15,16,16,17,17,18,18,19,19,20,20,21,21,22,22,23,23,24,24,25,25,29,29,30,30,31,31,32,32,33,33,34,34,35,35,36,36,37,37,38,38,39,39,40,40,41,41,42,42,43,43,44,44,47,47],"right_children":[2,4,6,8,10,12,14,16,18,20,22,-1,24,26,28,30,32,34,36,38,40,42,44,46,48,50,-1,-1,-1,52,54,56,58,60,62,64,66,68,70,72,74,76,78,80,82,-1,-1,84,-1,-1,-1,-1,-1,-1,-1,-1,-1,-1,-1,-1,-1,-1,-1,-1,-1,-1,-1,-1,-1,-1,-1,-1,-1,-1,-1,-1,-1,-1,-1,-1,-1,-1,-1,-1,-1],"split_conditions":[5.089415E-1,2.645509E-1,8.586464E-1,1.7186198E-1,3.7885478E-1,5.118641E-1,9.3523294E-1,1.02109924E-1,2.1571301E-1,3.1373698E-1,4.4766226E-1,3.2776464E-3,6.6965294E-1,9.037094E-1,9.751659E-1,5.7118516E-2,1.398243E-1,1.9287457E-1,2.4001952E-1,2.8637198E-1,3.40447E-1,4.163994E-1,4.7731316E-1,6.469358E-1,8.593823E-1,8.774244E-1,1.20061E-2,1.2797405E-2,1.362244E-2,2.8488245E-2,8.9508615E-2,1.2443745E-1,1.5513664E-1,1.8018036E-1,2.0401616E-1,2.2889215E-1,2.5378233E-1,2.777053E-1,3.000488E-1,3.218616E-1,3.5706758E-1,3.971442E-1,4.3123707E-1,4.6677038E-1,5.0191295E-1,5.7709645E-3,6.335236E-3,6.8766314E-1,1.0433763E-2,1.0807029E-2,1.1428498E-2,-7.906114E-3,-7.2014774E-3,-6.6388124E-3,-6.0706204E-3,-5.6667845E-3,-5.2635274E-3,-4.9388004E-3,-4.5913025E-3,-4.2728945E-3,-4.0632742E-3,-3.8137843E-3,-3.553455E-3,-3.2861538E-3,-3.0200442E-3,-2.743561E-3,-2.4734812E-3,-2.253969E-3,-1.9576575E-3,-1.7029472E-3,-1.4418898E-3,-1.1821709E-3,-9.2883233E-4,-5.129652E-4,-1.1376695E-4,3.7902847E-4,7.930207E-4,1.1228874E-3,1.4899579E-3,1.8331651E-3,2.1922833E-3,2.5681085E-3,3.1183888E-3,6.714725E-3,7.231304E-3],"split_indices":[473,475,473,475,465,17,478,475,473,475,478,0,475,473,473,449,478,478,478,473,475,473,473,475,1,473,0,0,0,406,473,475,478,473,473,478,478,475,478,473,475,465,475,473,473,0,0,473,0,0,0,0,0,0,0,0,0,0,0,0,0,0,0,0,0,0,0,0,0,0,0,0,0,0,0,0,0,0,0,0,0,0,0,0,0],"split_type":[0,0,0,0,0,0,0,0,0,0,0,0,0,0,0,0,0,0,0,0,0,0,0,0,0,0,0,0,0,0,0,0,0,0,0,0,0,0,0,0,0,0,0,0,0,0,0,0,0,0,0,0,0,0,0,0,0,0,0,0,0,0,0,0,0,0,0,0,0,0,0,0,0,0,0,0,0,0,0,0,0,0,0,0,0],"sum_hessian":[4.3122E4,3.4368E4,8.754E3,1.8793E4,1.5575E4,3.041E3,5.713E3,1.0604E4,8.189E3,9.987E3,5.588E3,1.33E2,2.908E3,4.185E3,1.528E3,1.518E3,9.086E3,3.851E3,4.338E3,6.22E3,3.767E3,2.044E3,3.544E3,1.555E3,1.353E3,2.653E3,1.532E3,1.002E3,5.26E2,6.75E2,8.43E2,4.199E3,4.887E3,2.333E3,1.518E3,2.01E3,2.328E3,1.869E3,4.351E3,2.451E3,1.316E3,1.179E3,8.65E2,1.531E3,2.013E3,3.77E2,1.178E3,1.329E3,2.4E1,5.08E2,2.145E3,3.44E2,3.31E2,3.37E2,5.06E2,2.02E3,2.179E3,2.369E3,2.518E3,1.178E3,1.155E3,6.63E2,8.55E2,9.97E2,1.013E3,1.345E3,9.83E2,1.19E3,6.79E2,2.172E3,2.179E3,1.257E3,1.194E3,6.57E2,6.59E2,5.22E2,6.57E2,3.47E2,5.18E2,6.32E2,8.99E2,1.677E3,3.36E2,1.01E3,3.19E2],"tree_param":{"num_deleted":"0","num_feature":"480","num_nodes":"85","size_leaf_vector":"1"}},{"base_weights":[-6.420104E-5,-4.8066963E-2,1.9281526E-1,-8.318124E-2,-4.8322222E-4,1.2432815E-1,2.2743416E-1,-9.9714555E-2,-5.974772E-2,-2.3241913E-2,3.8558338E-2,1.1933698E-1,1.3317217E-1,2.175406E-1,2.435623E-1,-1.2605911E-1,-9.4256796E-2,-7.111058E-2,-5.053388E-2,-2.8300142E-2,-5.530492E-3,2.2187509E-2,4.809705E-2,5.664709E-3,6.1404565E-3,1.3153966E-1,9.946434E-3,1.0517391E-2,1.1052238E-2,1.1704205E-2,1.2582095E-2,-1.4410488E-1,-1.1672814E-1,-1.0120444E-1,-8.7493286E-2,-7.62187E-2,-6.5824874E-2,-5.5585943E-2,-4.5760915E-2,-3.2503527E-2,-2.2463795E-2,-9.743094E-3,3.045998E-3,1.635023E-2,3.035121E-2,4.5322146E-2,6.334928E-2,6.4816135E-3,7.1129547E-3,-7.754821E-3,-6.9861836E-3,-6.29545E-3,-5.6815255E-3,-5.261825E-3,-4.8799966E-3,-4.5445245E-3,-4.1906247E-3,-3.9088605E-3,-3.6946298E-3,-3.4277868E-3,-3.1678583E-3,-2.9142199E-3,-2.6612997E-3,-2.405568E-3,-2.169172E-3,-1.7954599E-3,-1.4923724E-3,-1.2336507E-3,-9.908641E-4,-6.2325964E-4,-2.691359E-4,-9.818076E-5,2.3780654E-4,5.999792E-4,9.822284E-4,1.3588E-3,1.6204481E-3,2.0144065E-3,2.441287E-3,2.9748396E-3,5.239543E-3],"categories":[],"categories_nodes":[],"categories_segments":[],"categories_sizes":[],"default_left":[0,0,0,0,0,0,0,0,0,0,0,0,0,0,0,0,0,0,0,0,0,0,0,0,0,0,0,0,0,0,0,0,0,0,0,0,0,0,0,0,0,0,0,0,0,0,0,0,0,0,0,0,0,0,0,0,0,0,0,0,0,0,0,0,0,0,0,0,0,0,0,0,0,0,0,0,0,0,0,0,0],"id":17,"left_children":[1,3,5,7,9,11,13,15,17,19,21,23,25,27,29,31,33,35,37,39,41,43,45,-1,-1,47,-1,-1,-1,-1,-1,49,51,53,55,57,59,61,63,65,67,69,71,73,75,77,79,-1,-1,-1,-1,-1,-1,-1,-1,-1,-1,-1,-1,-1,-1,-1,-1,-1,-1,-1,-1,-1,-1,-1,-1,-1,-1,-1,-1,-1,-1,-1,-1,-1,-1],"loss_changes":[3.9807983E2,5.7522964E1,2.028601E1,7.6687164E0,1.2990386E1,1.11190796E-1,8.5491943E-1,1.6578598E0,8.545952E-1,8.2728195E-1,8.396807E-1,2.4902344E-2,8.440399E-2,4.2633057E-2,1.0612488E-1,3.182621E-1,4.4337463E-1,9.4018936E-2,1.0668945E-1,1.7551088E-1,7.420321E-2,9.404892E-2,1.4107084E-1,0E0,0E0,2.166748E-3,0E0,0E0,0E0,0E0,0E0,1.078701E-2,2.3147583E-2,5.863571E-2,5.3455353E-2,2.6922226E-3,7.853985E-3,1.0882854E-2,1.0961533E-2,3.6685467E-2,1.7115593E-2,1.6277045E-2,5.8092694E-3,1.6375631E-2,4.5161247E-3,4.8845768E-2,7.694459E-2,0E0,0E0,0E0,0E0,0E0,0E0,0E0,0E0,0E0,0E0,0E0,0E0,0E0,0E0,0E0,0E0,0E0,0E0,0E0,0E0,0E0,0E0,0E0,0E0,0E0,0E0,0E0,0E0,0E0,0E0,0E0,0E0,0E0,0E0],"parents":[2147483647,0,0,1,1,2,2,3,3,4,4,5,5,6,6,7,7,8,8,9,9,10,10,11,11,12,12,13,13,14,14,15,15,16,16,17,17,18,18,19,19,20,20,21,21,22,22,25,25,31,31,32,32,33,33,34,34,35,35,36,36,37,37,38,38,39,39,40,40,41,41,42,42,43,43,44,44,45,45,46,46],"right_children":[2,4,6,8,10,12,14,16,18,20,22,24,26,28,30,32,34,36,38,40,42,44,46,-1,-1,48,-1,-1,-1,-1,-1,50,52,54,56,58,60,62,64,66,68,70,72,74,76,78,80,-1,-1,-1,-1,-1,-1,-1,-1,-1,-1,-1,-1,-1,-1,-1,-1,-1,-1,-1,-1,-1,-1,-1,-1,-1,-1,-1,-1,-1,-1,-1,-1,-1,-1],"split_conditions":[6.268173E-1,2.7504423E-1,8.586464E-1,1.7881894E-1,3.921901E-1,6.747123E-1,9.147647E-1,1.0948781E-1,2.2684236E-1,3.3088586E-1,4.615441E-1,6.545263E-1,8.593823E-1,8.8858235E-1,9.447455E-1,5.7118516E-2,1.466081E-1,2.0183411E-1,2.5065657E-1,3.0628607E-1,3.6500344E-1,4.3125334E-1,5.0191295E-1,5.664709E-3,6.1404565E-3,6.928541E-1,9.946434E-3,1.0517391E-2,1.1052238E-2,1.1704205E-2,1.2582095E-2,1.3981146E-2,8.9508615E-2,1.2987469E-1,1.6235562E-1,1.8939087E-1,2.1327989E-1,2.3821267E-1,2.629436E-1,2.9499942E-1,3.1800026E-1,3.528725E-1,3.7215576E-1,4.0924072E-1,4.4197214E-1,4.7731316E-1,5.12086E-1,6.4816135E-3,7.1129547E-3,-7.754821E-3,-6.9861836E-3,-6.29545E-3,-5.6815255E-3,-5.261825E-3,-4.8799966E-3,-4.5445245E-3,-4.1906247E-3,-3.9088605E-3,-3.6946298E-3,-3.4277868E-3,-3.1678583E-3,-2.9142199E-3,-2.6612997E-3,-2.405568E-3,-2.169172E-3,-1.7954599E-3,-1.4923724E-3,-1.2336507E-3,-9.908641E-4,-6.2325964E-4,-2.691359E-4,-9.818076E-5,2.3780654E-4,5.999792E-4,9.822284E-4,1.3588E-3,1.6204481E-3,2.0144065E-3,2.441287E-3,2.9748396E-3,5.239543E-3],"split_indices":[475,478,473,478,473,475,473,473,478,473,475,467,1,475,475,473,478,475,478,473,457,462,473,0,0,473,0,0,0,0,0,478,473,475,478,473,473,475,473,475,473,473,478,473,475,473,46,0,0,0,0,0,0,0,0,0,0,0,0,0,0,0,0,0,0,0,0,0,0,0,0,0,0,0,0,0,0,0,0,0,0],"split_type":[0,0,0,0,0,0,0,0,0,0,0,0,0,0,0,0,0,0,0,0,0,0,0,0,0,0,0,0,0,0,0,0,0,0,0,0,0,0,0,0,0,0,0,0,0,0,0,0,0,0,0,0,0,0,0,0,0,0,0,0,0,0,0,0,0,0,0,0,0,0,0,0,0,0,0,0,0,0,0,0,0],"sum_hessian":[4.2993E4,3.4426E4,8.567E3,1.9808E4,1.4618E4,2.878E3,5.689E3,1.1612E4,8.196E3,9.235E3,5.383E3,1.849E3,1.029E3,3.535E3,2.154E3,1.989E3,9.623E3,3.667E3,4.529E3,7.183E3,2.052E3,1.983E3,3.4E3,6.87E2,1.162E3,1.007E3,2.2E1,1.178E3,2.357E3,1.005E3,1.149E3,6.73E2,1.316E3,4.74E3,4.883E3,1.858E3,1.809E3,2.195E3,2.334E3,4.173E3,3.01E3,1.376E3,6.76E2,1.158E3,8.25E2,2.88E3,5.2E2,8.66E2,1.41E2,1.82E2,4.91E2,3.22E2,9.94E2,2.224E3,2.516E3,2.527E3,2.356E3,9.91E2,8.67E2,8.46E2,9.63E2,1.013E3,1.182E3,1.164E3,1.17E3,1.823E3,2.35E3,1.636E3,1.374E3,8.46E2,5.3E2,1.72E2,5.04E2,5.01E2,6.57E2,3.3E2,4.95E2,1.187E3,1.693E3,4.78E2,4.2E1],"tree_param":{"num_deleted":"0","num_feature":"480","num_nodes":"81","size_leaf_vector":"1"}},{"base_weights":[-7.297793E-5,-4.5720343E-2,1.8369456E-1,-7.9984434E-2,-1.8179473E-3,1.1821636E-1,2.1611713E-1,-9.555765E-2,-5.8879938E-2,-2.3029337E-2,3.6430255E-2,1.1460708E-1,1.2979431E-1,2.0884612E-1,2.3645991E-1,-1.2228449E-1,-9.077363E-2,-6.94768E-2,-4.9583487E-2,-2.7981395E-2,-6.2038186E-3,2.1806045E-2,4.6282988E-2,1.0888936E-1,5.9083533E-3,6.3740104E-3,9.467418E-3,2.042022E-1,1.0845329E-2,1.1557887E-2,1.2318596E-2,-1.3665095E-1,-1.1243932E-1,-9.769876E-2,-8.475364E-2,-7.374153E-2,-6.3956395E-2,-5.428851E-2,-4.5022137E-2,-3.260224E-2,-2.260027E-2,-1.0904844E-2,1.5731788E-3,1.53212445E-2,2.9555395E-2,4.5538686E-2,1.0047533E-1,5.038706E-3,5.536304E-3,9.737342E-3,1.0317077E-2,-7.3766485E-3,-6.631382E-3,-5.969736E-3,-5.454754E-3,-5.093887E-3,-4.728175E-3,-4.402626E-3,-4.069764E-3,-3.7639306E-3,-3.555705E-3,-3.31281E-3,-3.0768106E-3,-2.8400198E-3,-2.602563E-3,-2.3757012E-3,-2.1430699E-3,-1.9118276E-3,-1.5177374E-3,-1.2403508E-3,-9.890775E-4,-7.0750446E-4,-3.8077877E-4,-1.3065913E-4,2.2325055E-4,5.6103413E-4,9.190083E-4,1.281756E-3,1.5725229E-3,2.1137237E-3,2.6455047E-3,1.0938473E-2,4.6225004E-3],"categories":[],"categories_nodes":[],"categories_segments":[],"categories_sizes":[],"default_left":[0,0,0,0,0,0,0,0,0,0,0,0,0,0,0,0,0,0,0,0,0,0,0,0,0,0,0,0,0,0,0,0,0,0,0,0,0,0,0,0,0,0,0,0,0,0,0,0,0,0,0,0,0,0,0,0,0,0,0,0,0,0,0,0,0,0,0,0,0,0,0,0,0,0,0,0,0,0,0,0,0,0,0],"id":18,"left_children":[1,3,5,7,9,11,13,15,17,19,21,23,25,27,29,31,33,35,37,39,41,43,45,47,-1,-1,-1,49,-1,-1,-1,51,53,55,57,59,61,63,65,67,69,71,73,75,77,79,81,-1,-1,-1,-1,-1,-1,-1,-1,-1,-1,-1,-1,-1,-1,-1,-1,-1,-1,-1,-1,-1,-1,-1,-1,-1,-1,-1,-1,-1,-1,-1,-1,-1,-1,-1,-1],"loss_changes":[3.626518E2,5.209292E1,1.8236237E1,6.386902E0,1.2317147E1,1.04263306E-1,8.014221E-1,1.4196777E0,8.103752E-1,8.1353855E-1,7.793741E-1,3.1547546E-2,6.8198204E-2,1.1463928E-1,2.2254944E-2,2.2451782E-1,3.8755798E-1,8.6112976E-2,9.207058E-2,1.86872E-1,8.125316E-2,1.0919917E-1,1.259098E-1,1.5106201E-3,0E0,0E0,0E0,1.4656067E-2,0E0,0E0,0E0,1.042366E-2,1.0514259E-2,4.813385E-2,4.9194336E-2,3.4103394E-3,5.323887E-3,9.198666E-3,1.0035515E-2,5.0213337E-2,2.1211624E-2,1.4676392E-2,1.015671E-2,1.4720261E-2,6.5709352E-3,7.459259E-2,2.0596743E-2,0E0,0E0,0E0,0E0,0E0,0E0,0E0,0E0,0E0,0E0,0E0,0E0,0E0,0E0,0E0,0E0,0E0,0E0,0E0,0E0,0E0,0E0,0E0,0E0,0E0,0E0,0E0,0E0,0E0,0E0,0E0,0E0,0E0,0E0,0E0,0E0],"parents":[2147483647,0,0,1,1,2,2,3,3,4,4,5,5,6,6,7,7,8,8,9,9,10,10,11,11,12,12,13,13,14,14,15,15,16,16,17,17,18,18,19,19,20,20,21,21,22,22,23,23,27,27,31,31,32,32,33,33,34,34,35,35,36,36,37,37,38,38,39,39,40,40,41,41,42,42,43,43,44,44,45,45,46,46],"right_children":[2,4,6,8,10,12,14,16,18,20,22,24,26,28,30,32,34,36,38,40,42,44,46,48,-1,-1,-1,50,-1,-1,-1,52,54,56,58,60,62,64,66,68,70,72,74,76,78,80,82,-1,-1,-1,-1,-1,-1,-1,-1,-1,-1,-1,-1,-1,-1,-1,-1,-1,-1,-1,-1,-1,-1,-1,-1,-1,-1,-1,-1,-1,-1,-1,-1,-1,-1,-1,-1],"split_conditions":[6.268173E-1,2.682882E-1,8.586464E-1,1.7510328E-1,3.921901E-1,6.793709E-1,9.3508774E-1,1.04652025E-1,2.225145E-1,3.2854304E-1,4.6442756E-1,6.5793574E-1,8.593823E-1,9.036566E-1,9.752768E-1,5.7127867E-2,1.4271638E-1,1.9811524E-1,2.469512E-1,3.0277184E-1,3.5991168E-1,4.3123707E-1,5.1112586E-1,6.413117E-1,5.9083533E-3,6.3740104E-3,9.467418E-3,8.770348E-1,1.0845329E-2,1.1557887E-2,1.2318596E-2,1.387355E-2,8.9508615E-2,1.2443745E-1,1.5851335E-1,1.8805444E-1,2.1123514E-1,2.33951E-1,2.575243E-1,2.8402913E-1,3.1607917E-1,3.4413987E-1,3.7253338E-1,4.0924072E-1,4.4159684E-1,4.914092E-1,5.0813913E-1,5.038706E-3,5.536304E-3,9.737342E-3,1.0317077E-2,-7.3766485E-3,-6.631382E-3,-5.969736E-3,-5.454754E-3,-5.093887E-3,-4.728175E-3,-4.402626E-3,-4.069764E-3,-3.7639306E-3,-3.555705E-3,-3.31281E-3,-3.0768106E-3,-2.8400198E-3,-2.602563E-3,-2.3757012E-3,-2.1430699E-3,-1.9118276E-3,-1.5177374E-3,-1.2403508E-3,-9.890775E-4,-7.0750446E-4,-3.8077877E-4,-1.3065913E-4,2.2325055E-4,5.6103413E-4,9.190083E-4,1.281756E-3,1.5725229E-3,2.1137237E-3,2.6455047E-3,1.0938473E-2,4.6225004E-3],"split_indices":[475,473,473,475,473,473,475,475,473,473,473,475,1,475,475,454,475,473,473,473,475,475,11,473,0,0,0,475,0,0,0,473,425,475,475,475,475,473,475,473,475,475,473,465,473,473,83,0,0,0,0,0,0,0,0,0,0,0,0,0,0,0,0,0,0,0,0,0,0,0,0,0,0,0,0,0,0,0,0,0,0,0,0],"split_type":[0,0,0,0,0,0,0,0,0,0,0,0,0,0,0,0,0,0,0,0,0,0,0,0,0,0,0,0,0,0,0,0,0,0,0,0,0,0,0,0,0,0,0,0,0,0,0,0,0,0,0,0,0,0,0,0,0,0,0,0,0,0,0,0,0,0,0,0,0,0,0,0,0,0,0,0,0,0,0,0,0,0,0],"sum_hessian":[4.323E4,3.4629E4,8.601E3,1.9449E4,1.518E4,2.85E3,5.751E3,1.1189E4,8.26E3,9.765E3,5.415E3,2.181E3,6.69E2,4.245E3,1.506E3,1.695E3,9.494E3,3.857E3,4.403E3,7.544E3,2.221E3,2.181E3,3.234E3,8.49E2,1.332E3,6.47E2,2.2E1,2.71E3,1.535E3,9.97E2,5.09E2,6.84E2,1.011E3,4.408E3,5.086E3,2.169E3,1.688E3,2.162E3,2.241E3,4.056E3,3.488E3,1.384E3,8.37E2,1.189E3,9.92E2,3.192E3,4.2E1,1.67E2,6.82E2,5.17E2,2.193E3,1.75E2,5.09E2,3.17E2,6.94E2,1.876E3,2.532E3,2.553E3,2.533E3,1.351E3,8.18E2,8.52E2,8.36E2,1.007E3,1.155E3,1.031E3,1.21E3,1.152E3,2.904E3,1.952E3,1.536E3,6.95E2,6.89E2,3.42E2,4.95E2,5.1E2,6.79E2,3.28E2,6.64E2,2.217E3,9.75E2,1E0,4.1E1],"tree_param":{"num_deleted":"0","num_feature":"480","num_nodes":"83","size_leaf_vector":"1"}},{"base_weights":[3.735814E-5,-4.347188E-2,1.7441292E-1,-7.5053774E-2,-4.1369372E-4,1.121799E-1,2.0533675E-1,-8.946153E-2,-5.325994E-2,-2.1000024E-2,3.4622E-2,1.04014285E-1,1.164739E-1,1.9563456E-1,2.1916056E-1,-1.1167114E-1,-8.405937E-2,-6.337512E-2,-4.5643892E-2,-2.5457924E-2,-4.904427E-3,2.0729993E-2,4.3858398E-2,4.7755856E-3,5.2868663E-3,1.1584754E-1,8.889246E-3,9.245745E-3,1.9746554E-1,1.0536633E-2,1.1365245E-2,-1.272069E-1,-1.0263018E-1,-8.993537E-2,-7.761388E-2,-6.786639E-2,-5.8915004E-2,-5.013477E-2,-4.1336987E-2,-2.9133745E-2,-1.9953841E-2,-8.755975E-3,2.817629E-3,1.3421339E-2,2.7042469E-2,4.319066E-2,9.907524E-2,5.6687607E-3,6.125772E-3,9.877477E-3,8.7702796E-2,-6.6487268E-3,-5.8978642E-3,-5.3353156E-3,-5.0229547E-3,-4.6821875E-3,-4.3329922E-3,-4.000328E-3,-3.6742918E-3,-3.4741815E-3,-3.2733649E-3,-3.0345696E-3,-2.8098647E-3,-2.6293034E-3,-2.397918E-3,-2.1895666E-3,-1.972359E-3,-1.614972E-3,-1.3366094E-3,-1.0775744E-3,-8.5606583E-4,-5.591913E-4,-2.378963E-4,9.325797E-6,2.752078E-4,-1.3328546E-3,6.8446354E-4,1.1638204E-3,1.4934422E-3,1.94407E-3,2.4088451E-3,4.5111603E-3,1.0665012E-2,6.808874E-3,-1.4430315E-3],"categories":[],"categories_nodes":[],"categories_segments":[],"categories_sizes":[],"default_left":[0,0,0,0,0,0,0,0,0,0,0,0,0,0,0,0,0,0,0,0,0,0,0,0,0,0,0,0,0,0,0,0,0,0,0,0,0,0,0,0,0,0,0,0,0,0,0,0,0,0,0,0,0,0,0,0,0,0,0,0,0,0,0,0,0,0,0,0,0,0,0,0,0,0,0,0,0,0,0,0,0,0,0,0,0],"id":19,"left_children":[1,3,5,7,9,11,13,15,17,19,21,23,25,27,29,31,33,35,37,39,41,43,45,-1,-1,47,-1,-1,49,-1,-1,51,53,55,57,59,61,63,65,67,69,71,73,75,77,79,81,-1,-1,-1,83,-1,-1,-1,-1,-1,-1,-1,-1,-1,-1,-1,-1,-1,-1,-1,-1,-1,-1,-1,-1,-1,-1,-1,-1,-1,-1,-1,-1,-1,-1,-1,-1,-1,-1],"loss_changes":[3.2708847E2,4.691919E1,1.654483E1,6.2450943E0,1.053107E1,8.816528E-2,7.283325E-1,1.428093E0,6.075535E-1,6.5978384E-1,6.9248915E-1,4.477501E-3,5.1063538E-2,2.999878E-2,1.1428833E-1,3.1575775E-1,3.5816193E-1,6.412983E-2,8.5430145E-2,1.4512968E-1,5.9389453E-2,9.929019E-2,1.1536503E-1,0E0,0E0,1.6607285E-2,0E0,0E0,9.216309E-3,0E0,0E0,3.0034065E-2,2.4223328E-3,5.307007E-2,3.9606094E-2,2.0008087E-3,4.863739E-3,9.268761E-3,9.0100765E-3,3.194928E-2,1.2695789E-2,1.2876056E-2,4.6995636E-3,1.1135384E-2,1.1630893E-2,6.705761E-2,1.9178033E-2,0E0,0E0,0E0,2.6531668E-2,0E0,0E0,0E0,0E0,0E0,0E0,0E0,0E0,0E0,0E0,0E0,0E0,0E0,0E0,0E0,0E0,0E0,0E0,0E0,0E0,0E0,0E0,0E0,0E0,0E0,0E0,0E0,0E0,0E0,0E0,0E0,0E0,0E0,0E0],"parents":[2147483647,0,0,1,1,2,2,3,3,4,4,5,5,6,6,7,7,8,8,9,9,10,10,11,11,12,12,13,13,14,14,15,15,16,16,17,17,18,18,19,19,20,20,21,21,22,22,25,25,28,28,31,31,32,32,33,33,34,34,35,35,36,36,37,37,38,38,39,39,40,40,41,41,42,42,43,43,44,44,45,45,46,46,50,50],"right_children":[2,4,6,8,10,12,14,16,18,20,22,24,26,28,30,32,34,36,38,40,42,44,46,-1,-1,48,-1,-1,50,-1,-1,52,54,56,58,60,62,64,66,68,70,72,74,76,78,80,82,-1,-1,-1,84,-1,-1,-1,-1,-1,-1,-1,-1,-1,-1,-1,-1,-1,-1,-1,-1,-1,-1,-1,-1,-1,-1,-1,-1,-1,-1,-1,-1,-1,-1,-1,-1,-1,-1],"split_conditions":[6.268173E-1,2.750709E-1,8.584858E-1,1.8218371E-1,3.922005E-1,6.6214985E-1,9.10503E-1,1.1300206E-1,2.268932E-1,3.3130342E-1,4.6442756E-1,6.413117E-1,8.593823E-1,8.774244E-1,9.447455E-1,7.046108E-2,1.5012202E-1,2.0401616E-1,2.5065657E-1,3.0766228E-1,3.6526525E-1,4.2183998E-1,5.12086E-1,4.7755856E-3,5.2868663E-3,6.832182E-1,8.889246E-3,9.245745E-3,1.2086374E-1,1.0536633E-2,1.1365245E-2,4.440901E-2,9.9078834E-2,1.3291617E-1,1.692596E-1,1.926585E-1,2.1832322E-1,2.3827015E-1,2.611502E-1,2.9522735E-1,3.2076356E-1,3.529453E-1,3.782466E-1,2.9639609E-3,4.4159684E-1,4.880446E-1,4.6893768E-2,5.6687607E-3,6.125772E-3,9.877477E-3,2.3778241E-2,-6.6487268E-3,-5.8978642E-3,-5.3353156E-3,-5.0229547E-3,-4.6821875E-3,-4.3329922E-3,-4.000328E-3,-3.6742918E-3,-3.4741815E-3,-3.2733649E-3,-3.0345696E-3,-2.8098647E-3,-2.6293034E-3,-2.397918E-3,-2.1895666E-3,-1.972359E-3,-1.614972E-3,-1.3366094E-3,-1.0775744E-3,-8.5606583E-4,-5.591913E-4,-2.378963E-4,9.325797E-6,2.752078E-4,-1.3328546E-3,6.8446354E-4,1.1638204E-3,1.4934422E-3,1.94407E-3,2.4088451E-3,4.5111603E-3,1.0665012E-2,6.808874E-3,-1.4430315E-3],"split_indices":[467,475,478,475,475,473,478,473,473,475,473,473,1,473,467,441,478,473,478,478,459,473,46,0,0,467,0,0,338,0,0,457,473,473,478,473,473,473,478,478,475,